[[[0.713511103372],[-0.747860942356],[-1.4187143209],[0.28808689446],[-2.11462613521],[1.555006811],[-1.63874214688],[-2.06000221185],[-1.96078790717],[-1.20494123422],[-1.46611773027],[-0.398980607865],[0.517889348501],[1.95025772388],[1.26166998226],[1.28049232854],[-1.12276288711],[1.07893329182],[0.738660380376],[1.17280360931],[-0.11577570277],[1.34774484354],[-1.2394169637],[0.441998194681],[-0.776544349367],[-0.985363543413],[-1.01930168952],[-0.0369816382809],[-0.291364381086],[1.8074755214],[-1.65079228129],[0.261279595229],[-1.52069021293],[-0.487856605226],[1.23383140921],[-0.0112702339049],[-1.67829771269],[2.20181804495],[0.732649887088],[-0.600611733666],[-0.244824556766],[-1.94775177285],[1.46179830021],[0.298254710807],[-1.20120194174],[1.67604566842],[-1.41487042476],[-2.40407040795],[0.884122219798],[-0.170698822857],[-0.0206411787071],[-1.3556126705],[0.175213986507],[0.922281644499],[-1.20593533293],[0.619977973426],[1.06283470264],[-1.34461247238],[0.384338017436],[-2.16552075824],[0.570783662576],[-0.0929497008951],[-1.21870470209],[0.42226276103],[0.491859774598],[0.84769769586],[-1.77166173416],[1.49205440283],[-0.181137852067],[-0.905886066418],[1.07259462243],[0.0100968261154],[0.299387651998],[1.10146985836],[1.36399273045],[0.311464374561],[-0.400089305265],[0.530897590974],[-0.613269148563],[-0.637195236256],[0.467369834257],[-0.660587353275],[0.226906957982],[-0.507294501861],[1.11241970368],[-1.16924964567],[0.50626017925],[-2.22521331149],[-1.19992355202],[1.45045788433],[-1.28913022026],[-0.675532793375],[-0.579328586456],[0.575211654097],[-0.622578460578],[-0.0281799021284],[1.78697154288],[0.585773821649],[-0.872439579143],[-0.920648957027]],[[0.21520903605],[-1.04565093587],[-1.6815338498],[-0.8293073558],[-3.03228698843],[-3.13176502717],[-1.86915101624],[-0.755060223397],[-2.80524430827],[-2.40108572359]]]