[[[0.7173504073023643],[-0.7458155157618919],[-1.4255104010470026],[0.273332062815123],[-2.1067678358093547],[1.5490820315572649],[-1.6135859138429764],[-2.0518052154506172],[-1.9581122716908987],[-1.2112842936229706],[-1.469734929531813],[-0.40153383456187897],[0.5197094258624734],[1.9523138980655834],[1.252698132447377],[1.2851369083061466],[-1.1224927423118731],[1.0776152509262604],[0.7452613853194532],[1.1741624822026804],[-0.11506573244488259],[1.348529858154813],[-1.2444731100394384],[0.4434430747979954],[-0.776880040687934],[-0.9959495129675093],[-1.0265542807069716],[-0.037397013282870116],[-0.2864301940182667],[1.8150707838517701],[-1.6518520708606301],[0.26338202237846875],[-1.5068803319920083],[-0.49472525335793094],[1.241638038229972],[-0.017855280095777075],[-1.672190687422956],[2.208190545447111],[0.7373543706854345],[-0.5684800089974039],[-0.24771096462975079],[-1.9494572023901175],[1.451305977120136],[0.29046396837809746],[-1.2042368883098886],[1.6625014933836972],[-1.4223098233077367],[-2.401162251978765],[0.87974632349353],[-0.1728199203810184],[-0.010015687324579792],[-1.350455448004096],[0.17877844775228013],[0.9056554846753585],[-1.1980457670395852],[0.6098407679189403],[1.078032717515854],[-1.3486434151698141],[0.38763232150620375],[-2.1574989637692643],[0.5551305867147147],[-0.09743760049085454],[-1.2277951961330993],[0.41671025842492604],[0.47979498742713605],[0.8529491896679565],[-1.7693545981204377],[1.4852048447845827],[-0.1718471663761822],[-0.8933167612704016],[1.077752077387978],[0.021551529076494932],[0.3020795497833301],[1.0939520968845278],[1.3765779773678921],[0.31564107893542503],[-0.4033043762999657],[0.5297840423091055],[-0.6086306842605665],[-0.6361399239839268],[0.4806222715522426],[-0.6661758034750761],[0.2336946623170515],[-0.4990436943517473],[1.1068720377170447],[-1.1721623106268382],[0.5042109586993455],[-2.244290885388555],[-1.192966926739726],[1.442382277152715],[-1.2954149524722287],[-0.6787083481121629],[-0.5711984770030062],[0.5854054421488771],[-0.6231192262873443],[-0.024334636835676233],[1.7792232403767176],[0.5660129147030243],[-0.8765408139936325],[-0.9277671023414062]],[[0.2066380025529168],[-1.013492711397945],[-1.6896689084836847],[-0.8467186646198973],[-3.025280056779719],[-3.134667971093186],[-1.8302531264357582],[-0.7487922406800566],[-2.818089355816094],[-2.386191253064667]]]