[[[-0.0338600187846,0.0265364899565,-0.0204595805278,-0.0648121537825,0.0319860424341,0.0725971075148,-0.00951212092408,0.0328395983268,0.0899051838773,0.124988808054,-0.000756930015831,-0.00667988760523,0.0497296998549,0.0460913280282,0.0326287102124,0.0139064991346,0.0391676730384,0.0294382065695,-0.0346354398359,0.0324927292834,-0.0582576638828,-0.00771677322026,0.0390533044464,0.128762031286,-0.0539339242664,-0.0250279633648,-0.00354119481328,0.0235829221304,0.0190479985181,-0.0061040802864,0.0597398136845,0.00538853297604,0.0933673645525,0.0309472029096,0.0650751430672,0.0329539729072,-0.00708291034548,0.0475367324879,0.0557710875788,-0.0412326602061,0.0379471769873,0.0399488365522,0.00360846941776,-0.0128373441282,0.0236893306982,0.0454818552434,0.0438367493716,0.0611338838752,-0.0142164192576,-0.0255481603376,0.0117223316906,0.0518303236084,-0.116467026163,-0.00807002755305,0.103780202148,0.0639445713972,-0.105713773997,0.0457264355447,0.0410379069452,-0.000269232339844,0.0393447597128,-0.0914572975086,0.00224809411641,0.0482676671517,-0.0338504372724,0.0376232905093,0.015958172005,-0.0386253890879,-0.0102867343241,0.0360575380939,0.0626891059417,-0.0141163079898,0.00179249429425,0.0376857426161,-0.0291232133684,-0.0431501302507,0.00610601190563,-0.0634928686052,0.00308492664332,-0.0376116697486,-0.0102715335102,0.0269401439744,-0.0332645984991,0.00222033894639,-0.0623056031335,-0.0451197496466,0.0758645339938,-0.00139737288101,0.0100204117514,-0.0481533534536,-0.0129052936268,-0.0200366065637,0.0484462758962,0.053211451908,0.0246452913958,0.0942530390683,0.0483115644385,0.0431043923706,-0.109553224885,-0.0870550799091,-0.137935052457,0.0112118986441,0.101865710244,0.00136429219094,0.00533208971413,0.026850878677,-0.00747872566449,0.00349785434749,-0.0264984293533,-0.0200499420714,-0.0648330293469,0.027948325172,-0.0540167689621,-0.0296740675267,0.0234297649082,0.0485694629809,0.0064720729869,0.0547011350317,-0.0308393299187,-0.016933919902,-0.0918114710252,-0.0216452178409,0.0138457008651,0.0559435690205,0.034460931301,-0.156612360261,-0.122724883151,-0.087994618716,-0.180233185199,-0.0269534587674,-0.0397624834772,-0.175546413116,-0.0279623446102,-0.0726092047103,-0.0842487244728,0.0100685657677,-0.00563439481894,0.020334500205,-0.0536164253849,0.0316061115531,-0.0281207286091,0.0367465830433,0.00589631859084,-0.0227612187058,-0.0742916395513,0.0517597534136,-0.137320450091,-0.0646474376217,-0.0712535491912,-0.0323517100622,-0.0435452680785,0.031464531127,0.00514526647783,-0.0668064485223,-0.00556045982439,-0.0805280446874,0.0387794504069,-0.00768650102237,-0.091100005073,-0.0501542881053,-0.0191925025009,-0.13030505945,-0.016853072529,-0.0525429764283,-0.0173920846609,-0.0488697618214,0.0157376627206,0.0629122438818,-0.00649128910271,-0.057513410368,-0.0344396430351,-0.024041964584,0.03214197806,0.0439105602796,-0.063211125636,-0.0185216808804,-0.109479100386,-0.0266622156071,0.0689278430888,0.0884286254372,0.0510708764119,0.0854882677667,0.0715175818735,0.00299021955725,-0.0755165395447,0.0307968365617,-0.0750129696304,-0.0219139813031,0.0353082151166,-0.000827247563384,-0.0616943781814,-0.0351748357059,0.0139855116111,-0.0733179285268,0.0697056348696,0.000612828730704,-0.00963620984772,0.0385717412453,-0.0810633062864,0.00153572374062,-0.0214612204605,-0.0187346401561,-0.174776963745,-0.141253240948,-0.0190005314961,-0.0793589879633,-0.0602232976244,-0.0231643812296,0.0504667273776,0.0576607367417,-0.135764444413,-0.0751419533744,-0.0274927437096,-0.00364093712249,-0.107124437712,-0.118601607935,-0.00508634229999,0.0427903776625,-0.0671802106323,0.00200626096161,-0.0327827763275,-0.0053079291681,0.0195566847706,0.00305325888673,0.0415942221222,0.052909638175,-0.00181742730285,0.0180503518813,-0.0961427871037,-0.124689514791,-0.103339365285,-0.0932940350312,0.0356808764575,-0.0785754362421,0.00728731792454,-0.0159493560486,0.0386285463379,-0.0782454774579,-0.0786137418068,0.0116639166868,0.0443842236432,-0.000789518112848,0.0057216686398,-0.116013499057,0.0872077837032,0.00911719510877,-0.0116611681481,0.0166052704206,-0.0196389761378,0.0330058820443,-0.0660776621248,-0.020416221195,-0.101688163693,0.0850614893412,-0.0245382529952,0.0573495958215,-0.109566847473,-0.13975926798,-0.162640309336,-0.0270724049714,0.047774673387,-0.0299351412944,-0.145825185434,-0.194575154976,-0.125725982234,-0.102739650486,0.0101251410358,0.158684599597,0.201734756147,0.249869616321,0.116099335294,0.274567990952,0.115643108354,-0.021660866064,-0.0220087332037,-0.00886021496504,0.0492193812497,0.0579149352445,0.0246819404515,0.0376516000805,0.0879114977502,-0.021512938707,-0.029129528896,-0.0028024721809,0.111909537808,-0.0169904969003,-0.110669710444,-0.165403096446,0.083212468556,0.198027564067,-0.0435157562564,-0.0693875340133,-0.0582497929387,-0.103519610462,-0.215554749904,0.016482057517,0.109249678232,0.1211553277,0.34487572637,0.290725666399,0.141991260859,0.0263363217231,-0.098170252863,0.000737056594405,0.0690899810187,0.023204782652,-0.0886694129968,0.0282097348766,0.00211018988276,0.0301452218765,-0.0469484701171,-0.00746016132233,-0.0764585937907,-0.102822731923,-0.152250981798,-0.116931947276,0.260122887211,0.220318642929,-0.0713234515911,-0.0202467667047,-0.134705711128,-0.116949320693,-0.233816034108,-0.259809761703,-0.158316891343,-0.0525837231899,0.0204919461952,0.0890287084884,0.0882048512846,0.169514549961,0.0167955897413,0.138500691289,0.00228453258719,0.142220934913,0.0555293940274,0.068683996977,0.00397457089645,-0.00899937108101,-0.00685432041111,0.00926920554471,0.0215608671188,-0.0972923153998,-0.205391102824,-0.0766165967058,0.0701966079641,0.125745800811,0.0308444006621,-0.0741401256288,-0.0359867588923,-0.123292875936,-0.142215719817,-0.084462128637,-0.380697447567,-0.347846966499,-0.293198050345,-0.227272987639,0.102944829401,0.11716922008,0.0802247917676,0.0753040672759,0.0223473259673,-0.00848755856737,0.0374027222272,0.0117682264453,0.00429746523037,-0.000161468061605,0.0257561267709,-0.0137860782702,-0.0912713778648,-0.144646486877,-0.207886678918,-0.196542111892,0.126669986141,0.0327547472253,0.0786863192145,-0.0652878537501,-0.0447931229443,-0.214819336591,-0.0404385334236,-0.124226509592,-0.344525310348,-0.463363043566,-0.39704040353,-0.213736457662,0.00750877784343,0.042408079511,-0.0275484854141,0.071764077995,0.0411184882074,0.120628549539,0.0354540860108,0.0114593374861,-0.0493196554416,-0.0581708898738,-0.0721791594246,0.0368332497775,0.0567852534497,-0.136795647993,-0.214277451071,-0.0485397759669,0.0192312630163,0.0410799401123,-0.101939295284,-0.0693164347584,-0.0384136039997,-0.0626247176858,-0.100050711458,-0.0490875744409,-0.192563202,-0.463400207015,-0.336957802398,-0.306118403934,-0.183926474822,0.0102097658781,-0.0418184325878,0.0237803261868,0.00175775772306,-0.0612332899079,-0.0531886180781,0.0499326649287,-0.073110798533,0.0172300250578,0.00323476362842,0.0198852227385,-0.0233122559002,-0.144354933839,-0.0522303793116,-0.11165716942,-0.130124759975,0.132625051454,0.0713268428966,0.0551344195859,0.0821801640142,-0.107144476487,-0.00283173309145,0.0930617845471,0.00347975421611,-0.0883991440064,-0.250477087107,-0.310622559986,-0.292055521522,-0.0956681048266,-0.00369225646385,-0.0159335126561,-0.0166620766823,-0.0303544052968,-0.0569452496887,0.00395807253743,0.000936264643628,0.108269220766,0.0337444956321,0.0656568509162,-0.164446027852,-0.182978212547,-0.155458131388,-0.16532402413,0.0129880579691,0.124671749361,0.220313708151,0.156921588128,0.194285357813,0.0971014447731,-0.00756347133877,0.188986312763,0.125467382669,0.0151571782845,-0.142317701615,-0.230721009923,-0.338912282836,-0.271760605124,-0.0160310892046,-0.0950310694173,-0.0658471287419,-0.0496960855936,-0.110959818679,0.0478155243584,-0.0241907494162,-0.0315367543637,0.00875296636821,-0.0204191285955,-0.156000208205,-0.147377964762,-0.251979654631,-0.25453908768,-0.0803652205232,-0.00492547928479,0.0331411767278,0.09639388439,0.0832272565718,0.161331458339,0.0358859424852,0.192491153419,0.130713441204,0.0728773122189,-0.0541453823714,-0.28122000241,-0.272334112064,-0.0785746112775,-0.073429883869,-0.0553998217232,-0.0401694002542,0.0228785873306,-0.111855598042,-0.0150972018387,-0.0316618971145,-0.0378696002933,0.117935858206,0.027554258012,-0.0775625018147,-0.175333751989,-0.339760508441,-0.241711091954,-0.152891950797,-0.141786259975,0.0286612416746,0.117858881419,0.209798159999,0.180392613767,-0.0198597381613,0.116777418297,0.169464883883,0.0289539044818,-0.0902403032573,-0.209815223068,-0.289293027737,-0.256101130536,-0.0556750421185,-0.0337696056351,-0.0928461073524,-0.0370315426401,-0.0378929933875,0.0120218178421,0.0129793372197,0.0707709395305,-0.0224036413407,-0.0530270010077,0.00689837599689,-0.0485151626438,-0.102102481088,-0.15587873428,-0.0691669129777,-0.203644764688,-0.121057455651,-0.0309239709129,0.119388290935,0.0513941808732,0.0797912660692,-0.167144529702,0.0706659030732,0.0256813089248,0.0946650612495,0.0198589215463,-0.246090562214,-0.174547865592,-0.169098814677,0.028316267272,-0.00867980870016,-0.0376807429062,-0.0327023584964,-0.0508039705271,-0.00748117885846,-0.0629104334299,0.0834838977752,-0.0842155145077,-0.0602115283058,0.0529062723117,-0.00122668960798,-0.0715668645747,-0.232371351299,-0.273476436545,-0.260700730456,-0.225535812491,-0.100901321377,0.0263714805255,-0.0409265616073,-0.0788510664396,0.0126063220969,0.0333975433054,0.0268958104324,-0.0829751191339,-0.195708668406,-0.151655640825,-0.0769759798392,0.0441415283405,-0.0787830083763,0.0234170567041,0.0130274390373,0.0314661205266,-0.01044647945,-0.0822713480987,-0.0827995166796,-0.0455256744439,-0.0130015691249,0.0833952487341,0.0220804633374,0.13326176672,-0.0378288661936,-0.0650510444706,-0.0409560366954,-0.141385893407,-0.0496704966852,0.00347642773875,0.0199590779167,0.0179316936064,-0.0517598670838,0.0115324629346,-0.133231904433,-0.203187999509,-0.163931348667,0.0173490904459,0.000207164756729,-0.0671004600233,-0.114348718606,0.0479763056824,0.00254819502963,0.00849513005591,0.0541275390783,0.0528510695873,0.0257490214262,-0.00184111071506,0.0338962728445,0.207575083005,0.111709998837,0.108403880995,0.0513567803934,0.0494787661382,0.0274254112266,0.0703839672316,0.127308565604,0.0390413312954,0.0476213325902,0.0116834259872,-0.156153274648,0.00608057296964,-0.182933876518,-0.0719303432252,-0.126988750607,-0.127966453008,0.00404557613808,-0.0164852618641,0.0358886871676,0.0885748826261,-0.00293022682674,-0.0453689939816,0.0460920891039,0.0405193550395,0.0680075252594,0.0562517052385,0.00610751555683,0.0904228793228,0.168110163872,0.135308905093,0.113478983986,-0.00795760182492,0.00830131775206,-0.0693273522023,-0.0167281382521,0.00300724966629,-0.0610107981716,-0.0906765928024,-0.100362044891,-0.221591008362,-0.0880682244248,-0.141680473299,-0.045665106071,-0.157004164395,-0.0386340527412,0.0461639543877,0.0099041490815,0.0414741156773,-0.00269091886788,0.0260410712821,0.00655667469627,-0.0111533696962,-0.010827080833,-0.0255969909578,-0.0540263730069,0.0738572073913,0.0540348097497,0.151672933033,0.0630546350707,0.104052315219,0.0389357441552,0.0800398107193,0.0291579915012,0.0847228174285,0.0327657711155,-0.0174517711359,-0.0493948797548,-0.203645247589,-0.109084202605,-0.0653226365884,-0.0362610337607,-0.083136999645,0.00238267908423,-0.0893071683193,0.0189954067965,0.0769284669602,-0.0016373239464,0.0212168831134,-0.0813005493795,0.0425545674638,0.0242833245093,-0.0131576284997,-0.0601491223789,-0.0123855004211,0.019511429541,-0.045320765947,-0.00909171677893,0.0040269894724,-0.0089774622426,0.0619973970106,0.0608770098566,0.112849753963,0.0387586504599,0.032912015767,-0.152884759345,-0.0131704620598,-0.0047985398931,0.00318517348428,0.00658049008756,-0.0144533970294,0.0271277118704,0.00664416006876,-0.0325199718347,-0.000790517434027,0.0227913522453,0.0991472401752,0.0466595679302,0.000832990359915,0.033851887032,0.029251189083,0.0762987617446,0.142180391581,-0.038990117831,0.0155973848686,0.0667542373693,0.0495643748431,0.0646437228165,-0.0503624009619,0.0128515130327,0.0182856273218,0.00159035811084,0.00591495602566,0.0547916483597,-0.0166241974953,-0.00948619218738,-0.0787416817414,-0.081704884139,-0.0806885424084,-0.0216735565314,-0.0680541142137,0.0211104014274,-0.00631276915131,0.0194656297402,-0.019678785082,0.099477547752,0.0381231956091,0.0490137916093,0.00557615753577,0.0183071743162,-0.0101394047219,-0.0190248693655,-0.0065972622319,-0.0233988183173,0.0468493518148,-0.0170375783113,-0.0897068614218,0.00505619027801,-0.0555308625799,0.0106465292873,-0.121493423251,0.0234242887993,0.0576337494438,0.0482956833372,0.0655491699468,-0.0621957698644,0.0330979961643,0.0260038165408,0.00604181480847,-0.0390570524907,0.020966285483,0.054170432501,0.0262831535923],[0.0698628042699,-0.0148732040416,-0.00793664579999,0.0332036325596,-0.0156200539512,-0.0524855680341,0.00965693906867,0.00927016099609,-0.0621068660727,0.0700174609168,-0.0360797829902,0.097744128476,-0.0606304615412,0.000938269417775,-0.01278951381,0.0448722964386,-0.0408236980699,-0.0504413375744,0.0291874710665,0.0417118116941,0.0618595368705,0.0437409055528,-0.0293532687175,0.0559592623381,-0.0194519763007,0.035511820294,-0.0146256693877,0.0493569319272,0.00860516082677,0.0452820831841,-0.044557792026,-0.0335265103805,-0.0391576204373,-0.0393723004292,-0.00477466140749,-0.0549753858174,-0.0509123156025,-0.0829691749215,0.088809260813,0.00858112993986,-0.0369940905666,0.0167645158155,0.0353608637805,0.0734680150386,-0.0643449867397,0.0315005596697,-0.00512910343462,-0.0317256430036,-0.0424506915575,-0.0779069822776,0.0173898590159,0.0444040283531,0.058636348841,-0.00419417516398,-0.0113055058154,-0.047229639656,0.0364744593231,0.0246371570894,-0.00508295159123,0.0456108388255,-0.101173818649,0.0318272808055,0.06025812609,-0.0152386038321,-0.094887352265,0.00957634725117,-0.0649875433135,-0.0612348376444,-0.123349671932,-0.0546481431366,-0.132967814467,-0.0587873189725,-0.0574573352672,0.028732151498,-0.0195782944352,-0.00284474290501,0.0213225657906,-0.0107342835478,-0.0250000648696,0.00372707153155,0.0538121237483,-0.0712382704086,-0.00461407298237,0.0347879536146,0.0058764047217,-0.0325727675834,-0.00718341579424,0.0415464231517,-0.0275434474339,-0.0313859417285,0.0531538977289,-0.0546239189505,0.0013717581449,-0.0833063125325,-0.0999143702353,-0.153447899747,-0.23309526257,-0.216116012171,-0.223112126482,-0.202137297244,-0.127488560091,-0.0521703344115,-0.101973042895,-0.0397121969605,-0.113112471029,0.00564865282947,0.0271394897424,0.00393085680664,-0.00381306596333,-0.0339250373948,0.013106813449,0.00434100670297,-0.0666601523021,-0.0531883695456,-0.0179797979648,0.00719545543645,0.0189791429607,0.0208098222285,-0.10777959668,-0.0205440038183,-0.114406749082,-0.151812899051,-0.0519260683636,-0.122333059034,-0.125263271212,-0.301977050508,-0.294289284792,-0.0600133856899,-0.0649589377616,-0.0566730973183,0.0688537978619,-0.0184187667084,-0.132464987357,-0.0635647832274,-0.152157513572,-0.0395210306899,0.0770347925906,0.0264206458886,-0.0241915240865,0.0394976860578,-0.0509935573951,0.0446722316848,-0.0187498265198,-0.0475426083,0.0277235307271,-0.0248597455975,-0.0498029467969,0.0197324831901,-0.032054591475,-0.193902601611,-0.115843608304,-0.026474364068,-0.157726731395,-0.250970146029,-0.160417252903,-0.247370524941,-0.034345344558,-0.04402994324,-0.142241001436,-0.228295234776,-0.154290116107,-0.223776578412,-0.021920431865,0.0495847392499,0.0800927222801,0.0304447763138,0.0718600115988,0.0274851282855,-0.0942774659781,-0.0392337219561,-7.4683030683e-05,0.0661752188131,-0.02602717964,-0.0528329598275,-0.0462535269914,-0.0598469588252,-0.0793591458299,-0.0157830856834,0.0649638361881,0.10976737659,-0.0251474922376,-0.0374788580988,-0.155334419694,-0.0973430127699,-0.0282520118776,-0.0310025908946,-0.126525845676,-0.0560680507277,-0.0117561112028,-0.0718138341938,-0.0356160035854,0.132510102667,0.0862672531915,0.0631778785478,0.103566712501,-0.0591475197364,-0.03069269402,-0.0205456229944,-0.0306618470983,-0.0714427978262,-0.0294198679117,-0.0504548547351,-0.0571130446339,-0.0372576472646,0.0376421694335,0.0218506938482,0.207576431609,-0.023112098646,0.184679740832,0.0461255772794,-0.0480434350826,0.00315406660328,0.063966443868,0.0443929491784,-0.0105211481549,0.0737502932812,0.0559537598929,0.0172022825901,-0.0507523572739,0.0267865247881,-0.174200061386,-0.0589778471316,-0.0135111692123,-0.0719995987778,-0.039022019887,0.000236764749079,-0.0503859199272,-0.0479032858189,-0.105929136776,-0.0412037864271,-0.000167751433464,0.0462113806994,-0.0108505924372,0.0457073091498,0.0393272746954,0.0428029052103,-0.0144499610508,-0.00149709356255,0.0221101155376,0.0371789855439,0.0834827763086,0.085793205528,-0.0747786831925,-0.0393622832007,0.187498460704,0.0262807631989,0.0159931889979,-0.115780981403,-0.000293403683939,-0.0608557697338,-0.00535237158971,0.016549178551,-0.0330767413474,0.000906503957796,-0.0811782167631,-0.0997881441744,-0.0385277184168,-0.0229139443297,0.193481928306,0.0999868615989,0.00351750408608,0.0499021196852,-0.127840425868,0.0692991090808,-0.0871596089854,0.0994071945618,0.0312344147554,0.0214195211285,0.130285176196,0.0816216888657,0.038882354175,-0.0580577966256,0.000799098164781,0.0806995053289,0.133545121235,0.0329825558045,-0.00111298749188,0.0808139225091,0.128871921143,0.0234225316571,0.0348701195272,-0.050611251152,-0.0555958990006,-0.0671389327714,0.0828554788848,0.12212994005,0.0471362417582,0.0701053803096,-0.00517042970693,-0.0533753859451,0.0793419157594,0.105674430357,0.0269980299832,0.152545077717,-0.149781768147,-0.0325539968443,0.0380339177845,-0.193039489452,-0.1312581526,-0.132625618051,0.0746215516202,0.188059719104,0.228861420204,0.0050210105542,-0.0312485441294,0.115454667544,0.0576155754509,0.0492645592743,-0.0309598136255,-0.121509943522,0.047510696662,-0.0239425932947,0.083000249756,0.190928443392,0.151238249037,-0.0959393620177,0.127383134278,-0.0475487469464,-0.218396840848,0.0265038076088,-0.175703736451,-0.353291914245,-0.328647610115,-0.188915134005,-0.113618011639,-0.14858725048,-0.0654227946727,0.0574563774995,0.0469907580778,-0.0712442642075,0.154829251443,0.0793333603884,0.133129277374,0.0879846709887,0.0301897277768,-0.0434749579817,0.00767769563927,0.01063169011,-0.00495177459437,-0.0858113486093,0.0752251245567,0.278114333722,0.321007957751,0.0497859891471,0.0362145322357,-0.176052758016,-0.12937600398,-0.23748635899,-0.342631797146,-0.333382224863,-0.0386517141895,0.152654117498,0.0965502862026,0.124697110925,0.0531005690628,0.130060512111,0.107405991992,-0.0145918631997,0.151236385962,0.0701384384624,-0.008377008278,0.0845993496086,0.0194492671946,-0.0352348723725,0.0351337725469,-0.0439662917499,-0.0573411764267,0.0935162799124,-0.0208457872301,0.243615091319,0.15073032029,0.0649890368774,0.0844188946415,-0.0237321122309,-0.0530590740578,-0.179839107136,-0.135747679225,-0.0934029257355,0.0553984209463,0.0201600101455,0.100561549309,0.26258792715,0.134466046236,0.218974365961,0.273319441651,0.0626210452536,-0.0996302420194,-0.0207056025927,-0.000210546317411,-0.0464586155855,0.00567976240827,0.0756237956506,-0.0674083885278,0.0210054458739,-0.0327956467568,-0.00406207526343,-0.0152424535956,0.0842853342048,0.131997773332,0.304252192598,0.389509949161,0.431221306448,0.458631026011,0.295976555972,0.104059105047,0.0678580205184,0.189290199251,0.0586786338524,0.0695000520436,0.313996141966,0.0611942833543,0.151482390833,0.179711991898,0.0558928392129,-0.0718601119076,-0.000584966232295,-0.029351906693,-0.0399016423793,-0.0352627805419,0.0327386742269,-0.0230070137853,0.0327737993122,0.0590727651707,0.0440593739261,-0.123623222739,-0.0967094299179,0.0870048962758,0.305612398625,0.378734265349,0.630828189726,0.553313934284,0.519835577598,0.47161339779,0.447001983663,0.364607284133,0.20371471078,0.343693992745,0.194681479364,0.176576942964,0.0814064034107,-0.00977256586658,-0.0148258069989,0.0675575943703,-0.0840333220556,-0.0872093692107,-0.127056119095,0.0104580564251,0.0180018182877,0.0108469820145,0.00143897527705,0.0699864668319,0.00296597864985,-0.0327746464546,-0.120360600354,-0.155837230055,-0.0677743618584,-0.0364042350814,0.101655924978,0.1887450266,0.34677191267,0.505506539156,0.519695302289,0.259817068687,0.237548457416,0.177810466661,0.109362203231,0.0837595007366,-0.0542521322393,-0.10085604054,0.00249809161728,-0.0180619924319,-0.128684461256,-0.0207789896774,0.0433466072427,0.0144969643795,-0.0546892984884,-0.0748400570435,0.0206422401343,0.0118455331727,-0.0830178302285,-0.119554528665,-0.0612064222266,-0.237601842628,-0.274858405257,-0.365365498593,-0.570971210223,-0.539449303676,-0.316978330754,-0.130864160482,-0.0101140943555,0.051955307344,-0.0259676123768,0.0215398753824,0.0271819366725,-0.155568004661,-0.139157296701,-0.110078424069,-0.0478013779365,-0.144665476626,-0.0816373417181,0.0910708856265,-0.0739556172304,0.024974427337,-0.0140316485619,-0.0167711190962,0.00693690324597,0.0614690270238,-0.0146095928798,-0.111848139897,-0.154406833833,-0.25420747435,-0.299822938346,-0.311361892668,-0.397295249173,-0.458691003293,-0.381883965841,-0.314668590621,-0.382362945139,-0.121568795281,0.00447624700476,-0.058004629478,-0.0179134233093,-0.162383649405,-0.134737866838,-0.0996107246929,-0.0847283449496,-0.0535542306114,-0.0565419498655,-0.139196175862,-0.135356930446,-0.0839270896003,0.0176781622949,0.0014437762707,0.0416062769144,0.0197828715991,-0.00602623149379,-0.0544714032769,-0.150225225761,-0.144377909069,-0.0645048662628,-0.190272144517,-0.1905854584,-0.356924296741,-0.44291160955,-0.591812409623,-0.369953069486,-0.0824020916831,0.0713392985613,0.0955434642823,-0.0860046634469,0.0523428394677,-0.10804832712,-0.0341882704146,-0.194605881741,-0.0864521548223,0.0133847409406,-0.00243448688722,-0.0256241495041,0.055276583106,0.0657212972751,0.0749484488996,-0.0379764839537,-0.0342967880602,-0.0967824174218,-0.0801010444397,0.0389907512211,-0.0278840857188,0.0324315325358,-0.0590192071844,-0.0792446084587,-0.116181677221,-0.156432911735,-0.400602667708,-0.215716878946,0.0488405025932,0.158316075848,0.195610601116,-0.0771187017859,0.0547120318318,-0.00148639656183,-0.0381365344589,-0.0837579584984,0.114956582851,-0.0159946678442,-0.107117573352,-0.0222628756528,-0.0621383437604,-0.0416192521148,0.0407840120912,-0.00642632934136,0.0298901014315,-0.0857732152443,-0.048601216842,0.0215386603907,0.0249923689887,-0.0433980418665,-0.136041121709,-0.152684549796,-0.150557014017,-0.183943854031,-0.281631622187,-0.198097550338,0.00820577348878,0.275941355136,0.205989616842,0.0425169668531,0.00280177225401,-0.157157141962,-0.101444414817,0.0528086037212,-0.0503127106957,-0.0597195981375,0.082342214551,-0.031410284912,-0.0241087758267,-0.00923861048639,-0.0842498212858,0.0350695942727,0.0046627862993,-0.0174417155052,0.0372778084684,0.076206675079,-0.0115035590245,-0.0758959278381,-0.109549424328,-0.143233111475,-0.167146260152,-0.26586546966,-0.1800119485,-0.0835181834012,0.0471538402632,0.14458738932,0.0354196932033,0.0557046771999,0.0230704337454,-0.053485900088,-0.0886824824183,0.0465460260615,0.0844540231017,-0.0376747045012,0.0617884679467,-0.00879128885201,0.0541382895237,0.028091623667,-0.0142549642312,-0.00407719714943,-0.00142042847818,0.0230318661353,0.0707078157842,-0.0114668482787,0.158121472939,0.0977087611814,-0.0571870556629,-0.151003415881,-0.0705569799587,0.0697406965181,-0.163921419404,-0.00462107338182,0.012770273947,-0.0288346225233,0.166524066664,0.0633449918507,-0.0328201774182,-0.0362299781232,0.125915640133,0.0354655851845,0.0837058960778,0.00697424665579,0.00804447065527,-0.0527862385581,-0.0219345985648,-0.0159222600617,0.015269411679,-0.0068463772278,0.00752328670193,0.00453949543183,0.0401488290385,-0.0543698278996,-0.0315687269346,0.0896534831205,-0.102873052833,-0.189783857428,-0.10314717941,-0.133242751934,-0.203368228278,-0.0607085417716,0.10079178561,0.0424321763036,0.128483069137,0.184227696004,0.0486276912639,0.218824651537,0.179794900404,0.172313670482,0.117437235768,-0.0249379928037,0.0935880173155,0.0325298421533,-0.0749634458698,0.0485762018351,-0.0216735932183,0.0190032567131,0.0602567561231,0.0665628228557,0.00392991666898,0.0292920134652,-0.0193909083464,-0.0767664909142,-0.00566802442162,-0.039696713094,0.119906275746,-0.217307655983,-0.102288661091,0.0990833013588,0.166353760342,0.108075697993,0.240642810927,0.195766651794,0.0800466826244,0.184598555585,0.0923109593981,-0.0927867949036,0.00240215744588,0.0531298050051,-0.0469360528011,0.032156101698,-0.01463548715,-0.0199891119454,0.00814166411384,-0.014325309611,-0.0317593855522,-0.0176673511361,-0.00696403109947,-0.0775824828699,-0.0443726537281,0.0339012722514,-0.0770656422254,-0.0321902463729,-0.0255707851954,-0.0249579350733,-0.102251752705,-0.0347348904831,-0.0262407506105,0.07281913632,0.111520904283,0.0793625378848,-0.0751380051717,0.000123072255495,-0.00303273006479,-0.0433378881817,-0.00671829935905,-0.0295378110011,-0.0113813729419,-0.0473441972795,-0.0318703012032,0.0135934827838,0.00362430218563,-0.0442844132575,0.0324754149962,0.00721106632328,0.0822830422658,0.0106596273025,-0.0649351188455,-0.0345491688307,0.0130000802619,0.0663063702778,-0.00600717516281,-0.0886631709417,-0.0113704483044,-0.00318897295103,0.0331151809029,0.0130168900568,-0.0381688512297,-0.00276906540044,0.0139285121479,0.0145422067809,-0.0276560141173,-0.0617917568799,0.0258751862984,-0.026024836964,0.0365266429148,-0.0873371190921,-0.0141741413309,0.033791159576],[-0.00924705528845,0.123643866915,-0.0152844534332,0.0101163120729,-0.1295513334,-0.00568030258486,0.0499379382359,0.0371082773046,0.104220786266,0.0278534975631,-0.0941062023818,-0.000963528232766,0.0240623413439,0.0394053565774,-0.0261787758382,-0.0515069398511,0.070259406607,-0.0324699220107,0.0101936832288,0.0556563981614,-0.0682409222879,0.00333781122457,0.00886960835079,0.0563832308532,-0.0418041835784,0.0828667481516,-0.01101911005,-0.00487021567136,0.00493984796455,-0.0361104388316,-0.00371548481508,0.0195959756585,-0.0323348073068,0.105266742449,0.0233681051484,-0.0451951484536,0.0239770008999,0.0704959079549,-0.00226314672748,0.0159678269333,0.01092551903,0.00209226973896,0.065091535901,-0.0288028277117,-0.076989460863,-0.0625224782844,0.0730201009761,0.0257489933222,-0.0066061591647,0.00702723309601,0.0118087092927,0.0277052764644,-0.0574527473027,0.0251950437844,0.0503806540675,-0.0448578524494,0.00403174310436,0.0298910146638,-0.0375267501744,0.056512361884,-0.0358185260978,-0.0102209496587,0.0276335505377,-0.0532872499515,0.0379359486788,-0.107319727834,-0.0885290399935,-0.0158361988224,0.000116399135618,-0.023481904591,-0.0583365393474,-0.00635648600591,-0.0102639943261,0.0817398848668,-0.0949354259482,0.0106844854201,-0.037196663507,0.0475668850767,-0.0125335545775,-0.0776135326854,0.065902201613,0.0223290376265,-0.0526912456156,-0.00792713916871,-0.0224839614698,0.0629263010032,0.0152081421675,-0.04902705839,0.0332026878116,0.0572133391553,0.0263208962925,-0.0914824937638,-0.071088627003,-0.156064011746,-0.0412040277355,-0.12185407483,-0.124534906721,-0.218859078043,-0.179332217639,-0.287378244888,-0.165690429627,-0.134860572799,-0.040371308429,-0.0406222460284,-0.0563989160845,-0.0722404457087,0.064069131304,-0.0651025778852,0.0386742765755,0.0482286863314,-0.00419535058725,-0.0175591883096,0.070331340948,-0.0131276983288,-0.0122835043723,0.0199948160865,-0.054517214836,0.0504661764487,0.0738376724752,-0.0252407409809,-0.0718556386214,-0.135622616259,-0.125372334708,-0.212841650739,-0.299977920279,-0.394121778224,-0.466034794513,-0.528401706493,-0.311767227211,-0.347409567208,-0.261869130239,-0.213389738794,-0.0664246912248,-0.0382980467957,-0.0388365246161,-0.0521226981555,-0.0891486496011,0.00961311221806,-0.0141992574118,0.0417019243033,-0.0720694390229,-0.0064987736169,0.0162382208775,0.0898912815075,-0.0492441192288,-0.0960029319902,-0.0821513935665,-0.151671213541,0.0584543126054,0.025631974492,-0.120147469841,-0.150526442884,-0.128851193488,-0.197785833436,-0.254246704093,-0.0974081056474,-0.345048967083,-0.342730069329,-0.430012958431,-0.50197166314,-0.277845048447,-0.133295027579,-0.148867232626,-0.0130674624814,-0.0529177982137,0.0469720964791,0.0404266690711,0.0372388521296,0.0447628642802,0.0666031477119,0.025758941728,-0.0403533512269,-0.0972661903135,0.00647604615731,0.0484096134416,0.121181486954,0.140228965015,0.0403093854049,-0.258737204878,0.0271445972298,-0.0212894912319,-0.226292405744,-0.016343347979,-0.0435754181494,-0.082570880377,0.125368290949,0.0534509212206,-0.077336882506,-0.145503611278,0.0862013405225,-0.0318624136282,-0.0932125723479,-0.111035100068,-0.0144373384331,0.0653689505055,-0.0364715734205,-0.02223465584,0.00101059562522,0.0275565910519,0.0708256022023,0.0245403258658,-0.0926979792654,0.0473413561489,-0.0181369017348,0.00460062338551,0.269682647125,0.00995637546406,-0.0582593044978,-0.0175646616113,0.0967156787911,-0.072765454599,-0.0686217430571,-0.00743630569814,0.246516173127,-0.104048258137,-0.0133464944352,-0.0586258247802,-0.118187145469,0.0567936041163,0.124162977213,0.0460678402599,-0.048835373864,-0.00956167220325,0.0451313816293,-0.0257998787251,0.0555171509095,0.0640093235076,0.0518978438294,0.101200010245,0.0663340341522,0.116937475417,-0.0214171377097,0.234988364697,0.121779894626,0.098730771208,0.0239946038635,-0.243866689312,-0.128505029259,0.0502871144865,0.00850498292457,-0.0257481056215,-0.158104862995,0.120420703855,-0.221967148525,-0.210783753594,-0.210396066382,0.0558314931299,0.0671553344742,0.0282433164546,-0.060760311508,-0.0649412693091,-0.10962930929,0.0168741946777,-0.0504086242711,0.122595441933,0.110041377023,0.109004194376,0.220109322442,0.167108282939,-0.097463738243,0.138389209684,-0.00600564253494,0.0592169025999,0.172208378461,0.0940515613434,-0.0644818234162,0.162509619216,0.164490347497,0.00407437242264,0.00780729519095,0.0260925681076,-0.106199194954,0.00854036182039,-0.0873094997376,0.0484191594487,-0.134289886357,-0.147371338567,-0.201463582789,-0.1131580155,0.0246391462059,-0.0789156489186,0.027078370663,0.0833586757557,0.0944850015852,0.0775336761609,0.179803899333,0.221426241803,0.0690264403622,0.0475274324592,0.0901898180038,-0.0896864997726,0.177212242366,0.139793732799,-0.0510844060647,0.0684441773374,0.269833941264,0.210491496713,-0.0632814721886,0.17758439766,0.00434381859667,-0.173300996242,-0.167291467606,-0.0189459958394,-0.261508347982,-0.157373605421,-0.153929064493,-0.123456251539,0.0324845028341,0.0680342578114,-0.0481182633105,0.100109543227,0.106711016982,0.00682004848638,-0.0682732168964,-0.0130859105774,0.20494094348,0.0264863396656,0.0735787414584,0.325936902424,0.206396235758,0.224862765474,-0.171859108576,-0.0102298625503,0.360566076592,0.327804455329,0.566989097966,0.21004894778,0.094683959327,-0.0152072856056,-0.0520543416913,-0.0812871621098,-0.201480524972,-0.315706931333,-0.136547393888,-0.0618363224253,-0.0750519191588,0.0438135543836,0.0401060578216,0.0506496455106,0.0155878805623,-0.10212009269,-0.261227513669,-0.30338894535,0.101697257186,0.187465971251,0.144250399326,0.0566059662916,0.332606486213,0.0629462410076,-0.202258021722,-0.151759543908,0.21153521549,0.385527510361,0.282156066442,0.436283599676,0.0944054699734,0.00914557032035,0.14897174439,0.0273816407913,-0.334319789784,-0.328860773532,-0.166733976763,-0.0897712862321,-0.00695333996219,3.03567400947e-05,-0.00235237913468,0.0118662886939,0.0413838689163,0.1065872925,-0.102669656782,-0.0937780635812,0.319318111081,-0.0796712882584,0.242701859983,0.28983524431,0.106682218717,-0.119919879786,-0.37642833828,-0.0515396707052,0.411944367034,0.233446889386,0.314098383943,0.233692072845,-0.102116480253,0.085646007243,0.0132677131639,-0.0660571503204,-0.136904733566,-0.0954578742097,-0.10167728934,0.00528703382598,-0.0655300233415,0.0424395516406,-0.00585753364329,0.0881113648911,0.0312551165332,0.0714227160525,-0.0421768274443,-0.0724981103043,0.283953306933,0.260366554077,0.230620214588,0.231481359398,0.256573555475,-0.0377324740441,-0.170703817362,-0.014585581199,0.279757022655,0.698915041144,0.490026490526,0.518345076069,0.26764370696,0.233771950977,0.147441433842,0.0735879792626,0.0732719644355,-0.107424280227,0.0657827249617,-0.0474721120137,-0.0142365866292,-0.0952604285273,0.0187864672832,-0.0190919615047,-0.037906854946,-0.0540042570933,-0.0340020213935,0.0237642711424,0.138047537825,0.123668994936,0.107810987953,0.181864860206,-0.072305725655,-0.181753064248,-0.221660907921,-0.157010466064,0.361862745353,0.291636202294,0.602846186421,0.35861996608,0.261973857392,0.222327762802,0.23290627874,0.195898684315,-0.0671346428345,-0.0156409568987,0.0619228205348,0.00413206121489,-0.120759774748,-0.0150360698107,0.0368122054283,-0.0787807751355,-0.0225123954446,0.108944049615,-0.00530503144103,0.0824928340591,0.0840594656572,0.117254182132,0.0130201438863,0.0407702551159,-0.0865792657697,-0.0692969145109,-0.224683029997,0.139820419653,0.268205570811,0.503840141717,0.40129995314,0.247211619295,0.0652041604489,0.0717548966836,0.0290301924972,0.0307132014838,-0.0411656564709,-0.0932080656661,-0.0984759746259,0.0710521716186,-0.00893841950614,-0.00970998176068,0.0581772316698,-0.0669466839886,-0.083227452018,-0.0620739025616,-0.0279315821013,-0.184744757307,-0.0905705389653,0.0904782684299,0.0374008232532,0.0761994381052,-0.0574166177471,-0.2032666508,0.0241497393975,0.089645684799,0.417410887436,0.341702879316,-0.0141199188668,0.171634698651,-0.256663472916,-0.213328595269,-0.071207655078,-0.146239095018,-0.118943975855,-0.12559540802,0.0594011470512,-0.0199640961485,0.0153140578984,-0.0378223613029,-0.0154925451069,-0.0020735081496,-0.159369304147,-0.038894130153,-0.178956840457,-0.239536463836,-0.0838597092162,-0.0984995003048,-0.397225918016,-0.241130755999,-0.202391919798,-0.394866672785,-0.245610502715,0.0832755856139,0.00993546589238,-0.00951921036423,-0.135727407722,-0.291192078034,-0.404313026742,-0.311376254715,-0.33789918922,-0.405922509932,-0.323216273036,-0.221936685971,-0.0631898400327,0.0334661267397,0.1090974648,0.0353048881082,-0.0290535097263,0.0253530520505,-0.0197490771447,-0.0556214318253,-0.187870781488,-0.319601781801,-0.179774685956,-0.301050467223,-0.324176031663,-0.447984227304,-0.408148497486,-0.471207165171,-0.341215256436,-0.0080742506761,-0.287010675509,-0.2580428039,-0.378124404861,-0.342666314662,-0.270583685936,-0.341749321565,-0.46520739552,-0.387112259072,-0.216044778648,-0.168311776927,0.014014737429,-0.0224929395044,0.0130201694963,-0.0307059804391,-0.0631500381135,-0.0315778711996,-0.150895262154,-0.108109647906,-0.215467639863,-0.297381942801,-0.395790142774,-0.318129681647,-0.306940188952,-0.252388599153,-0.281328027135,-0.236399440811,-0.177576005535,-0.189877213491,-0.461852998963,-0.250693900613,-0.363128642155,-0.478953262541,-0.414039898514,-0.506306110235,-0.432967848241,-0.301153047398,-0.170965403519,-0.0456176382414,-0.0602187999823,-0.106870645715,-0.0570702524582,0.0560432068051,0.040430557663,-0.00216048049051,-0.085735101201,-0.103160539439,-0.330403364845,-0.445922989732,-0.397833743635,-0.273669151595,0.144132255651,-0.202066488404,-0.193824208652,-0.139792129411,-0.175738227876,-0.580854097897,-0.492722936058,-0.409313530875,-0.398489241388,-0.375857708039,-0.287072037671,-0.365645322804,-0.286643176199,-0.197134511488,-0.109498532301,0.0137885441214,-0.0025435995844,-0.0890773911602,-0.00583272170375,-0.0602191896571,0.0295683107616,-0.00111697678046,0.0281118495244,-0.113572548611,-0.397377481019,-0.197493773475,-0.155504312087,-0.0706419597358,-0.123386513235,0.0589042749548,-0.0509687138701,-0.0872464735637,-0.0945836912339,-0.0124008856855,-0.107851617008,-0.247031815726,-0.160561927592,-0.38749159995,-0.284949549092,-0.271059304573,-0.269626716429,-0.122205957142,-0.0885554316314,-0.0107169247835,0.0095553072395,-0.0448385411778,-0.0117569633357,-0.0558265646289,-0.00680767066281,0.0708270313038,-0.0204903070409,-0.276003159182,-0.291277327963,-0.022123393431,0.0129150160841,0.0730007187893,0.0263685430316,0.0107911941323,-0.158505918277,0.068881019718,0.070468464016,-0.0466985795687,-0.0688770513557,-0.0675660351578,0.0023830325006,-0.190114981939,-0.189699057691,-0.0987064822563,-0.110711149822,-0.128651444881,0.069303179395,-0.00914933991075,-0.06224979796,-0.0868602344207,-0.0105800496333,0.031959699307,0.0619589964388,0.0589883827044,0.0486552032693,-0.00717803638609,-0.147991510868,0.0263366493098,0.176611114613,-0.026483705783,-0.213063852588,-0.198279533632,-0.247296466524,-0.229249414936,-0.27469032957,-0.224519560193,-0.149166204368,0.0607624819659,0.0481948931483,0.0318589677357,0.00298616401069,-0.0545246088966,-0.0509665674161,0.0398924811405,0.00553800269686,-0.00282636721452,-0.00267150221306,0.0175550010181,0.0173299321304,0.0296265835702,-0.105181822238,0.000235496884579,-0.0718166469981,0.0669861374986,0.104146254636,0.102685970318,0.00361362571505,0.00311423911508,-0.0983030904614,-0.251244123906,-0.0706571896164,-0.139755678745,-0.13571843702,0.0627553555333,-0.0969893194161,-0.0706238819547,-0.133692744555,0.0460744915096,-0.0130056425416,0.164279238132,0.169882356882,0.0440651810757,0.109210236935,0.0925336386454,0.0568817538241,0.0137235249122,0.00861186306218,0.0397679248255,0.0613774107346,0.00884835061336,0.00362855708202,0.0652213240285,0.0340888399575,0.107869264983,-0.0540065853341,0.0905113163423,0.155069436252,0.104835603613,-0.0340598206823,-0.0389809588446,0.0326189355794,0.178054494767,0.0579489492475,0.0804401291203,0.125271455063,0.158892193531,0.0799747464396,0.055789656235,0.0275835140996,-0.0403009498316,0.0354645331029,-0.0169702878591,-0.0984281293624,0.122017466725,0.0321542292289,0.0114394190337,0.0937775407644,0.0230225369517,0.0684117952465,-0.0367484522586,0.042698952553,0.00419843964624,-0.0309331562034,-0.0644400547604,0.0636471386488,0.0370831389715,0.0651379894146,-0.0244150606789,-0.0243127528598,0.0465939923459,0.0312107047052,0.0735764838502,-0.00854671227201,0.0699208190795,0.0771219346384,0.0537589435677,0.037191340745,0.0220363975674,0.00615268255372,-0.0972240559333,0.0871813785894,0.0325028336061,-0.019979785954],[-0.0225905399542,0.0500601548389,0.0350004542739,0.0929303005874,0.0480019033925,0.0210239952407,0.00776379809935,-0.0207477433926,0.00953488031037,-0.012421198004,0.0563837437482,-0.0026311956105,0.0534092196005,0.0169103813889,-0.056989761404,0.0405368041403,0.0247026841635,0.0144116511038,-0.0882395538626,-0.0510447999215,-0.000841690590095,0.00934025403877,0.0828023590494,-0.101043876256,0.0428162789862,0.0366570841731,0.0194285894996,0.0564068168618,-0.0735767619624,-0.0371855047409,-0.0330138071598,-0.000660544905963,0.00723121208987,0.0496642854459,0.0217096482244,0.00742457602842,0.0277656480182,0.0845637280644,0.0430146531161,-0.0683210236527,-0.0187215541491,-0.00393335307099,-0.0754325026391,-0.0369248869928,-0.0828349750162,0.0325734811535,-0.00870783470928,-0.00971217263355,-0.0645135000536,0.0197006113477,0.0524205582785,0.0113920213475,-0.0644323806446,-0.00877866130299,0.0362361137447,0.026838607655,0.0201475336206,-0.00634550831687,9.69915435242e-05,-0.0299885783088,-0.0363949171722,0.0355432356254,0.0375328659976,-0.0106485550507,0.0156788452598,0.0175578906779,0.017018966079,0.0369797318476,0.107769764914,0.226960150336,0.0849240965796,-0.0613016303964,-0.083641487947,-0.00570502361005,-0.0755041127479,-0.113410672056,-0.0347264763796,-0.00849826230517,-0.130644191931,0.026407611601,-0.000897050606222,0.0377298463936,-0.0113157532209,-0.0398572830923,-0.0345396057584,-0.0784039807234,0.0187431079638,0.041889707962,-0.00678944157534,-0.0335816526913,0.0310167924087,-0.0124492093511,-0.0340024146283,0.140905085407,0.102900992979,0.238931784162,0.252565834084,0.216051153679,-0.0153321757064,0.0177079281712,0.0586035778812,0.0914221789282,-0.0421203938703,-0.199660931284,-0.170584030114,-0.157070063391,-0.220772066498,-0.121569293288,-0.0815929459846,0.0943566713977,0.00337034365022,-0.111143870963,0.116386084857,-0.0103094517977,0.15545090575,-0.101212792669,0.105655445432,-0.136400526385,0.0135983261336,0.0133437697006,0.0135155760294,0.0876428616701,0.195241659497,0.255805777721,0.300892675979,0.0585007851641,0.112498052925,0.0965625251104,0.0881085614576,0.224236426437,0.164510187003,0.0674605848329,-0.258145884506,-0.244882696289,-0.228261940528,-0.094335958466,0.0358196955057,-0.0751915558984,0.0516766049744,-0.0407334359206,-0.0164524814232,-0.0494191222217,0.0133160545278,-0.030804916976,-0.0413844373455,-0.150532696828,-0.106054992026,-0.0844468179619,0.0613240963871,0.193697437425,0.203647692496,0.391695379603,0.234859634923,0.0763599598377,0.15333834559,0.025579714578,0.106665326382,-0.164237383732,-0.0140968999194,-0.148781480849,0.0636524336079,0.029073663299,-0.006826800881,-0.0971392772343,-0.118538869727,-0.115089631146,0.007346527733,0.0260748175238,0.0164260360697,-0.104533734208,-0.0242240231765,-0.0817017866631,-0.0844815913015,-0.262331065879,-0.272765287037,-0.222304239849,0.0368517954657,-0.165249070788,-0.0804366356546,0.208071951557,0.234644721978,0.0912302555264,0.0921203878859,-0.243848424952,-0.181826863399,-0.0844478603805,-0.00589494487442,0.000986511142815,-0.189074319755,-0.0594262211613,-0.0391272898526,-0.0420491054919,-0.14963559428,0.091337668915,0.0152139405386,0.0424109400295,0.0233095419037,0.0218620870395,-0.071042285007,-0.0902972502385,-0.214532437678,-0.262006069924,-0.218074283221,-0.140297460018,0.111099925939,-0.00724387030477,0.0941786889575,0.209150992234,0.237452537168,-0.105856482947,-0.170306443505,-0.180353231903,-0.0244755645424,-0.0994251793005,-0.197207299278,-0.167554408055,-0.14408114104,-0.00624884923637,0.00502495361048,-0.146154170853,-0.143752332486,-0.039571836604,0.00592045759107,0.0144791901892,0.0722269304568,-0.0121313352755,-0.0750157700823,-0.117767935453,-0.191300400387,-0.366922780747,-0.161324632585,-0.0952164147449,-0.0377012857948,-0.0611166532258,0.336441450948,0.358877956756,-0.225293712874,-0.227954969972,-0.235738989175,-0.0525427703544,0.0861369729938,0.192259294782,-0.0402526594682,-0.0569281546846,0.0781540480295,0.0188917096417,0.0193655591164,0.173569828883,0.064578424009,0.0325811175976,0.0240600196322,0.0298380422525,0.0110006981584,0.0165885592711,-0.0383353703843,-0.0950475174268,-0.0527850558574,-0.179825924588,-0.101993901617,0.0568567569791,0.0949185958767,0.294444039129,0.629374424866,0.19187616127,-0.389331254472,-0.698831430663,-0.368966122028,0.0240750631585,0.0299800204811,0.091611454569,0.109037790475,0.0880763853831,0.127822376045,0.030547799921,0.0480598954982,-0.00452492317732,0.176170329229,0.104673082864,-0.0744608903335,0.0474718344481,0.0167980266329,-0.0267286970906,-0.0280976038636,-0.0322461240185,0.0391394665472,0.0455717347804,0.108099160037,0.175451788803,0.111314804028,0.422706543259,0.591440358766,-0.13676270226,-0.500873983077,-0.541667237341,-0.365082238458,-0.240450575396,-0.074642156017,-0.0358946870789,0.00882806465558,-0.0241770693821,0.0182322453003,0.120545645079,-0.0325840629347,0.0836927457431,0.137148433404,0.0846040153456,-0.0288384970942,-0.0168848545057,-0.00768536616422,-0.0671645992113,-0.0618355577262,0.00597838677407,-0.110942101124,0.0595462881613,-0.0133160182448,0.220484112428,0.247595381418,0.717526077444,0.563126720451,0.0600289809925,-0.27665885026,-0.395841345999,-0.30877382442,-0.379511200956,-0.21347700523,-0.0472003020768,-0.160075260673,0.0205795724993,0.103715759184,0.121876386897,0.128730375291,0.0607546720153,0.150263508876,0.203174033126,0.0551564736089,-0.0401375342758,0.0429163477795,0.00940542540559,-0.0319131494879,-0.0230355374618,0.105071621569,0.100632792091,0.106996102046,0.160153396301,0.348098869845,0.747992800929,0.415987072089,-0.137029828815,-0.25225597139,-0.108807585,-0.386878374874,-0.295353708085,-0.334126981036,-0.0571175176276,-0.136002243275,0.103266538967,0.0785141664043,0.0818873251613,0.107385305929,-0.0271156451777,0.0419029342146,0.098492744666,0.10053133189,0.0808785150882,-0.106556291644,-0.147828050537,-0.0653666350848,0.0618359341255,-0.0197191449831,0.154266495329,0.156707253102,0.241265164242,0.311317464642,0.41861341527,0.13273699107,-0.0741037125815,-0.00314389570182,0.206389007327,-0.12997359281,-0.0811645830544,-0.110195693679,-0.210788927918,-0.152974857401,0.0683842174067,0.132721878164,0.074461247802,0.163909921229,0.0774764990372,0.126845875962,0.166393657548,0.103028936342,0.038850964395,-0.0568316551933,-0.115046122403,-0.0095955690388,0.0447260225849,0.0548861713263,-0.0585160687847,0.0623810196633,0.313710387042,0.277747187303,0.163895653632,0.146286290753,0.156477420279,0.035782768126,0.133486855021,-0.115815191882,-0.0774372396783,0.271952016572,0.0681734223691,0.060309621079,-0.103573443182,0.0819037591229,0.0832511595245,0.0920107276557,0.0932012765063,0.167301904725,0.244312010465,0.070020900047,0.0539232478665,0.101244290048,0.0111560674667,0.056317701795,0.0115085000832,0.0651854643071,0.0161220547514,0.0410122999972,0.0862506029148,0.166501109754,0.233663840101,0.323806891684,0.0402521846784,0.14344521192,-0.0392899316704,-0.11528552077,-0.416202859887,0.00706502640706,-0.0765714095234,-0.183679390296,-0.0925222206317,-0.163146417436,-0.151806380105,-0.141167042111,0.0527489015564,0.199525084538,0.212191110352,0.0462562614551,0.00591549113389,-0.0384873648202,-0.0231439617612,-0.0481837887218,0.0627167383838,0.0805540204935,-0.0824036182349,0.128889527775,0.141477961455,0.165781118909,0.351849461933,0.118904534828,0.0514012578352,0.0208819007148,-0.0660623920972,-0.151624181959,-0.354579035564,0.0289101766604,0.150283497393,-0.0706081395105,-0.120684039779,-0.100054095741,-0.0909391132681,-0.0633535657867,0.0255959102036,-0.0208648787648,0.354725949552,0.186169581936,0.0110120608416,-0.00618424785613,0.0566458414387,-0.0477069002485,0.0603520473633,0.14148323629,-0.183977457236,0.146349446224,0.0216760119976,0.100188133372,0.240483590258,0.31921170226,0.140096283199,0.152504429211,0.0907984480231,-0.144585819695,-0.20661398228,0.0336468883385,-0.0205026702345,-0.0710401380774,-0.0107510742202,0.110043366959,-0.309795482189,-0.0944789410078,0.00716133504332,0.0628843888617,0.236412937699,-0.00215853292321,-0.00893156016017,0.0036426650026,-0.0157963681229,-0.031587364516,0.0426253868317,-0.0723744231443,-0.0576306650932,-0.0381736279433,0.0212019637363,0.0342229066335,0.377226324546,0.427908138831,0.250901191909,0.230387880885,0.0451960041241,-0.0579320563604,-0.261076725881,-0.132959851534,-0.231815351402,-0.106182036753,0.0886571219149,0.0848383778003,-0.0512184216474,0.00587939221383,0.119163731675,0.293945772488,0.166691631898,0.0774164802209,-0.0316858063175,0.0419787020336,-0.0459341926353,-0.0106861364164,-0.0105512545745,-0.16253432454,-0.189774230923,-0.223392485633,-0.0060893694658,0.0853795288741,0.100947248891,0.142908017399,0.1697026033,0.225763418349,0.261735436653,-0.14289385623,-0.190063459811,-0.238063846503,-0.0761971339182,0.0946166354391,-0.0165178548045,-0.0421847168687,0.0476092497236,0.109765026997,0.183366405701,0.0170270100123,-0.00571501635862,-0.0811442513486,-0.0624239347117,-0.0309311893911,-0.0246387111267,0.0937809180475,0.177054190077,-0.132106159574,-0.0506753025409,0.00920258076145,-0.00127617922339,-0.0624613392648,-0.116217607497,-0.0358558409434,0.0847907626877,0.220871070494,0.103245258078,-0.112804948229,-0.10836817109,-0.0245463194175,0.0262743077157,0.0718943994037,0.0293681155798,0.0460677163863,0.192417704492,0.230313309136,0.162691059338,-0.0377977868806,0.0416853189174,-0.0247233369849,-0.0129608430533,-0.0134999790979,-0.010841507647,0.0725829485692,0.157905777225,0.0264999661777,0.0406337862554,0.00469339886716,0.0173139958757,-0.0806740109269,-0.0898207699683,-0.166045978895,-0.131452120131,0.193453217991,0.327109068474,0.112354882181,0.149335973106,-0.16475422903,-0.163111613773,0.0743354064817,0.125007924452,0.0541668769054,0.0501382077743,0.20277033593,0.374550817984,-0.0247347322284,0.0551686812687,-0.0106134228777,0.0243877860822,-0.0397299797258,0.0788494756404,-0.0155551282097,0.0983193378167,0.162036608823,0.0322758899944,-0.0745872516997,-0.133501227413,-0.0549699224291,-0.134051790191,0.0631001138992,0.0769852544067,0.0023847525304,-0.0541981081372,0.0109753674675,-0.022499063272,-0.18991886946,-0.0787011592227,0.115229845882,-0.000587696092022,0.0849227716869,0.245043705387,0.116959753675,0.171612885508,0.00423245500828,0.0807382453259,-0.0513934611222,0.0524166102782,-0.045327062157,-0.0811382201665,0.0216869298917,-0.0277877037912,0.0723216696646,-0.00055410622384,-0.226157406426,-0.306310803937,-0.205281792818,-0.047996554743,-0.0387431791148,-0.194141092933,-0.0960209426732,-0.199824775851,0.0188945354751,0.171901806005,0.154215052308,0.223228640359,0.0833063512292,-0.0334141546319,0.0521098322101,0.254599950956,0.136709584103,0.184899778961,-0.0383546192701,0.00208533617885,-0.0200135947137,-0.0212303668402,-0.0604710033197,0.0116839737304,-0.0360783856253,-0.0651775634698,-0.058998054339,-0.0527009043241,-0.33856963066,-0.469210131431,-0.233413495677,-0.0692414513694,-0.030289480516,0.0794667689906,-0.0266186722371,-0.173831877116,0.00649367890058,0.1375448077,0.380026286274,0.303606331803,0.284857188727,0.211122835464,0.016581677711,0.0244551415121,0.170484238937,0.021460841647,-0.0309498719284,0.0155385112419,-0.0252008864071,0.0354433757463,0.142722304295,-0.0415515816693,0.00252594135852,-0.0488489758327,-0.0285200318184,-0.172583223569,-0.0453732363539,-0.0905361951683,-0.148335836737,-0.110466218762,-0.21270697111,-0.281348036488,-0.235963897388,-0.120812322936,0.0654886334566,0.272123787893,0.215250776037,0.288909808792,0.109504816843,-0.00981473970598,0.0406558389913,-0.0238234944658,0.03161959364,0.0134846430758,0.000703004452661,-0.0553549547249,-0.0634376322635,0.0695823387124,-0.0166826557025,-0.0268030693339,-0.079025935512,0.0121157157784,-0.0398027646808,0.0308113185305,-0.0631312312538,0.00310228097425,-0.0112114173021,-0.0390254402932,0.0539321968129,0.00837381390621,-0.0371929023229,0.0541265726333,0.201957473423,-0.081543779629,-0.0357532780057,-0.0222291434282,-0.105724074947,-0.130358697489,0.137991063387,0.0753391301249,0.0128806352194,0.0635502184495,-0.0125346871004,0.0391573198621,-0.0747744498729,0.0281883216555,0.0999682079792,-0.0642045286759,-0.0106298883947,-0.0462063336468,0.0908199151603,-0.0888785021238,0.0732392753019,0.00699297711904,0.0220014948465,-0.0724692361417,-0.0841303029555,0.0305608846858,0.0866959588699,-0.0939919760231,-0.0409288050856,0.0708110043704,-0.0184362366296,0.00351163403307,0.056509497648,-0.00444529586924,-0.00311136668144,-0.0211634441039,-0.0150065335157,0.0368160303367,-0.0346475771349,0.0106812330295,-0.0499555048231,0.0709129348316],[-0.0303890166063,-0.0294097227992,0.0408089421566,-0.0344153037828,0.00452333801383,-0.00199040382167,-0.0780219261504,0.0481583474773,-0.0138916172491,0.0542815202703,0.0255949847849,0.0492373594495,0.0187933974958,0.0372093221106,-0.0147515109307,-0.0169679519918,0.0132834897267,-0.0382878078313,-0.0755466210817,-0.0220310220462,-0.0938025148722,-0.0696008342861,0.0352173763634,0.0017015772135,-0.0266775171063,-0.0402420541208,-0.0830236924469,-0.0283395669387,-0.0637329207387,-0.079077655794,-0.00299855483543,0.000979824022995,-0.0505639808773,0.0373944428751,-0.0544646433683,-0.0699279258801,0.00572711845235,-0.0561550088683,0.0383350870527,0.0387441056749,-0.0136912246209,0.0829121831833,-0.0012010562372,-0.0248258033549,-0.0224586724483,-0.0272669421607,-0.0244051197336,-0.00369287997283,0.0661315850272,0.0422754946575,0.00923409976845,0.0220809442167,-0.0261053737088,-0.0292886291816,-0.00422327267056,-0.0546536185822,0.041659081122,-0.0194454528325,-0.0550031520216,-0.0382113611546,-0.00527291749566,-0.0586885550361,0.0285603617911,-0.106937654152,-0.0891711374519,-0.0856450767336,-0.0186856840893,-0.0363916782419,-0.0685666260464,-0.0430746443473,-0.0104556480762,0.0320660071937,0.00279681477265,0.0820166324976,0.0699292188518,0.154131987177,-0.0188564923818,-0.0613853083868,-0.0166107231815,0.049277105691,-0.0245075183162,0.0241322770257,0.0308072740345,0.0654837682115,0.00738387346257,-0.0191590944524,0.0440268578603,-0.00481441558758,-0.0504069888907,-0.0282989312035,0.0481388559932,0.0307527255978,0.0183473386203,-0.0988735467219,-0.0675737191435,-0.0168844950579,-0.0505746154759,-0.0638108614963,-0.136158065086,-0.0888656565494,0.0400128807849,0.107103658664,0.196410685998,0.0236019079454,0.0163775794155,0.0145376416351,0.0528225551245,0.00375178481982,-0.0378645661059,-0.0347423535554,0.022600384432,-0.0666075735351,-0.0274241912207,-0.0132426961814,-0.0194576955308,0.0628699739629,0.0487411059116,0.0986072870169,0.133613497286,0.0118186359973,0.0940039917565,0.0830346607661,0.185701619104,0.0594257217589,0.20185089521,0.347066961094,0.0891959732181,0.093443915676,0.229774161306,0.210556705438,0.153408874393,0.146718782746,0.110220245696,-0.071948687147,-0.0797751431275,-0.0176335883714,-0.0362410296191,-0.0599860417802,0.117577928392,0.0131901819151,0.053002675499,-0.0108590690739,0.0495112728982,0.0551644893064,0.0217817007167,0.0699959190779,0.227814067951,0.0458149219919,0.0271163374147,0.138121598143,0.0848472251692,0.297509480948,0.190482404505,0.297017047287,0.203944697858,0.233178850044,0.146091165982,0.190987984829,0.185737131621,0.227756303064,0.0223435208825,0.0107451801621,0.0683074514078,-0.125822625086,-0.0301758008783,0.0491613672336,0.0220002844608,-0.0321411729453,-0.109039151218,0.123693024141,0.00393764191238,0.000859701605795,0.0165246899831,0.0626225814191,0.0909426572917,-0.0235264324927,0.04468843711,0.0339441265761,0.111591218892,0.118199156489,-0.0392675144555,0.0980371097193,0.0373999954665,0.0160670911916,-0.0719304381967,0.14436133367,-0.121514911376,0.0200138264552,0.0412327969122,-0.126920862901,-0.161365983463,0.0571008302007,-0.0999369814525,0.0976683984558,-0.0645224001777,-0.0642013114035,-0.00272397266796,0.00967600268738,-0.0408543396284,0.130595835894,0.102193882686,0.0480053823558,-0.0705966831669,-0.0738296931822,-0.0307098771551,-0.103638161276,-0.0669417422364,-0.114963482147,0.00763183259923,-0.113505291846,0.129266835439,0.158053135918,0.108401261076,0.0638342050098,-0.00404922579781,-0.00594964993634,0.128428142673,0.0119079052358,-0.096352723131,-0.0423001048977,-0.134381290305,0.0789049652111,-0.0079517906593,-0.038495872016,-0.0851500759224,-0.0860397385594,-0.0523288172865,0.00425032665652,0.0956266193244,-0.0317750023606,0.0674630648119,0.0598634352394,-0.0597522387102,-0.0152222442362,0.136618526124,0.0609541831108,-0.0853274387462,-0.0606115792755,0.00475164034068,-0.0582411427245,-0.0225173934246,0.0491939462871,0.185100799819,0.0977192845028,0.209828739074,0.102507572808,0.0410043277071,-0.0598591028583,-0.00421169235086,0.000289441233465,0.00991658184903,-0.0333046646832,-0.00476594122407,0.00787098673494,0.00240990884473,0.00152195500291,0.0669757907072,-0.0560618941094,0.118680012632,0.00479310845672,0.00443527274201,-0.00227653301752,-0.0326809711659,0.162024171334,-0.109423218407,0.0740342778192,0.00738970338172,0.0894252577398,0.188039147771,0.22924495743,0.0182831289581,0.172670557121,0.25276135509,0.163234073976,0.0681775549861,0.0118658725508,-0.0608569995336,0.00638143826012,-0.10917341922,-0.112908426872,-0.0135232189667,0.0359642322279,0.0602220482093,0.0719069025568,0.0670671851881,0.0101884687366,-0.0744050147271,-0.0351130450415,0.0752485602004,0.0187702701493,-0.124414735233,0.0465792548798,-0.0561481568586,-0.15924567445,0.182081737921,0.145353096342,0.129639251738,0.197668391654,0.0837412404681,0.193851591384,0.0241192092353,0.123675034623,0.0938240783789,-0.0131253826118,-0.180510719226,-0.157636697093,0.0169169521656,0.109799878335,-0.0888047804339,-0.0612219000944,-0.0759356994254,0.0477147035965,-0.033083207153,-0.104292258898,-0.0676679425454,0.0294183036383,-0.121311020536,-0.106831843322,-0.0422490326675,-0.100169551113,-0.0128399012837,-0.0293129808284,0.201197688012,0.170091164502,0.244857125595,0.299579856674,0.262972552638,0.219701191729,0.232443524261,0.0771265069514,-0.0687156575376,-0.109017867266,-0.142013044502,-0.00955704242196,-0.0550970990716,-0.039774768762,-0.0142179824551,0.051031788893,-0.125182185448,-0.0827856216477,-0.127489442961,-0.0969078151137,-0.0596915897139,0.0491683808262,-0.174789873942,-0.101286178687,0.0319217086605,0.195863750097,0.0926236439455,0.260802074667,0.290063006767,0.271438879542,0.199870777131,0.324440839512,0.334446237154,0.270302103291,0.0483495286168,-0.11671539999,-0.231961500755,-0.0892827830371,-0.0909433023553,-0.043719217201,-0.0791434838538,0.0190476629825,-0.0947215425365,0.0830036765655,-0.0185448909336,-0.012752572313,-0.159023698087,-0.312314393469,-0.227155106389,-0.00340037906663,-0.0223662629288,0.222048533486,-0.0907446996906,0.1845342634,0.32846578832,0.273980434095,0.458352565778,0.530113403474,0.305958102143,0.327190117066,0.225900686182,0.0476852377542,-0.106670278433,-0.391050421089,-0.314789901359,-0.286047243886,-0.0785126778371,-0.107231268228,-0.00284897848507,0.135140209916,-0.110333697706,0.026498096518,0.00528433911732,-0.00612553676853,-0.0640233662131,-0.301837084022,-0.400028425463,-0.378806941506,-0.0926815399168,-0.211651647908,-0.198337948426,0.0694087733209,-0.100465797046,0.359142455477,0.517820087164,0.412528463881,0.109087017677,0.241643889284,-0.118958274696,-0.582687222004,-0.392853758837,-0.354833426422,-0.288229427413,-0.154436953239,-0.0760449891487,-0.0365496734,-0.00978361227498,0.00490672741475,0.00321174097931,0.0405941433177,-0.00270047286403,0.0120129319827,-0.0434190816931,-0.188689298502,-0.42905102281,-0.553799502698,-0.333895410741,-0.329942190116,-0.246463089926,0.0643198824129,0.0279915478499,0.595801410396,0.537269849815,0.120519471312,0.0926346005356,-0.280133445093,-0.354495492504,-0.468757381014,-0.445911511879,-0.268770543061,-0.176872841494,-0.145985635137,-0.0704343529601,0.00449600470507,-0.0887733730363,-0.0176832689673,-0.108184936453,-0.0147804517205,-0.0574596592986,-0.0637839463726,-0.0546816560508,-0.172057381155,-0.239706357613,-0.319796584969,-0.422937579104,-0.359243248852,-0.221596950585,-0.0810211610646,0.00652042256034,0.229671325678,0.234952726327,-0.0801968277799,-0.245131102322,-0.425047640202,-0.319238961871,-0.466123001045,-0.394706374989,-0.200895258275,-0.138639282096,-0.119855686645,-0.0678468118506,-0.0239849387599,-0.0170923093008,-0.0153036772835,0.027742156333,-0.0495177597177,-0.0115606416117,-0.0505201461187,-0.0285666265062,-0.126917142908,-0.121155867118,-0.0977634395897,-0.303961653846,-0.277876804079,-0.410696334193,-0.354732355293,-0.0692366361271,-0.116320120193,-0.113691701958,-0.369864773538,-0.341134225343,-0.302216539823,-0.368862055162,-0.28634434887,-0.263290405565,-0.129348115416,-0.125608645609,-0.100277705954,0.0413616638139,-0.0413483007926,0.0251745211014,-0.0748727980556,0.02551884326,-0.00926954504648,0.0069699070186,0.0196064766641,-0.103765498395,-0.0129231029208,-0.0858970335017,-0.158814195486,-0.0673182270985,-0.115908873583,-0.196315296138,-0.275765673373,-0.465970903115,-0.240711643253,-0.267944229862,-0.384376008457,-0.445267095891,-0.302429712532,-0.366909190979,-0.180420566431,-0.213986943229,-0.267684404035,-0.225679156061,0.0213537941846,0.0724964289001,0.115686242677,-0.0463635740032,-0.0413436870852,-0.0236539121681,-0.0319772518319,-0.0574794422609,-0.0609837751131,-0.0631177722532,-0.119060013341,-0.00831471635104,-0.00893422773839,0.0343712559895,0.030303041543,-0.103584046945,-0.517731375217,-0.566936565246,-0.232644541595,-0.300113670816,-0.0996435786949,0.0206371648731,-0.0478656325438,-0.0417879122244,-0.093326511106,-0.1352894677,-0.116546482336,-0.118664316789,0.146699546472,0.149583866455,-0.0188298254421,-0.0469256055965,-0.0198480996466,0.00183802612784,0.0296810101051,0.0236293619945,-0.0243104568179,0.0420181074082,-0.0257940947266,0.0724383394833,0.0726776931972,-0.0824405409659,-0.121085415341,-0.0184735876679,-0.156436914067,-0.0474424672055,-0.143223733028,-0.0280741530919,0.0443207619723,-0.00379760043744,0.0726712758435,0.174123503012,0.0670917567026,0.253127672941,0.0440830176156,0.119429486238,0.0492537791157,0.0787526711868,-0.0418173469217,-0.0414553160392,0.0624640550679,-0.0341952341139,0.0416974896566,0.0191055557048,0.02725902631,-0.0112726579971,0.142746927912,0.187496102415,0.0197046493828,-0.0207951539268,-0.00998099641057,0.038633735342,-0.0942635179624,-0.0922671148075,0.0369907338654,0.0875179227003,0.0571146098613,0.00252895337275,0.192251004065,0.209955513565,0.0631983957751,0.15072829664,0.00716748814671,-0.0354661188477,-0.00511151991505,0.00814511690273,0.0493918145331,-0.0100590453688,-0.0297950245097,0.0727230899254,0.000128879526757,0.0147473987425,0.0365498210064,0.00994090601153,0.0213605372867,0.0883494717434,-0.0225182577712,-0.0236789784984,-0.044861968523,0.0237624635546,0.0111519710804,-0.229694058481,0.0439098119054,0.123121224005,0.0651296969953,-0.0890706228707,0.121395173616,0.185687032706,0.169453673768,0.113316288232,0.0830280072041,-0.0280567426116,-0.0114007849484,0.0976888165785,-0.0298337688262,0.0873221117819,-0.0503148122192,0.0183986927027,0.0374164225974,0.0548725807314,0.0207481074244,0.0688379211316,0.0864530024223,-0.011229832638,-0.0473482865392,-0.131973011405,-0.0489259925922,-0.0865740449344,-0.0556209103739,0.103044462558,0.068586879863,-0.0223883272938,0.149407307336,0.172309246921,0.196700104033,0.207583670335,0.202930881221,0.16909950358,-0.0359958445926,-0.0270200019377,-0.0126483449667,0.00732547006507,0.0235346203817,-0.00339630903197,-0.0288945240048,-0.00134562818611,0.0759571487925,0.0162178458291,-0.0140002025962,0.0533812044364,0.00976380649764,-0.0295846934074,0.0395457819369,0.0489117075869,0.074269258236,-0.0815706336915,0.00571587377268,-0.0477728895809,0.0260039070607,0.0735611600643,0.0377655936283,0.12194388694,-0.0211350451132,0.134968816007,0.0869739743096,-0.0627791909358,-0.0720535038263,-0.032717970545,-0.00804593072014,-0.0556302295789,-0.0532567392857,-0.0201539079015,0.0397513217286,-0.0136195661684,0.0105584735051,0.0179918121331,0.000204057933854,-0.0846083167129,-0.0809906448626,0.0504890166051,0.112600555118,0.0489803669808,0.137046602808,-0.0103021984364,-0.207759812517,-0.0342064641949,0.136456910842,0.301153582602,0.170228805324,0.108143904843,0.189012570464,0.12785952268,-0.00272973828294,0.000169430563106,0.0651972888489,0.0402369866468,-0.034839898851,-0.0371256810073,0.0835292456123,-0.0519446731291,0.0108944290062,-0.0546489975455,-0.0502859274708,0.0246381379205,0.0310037298475,0.0386953937509,0.0392064383056,-0.0284428531743,0.0312003332415,-0.00571240512413,0.113030689373,0.0366267686398,0.00203165960926,-0.189744430135,-0.0851328967069,0.0579897357672,0.107085737216,-0.122127384087,0.0954254974053,0.0294501492336,0.064336250726,-0.0270800830344,0.012870512746,-0.053616647901,-0.0576185828526,-0.0162224169363,0.0512921974655,0.0232277208488,0.00460006923042,-0.0384623243729,-0.0294917887809,0.0350164531905,-0.0239634546237,0.0118917122782,-0.0412176359137,0.0465064568394,0.0925494508393,-0.0744386682528,0.123967382872,-0.0497346099654,0.00581947647538,0.00814226917438,-0.105742121382,0.0548803019072,0.0537286301479,0.000148347404953,0.0355804344367,0.0317991093654,-0.0282777573489,0.0703134789708,-0.0101421709239,-0.0955043116096,0.0577562911923,0.00730552465377,0.0409099986298,-0.0857370571919,-0.000821074408169],[0.0556648524491,0.0886704806824,-0.00828561915712,-0.00196087825205,0.00764281569775,0.0288137127084,0.0662001351301,0.0138467158109,0.103282990025,0.10511198911,-0.0941449243698,0.0335390537827,0.0193758805876,0.011700212303,0.0423490996004,0.0508690374261,0.0123013378913,0.0278104993335,-0.0238998680267,-0.0299834580477,-0.0803545965734,-0.0300614069965,0.00785795856622,-0.0263203157449,0.0168186725014,0.0622685056683,0.00195093039618,-0.0116606108801,0.00938647297097,0.0295575191103,-0.0311262843029,-0.00943637578789,0.087951287188,-0.0279910759235,-0.0361443841106,0.0762829467627,-0.0592698946273,0.104697650323,-0.0127337210278,-0.0256459280234,0.0843173426082,-0.0205502487593,0.0148305509462,-0.044525389728,-0.0605367413509,-0.00117169315731,-0.0168432488025,0.0257978551376,-0.0697920327911,0.0663330377774,0.0443999703633,-0.034868292907,-0.134083477773,-0.0807414144557,0.0259445042277,0.13249516721,-0.0377554258044,0.00395514187378,-0.0415570341559,0.0149165874787,0.0190104776524,-0.0343077824333,0.019874652657,-0.0142422039626,-0.0351560300102,-0.0526775894607,-0.00921297092791,0.0125148912817,-0.026063296606,-0.0269735193783,-0.0326831589259,0.0139668718732,-0.0454385776096,0.139566354102,-0.0431137202783,-0.010338165308,0.0400448037787,0.0258874608322,-0.0141924233806,0.0322327090269,-0.0646714712134,0.01993298679,-0.0577189857387,-0.0461522773534,-0.0297535384955,0.0273645030089,0.0431575990861,0.0278282215901,0.0408535080131,-0.0452993855766,0.0479386839844,0.0218678877653,0.0692844536405,-0.0289908946551,-0.0723814587537,-0.0840518646546,0.0497584609283,0.0115078866375,0.0774949409481,-0.00159274004282,0.0324542160654,0.00380526593085,0.111737223269,-0.00746700840656,0.0186466742879,0.0252372443294,-0.0778907223283,-0.108940510841,-0.0261283378819,0.00166150696781,-0.074480093917,-0.0755516307097,0.0882231148536,-0.0265104977034,0.0571208722598,-0.0302327774668,0.0172987078168,0.108640147919,-0.11090829037,-0.010748636971,-0.0234967672271,-0.0170151091867,0.0683993427964,0.0181992139219,-0.0385450679869,-0.0276750234867,0.0747515472575,0.0633216916634,0.0507224988247,-0.0272736153266,0.0225601849085,-0.0389767148805,0.0552651834949,-0.0424953991752,-0.0554947358282,-0.0591022987896,0.0408284355733,0.069446484261,0.0176285735418,0.0299276914426,-0.0327765951866,0.00279035612302,0.00938125466355,0.0591126871801,-0.0591828775902,0.00849886473733,-0.142980658639,-0.107432573147,-0.00968586375224,0.128416081254,0.0940329396541,0.0648526857851,0.0229391191602,0.0463272580174,0.0495357902663,0.0554685690307,-0.110740844883,-0.115879888802,-0.0360489521984,-0.133042889362,-0.119933128182,-0.0602679403893,0.191470593008,0.0775177095939,-0.0419741834026,0.051698630493,-0.010155865114,0.0661266246278,0.0666892576349,0.0513334720635,0.0605479449521,-0.00204963307001,0.000326803870409,-0.0221809314269,0.0487243622242,-0.0100622697533,0.0313210793931,0.172666847145,0.111208088056,0.00641332188972,0.209524807672,0.147726774507,0.00351935516571,0.0597529347674,0.0844526382872,0.0803894714217,0.0374678876831,-0.128900301589,-0.215161168019,-0.0109501728237,0.141717424281,0.0928393336482,0.134533903545,0.0565736108431,-0.033296710945,0.0564617242191,-0.0414924128198,0.0108298840718,-0.00792129901373,0.0758482450597,-0.0931356415801,-0.0158595993019,-0.0146115938623,0.033600586402,0.187355063191,0.0662991386785,0.0885623428996,-0.0650275966454,0.0977986972359,0.0263492336061,0.090107253152,0.0870902458325,0.205186042885,-0.0660325494168,-0.140503432426,-0.0574830841757,-0.0796141218305,-0.0608790325919,0.0799345186938,0.0277432057811,0.106361751623,0.0655771420126,0.0177939545152,0.00680986680515,-0.0135403845825,0.0484363703142,0.0151106769224,-0.00756251892716,0.0338102156092,-0.0788066426676,0.0221633044054,0.0590834342571,0.0311183620108,0.0147286683238,0.0581225146691,-0.0969908935152,-0.0046665939323,-0.0919800994318,0.104524993814,0.0232263941184,0.0306014294105,0.020814007593,0.0673574853834,-0.0696220707068,-0.0930276126564,-0.186208262203,0.0584241168478,0.0358165678848,0.0889174525001,0.088923602682,0.00575204214856,0.0347349942506,0.0382169488484,-0.00174391151662,-0.0152154794029,0.00902280149405,-0.0420907734054,-0.0444433820295,-0.124569709786,-0.0483552851839,-0.0459701887912,-0.115827101314,0.047679820419,0.116079109331,0.0373351583596,0.0948023806771,0.00542057173096,0.244702484416,0.316706048728,0.110426556599,0.0702289504614,-0.153964553287,-0.234846900425,-0.113915387626,0.0548002313041,0.014790766838,0.0462959049972,0.117784501918,0.0405233625186,0.0615726788994,0.0645873570815,-0.043924071975,-0.0095680493284,-0.00785892126907,-0.0277752767896,-0.0934033474821,-0.197239106787,-0.172653083173,0.0214092978356,0.0635128318002,0.0760645345892,-0.00733757067721,0.0199266076387,0.189245009563,0.188981347043,0.226423188735,0.139777062536,0.0228822845339,0.0304375373535,-0.00977024599548,-0.115654112393,-0.141527884943,-0.0905884367627,-0.0204477425952,-0.0618964409929,0.149606785118,0.0317452461064,-0.0894604203086,-0.0357982985539,0.0610862776885,0.00502435879906,0.0197100244536,0.00660632571291,0.0158491929482,-0.119592579244,-0.116953643809,-0.103289567867,-0.191637668541,-0.186439955679,0.137107928471,0.182633884802,0.0879577498387,0.200962574617,0.174622685466,0.0652660218979,0.0664102931967,0.206419740967,0.133123808993,-0.0925867235222,-0.357210982732,-0.267647382589,-0.219209274476,-0.025035937628,0.0749101843951,0.0193372676689,0.0556991528552,0.0306237628929,0.00488965396243,-0.107383135261,-0.0797231754551,0.0331652589345,-0.0636208872615,-0.186680849544,-0.0476452210039,-0.174886164022,-0.162087851928,-0.0906957299334,0.123447959181,0.163372682649,0.212976556424,0.170250674625,0.445118852671,0.312717192049,0.183177286521,0.292017373445,0.251996939678,0.0408724970449,-0.349835939228,-0.177009614674,-0.236227554788,-0.207119564722,-0.0624743535216,0.0659427941075,0.0546776927992,0.0500483103229,-0.068897151551,-0.0154956463472,0.0344132872133,-0.175910576098,-0.0775808538207,-0.243960173112,-0.0370325357503,-0.233549791178,-0.216762599393,-0.225249247178,0.147199157391,0.430937063257,0.366398866917,0.325683949094,0.294782556452,0.175735240655,0.294622909365,0.250311014237,0.164258850652,-0.0989399687886,-0.356108261598,-0.229875992487,-0.175381401481,-0.177429529659,-0.0429905815774,-0.0460741925169,-0.0442792060722,-0.0175437068712,-0.0720453714457,-0.00151427333917,-0.00668641837324,-0.0279327249653,-0.211591543936,-0.235832758132,-0.137739338901,-0.226756066805,-0.255095386125,-0.172466829727,0.185483178167,0.220036326164,0.115172937967,0.174722144203,0.176419905862,0.190655357796,0.0777643058549,0.0299394903339,-0.0131731636417,-0.307664801927,-0.142494302923,-0.130718521502,-0.161211803801,0.0388866997205,-0.0567094497913,0.0435762722755,0.0376954960531,-0.0822729318725,-0.00373468497251,-0.0335385133062,-0.00880472475325,-0.0400746788956,-0.124404038675,-0.0474736426851,-0.184812740538,-0.217165375601,-0.134818621173,0.000220565569936,0.375249999927,0.178297814921,0.0592216837124,0.0456534502884,0.0515218962721,0.168752611973,0.258343216769,0.140521737277,-0.141261572125,-0.445490302297,-0.176900762373,-0.223569318852,0.0815692657487,-0.00438167103207,-0.0745099630008,0.0165195473589,-0.0375400250553,8.66817703562e-05,0.0150601412218,0.00685699171959,-0.115023671186,0.0427965861579,-0.156710028393,-0.173905031297,-0.26533619539,-0.238395263515,-0.181242562921,0.262421693279,0.361365568173,0.160011752625,-0.0516269916696,0.0366950065612,0.216898322285,0.31089728248,0.0742195578563,-0.0869993606013,-0.143256478429,-0.238778506319,-0.138435866746,0.0468651483765,0.136922114845,-0.0489728297439,-0.135490559855,0.0314248023469,0.0197576925257,-0.0300996794135,0.0650515721197,0.0700255425968,0.129542053267,0.0229957667083,-0.125481286719,-0.0728762267894,-0.332728649098,-0.174550898456,-0.208567531589,0.0261888390352,0.150019395394,0.059063850769,0.122037179755,-0.0528060892469,0.0344288599655,-0.00399924090108,0.0275765984114,-0.169622768963,-0.140922102917,-0.10943413544,-0.078428970424,-0.076856989712,0.155266418395,-0.0462780400557,-0.104959382757,0.0541546477112,-0.0725812351598,0.00569752716003,-0.0173805789883,0.0350448762892,-0.0284943460086,0.0649195701053,0.0366498774975,0.0277842857243,-0.181017701927,-0.194506155037,-0.274749644451,0.0292931507434,0.186071308956,0.0796572888461,-0.0254169203949,0.0433909321468,0.0980421521502,-0.102108570011,-0.184098511831,-0.22256388467,-0.095323968391,-0.04607187937,-0.0602073465728,-0.133912829072,0.0108928808029,0.11233806269,0.00213100758587,0.00695986364848,-0.00705721679223,0.0351377770835,-0.013816573955,-0.0336312532418,-0.023727303387,0.0849752569395,-0.0103543330335,-0.0907809013839,-0.163822883528,-0.203697064579,-0.389410507014,-0.211315733778,0.0469203653995,0.0264832196007,0.0455899118198,0.0547965651394,0.0929707146015,0.0298097695435,-0.164205637128,-0.149081848534,-0.178597395335,0.174039001917,-0.0474079944828,-0.0161956139336,-0.0425873315747,0.0709695256794,0.0488862254056,-0.143831131555,-0.0446748227028,0.0101211802082,0.0217264418884,0.0116220580146,0.0454203820782,0.0320197566595,0.0158651138757,0.0500528878757,-0.0363801698296,0.07600539752,-0.144009962532,-0.215187487173,-0.0941271585733,0.0129947607651,0.0713378574222,-0.0248579171827,0.0191433995935,0.0429444953185,-0.102844361701,-0.21301716985,-0.0328956550445,0.0127285970297,-0.063594452116,0.0445615349967,0.036878480846,-0.0435224341533,0.0249476167185,0.000145902058091,0.0096050444398,-0.02059314131,-0.0446936605812,0.0386693148947,0.0725791760579,0.0261350314807,-0.0292290318635,0.0322871332869,-0.0425690792631,0.114417269009,0.0328772681682,-0.0881265631236,-0.0708819502502,-0.107721642229,-0.0116376409396,0.118460571877,-0.0547041683738,0.0113182325804,-0.113742426477,-0.00808299743078,-0.0298032054741,0.151691472648,0.131140922462,-0.0503390143589,0.124083407117,0.10923001302,0.0935622244072,0.0541184264557,-0.00264599685637,-0.0424096160867,0.0332186344556,-0.0234561870905,0.108838961655,0.0622689308066,-0.0716162855385,-0.0699715419976,0.0782553221271,0.100477382558,0.068355969353,0.0405189118425,-0.0799958271618,-0.142474202124,0.168022343646,0.142575185444,0.0752197501353,0.102113288088,0.0306503552855,0.131946944659,0.0193399530016,-0.00704889617239,0.0129310296811,-0.00862724303274,-0.0207935656513,0.0345097910227,0.00437747860375,0.123327380962,-0.0415559293838,-0.0125256830225,0.0704115080078,0.070640441601,-0.0397977972412,0.0425298691946,0.018700301944,0.029214011394,-0.0982003597603,-0.13487639273,-0.0216030837528,0.070255710949,0.0709266232362,0.106139535397,0.0360459560321,-0.0418185237329,-0.0146658144149,0.137274889176,0.0261300971487,0.100849508575,0.152575698186,0.0786741944598,-0.0311836239903,0.0435089564974,0.00329618671225,-0.0462603532923,0.0476249013951,-0.120979010581,8.36206426532e-05,-0.0371848557341,0.0186226711178,0.0781519541121,0.0398678521363,-0.0451179733574,-0.0141285982175,0.0233331561963,-0.0664146716512,-0.0674565033325,-0.109932036582,-0.144292247605,-0.030568673601,-0.0422379063365,0.0277518576915,0.144735402244,0.190813429753,0.226677892874,0.1277478059,0.140240761132,0.101564571392,0.0883462898569,0.0239381516485,-0.0354172519114,-0.0440849939321,-0.0109615669935,-0.00629646884481,0.100549678808,0.0910530703891,0.028306075913,0.0918399070507,0.0490266327473,-0.0064127013937,0.00278748533302,0.0402774098089,-0.0670286016275,0.0572786384944,0.0710412720124,-0.0228562008687,-0.0880109862397,-0.111222363833,0.0872306900839,-0.0266774835037,0.0570827392153,0.0812252599135,0.0758829963754,0.238532869636,0.05624733777,0.00715676415229,0.0266592651072,-0.116742341679,-0.00481797199948,0.0203586197845,0.0468226537347,0.043270243086,-0.0155624235067,0.0892150468624,0.0272248714377,0.0675472135816,0.045553717268,-0.0015876751071,-0.0345446194099,0.0380032574817,-0.0431082256016,0.0485376928264,0.0330450450557,-0.181536314735,-0.00333004540126,0.072948525805,0.086438110422,0.0292057983508,-0.0281244625265,0.0565844533829,-0.0335568168213,-0.0417303243222,0.017689356736,-0.0824459180885,-0.00322378263945,-0.0448623049599,-0.0104017033509,0.0211444227183,0.0812036320471,-0.0335744222256,0.0569880195181,-0.121837411535,-0.0673595466662,-0.112046457663,0.0101270595479,0.0793767378304,-0.0585272829152,0.00124588364101,-0.0725149530448,0.0386948577725,-0.0409724848961,0.0342623560287,0.0249980912013,0.00698753399706,-0.0243887185049,-0.00344334564408,0.0121363285766,0.152302575456,-0.0233965205009,-0.0593330421528,-0.0421672182978,-0.0367635567681,0.0106582449017,0.000156248208012,-0.101659949015,-0.00756636611354,0.027911813225,0.0575342567861,0.00421731009724,0.0291709721175],[-0.0472926637981,0.0215055222261,-0.0186995265784,0.0401130651423,0.0707017147038,-0.0682387299251,0.0177736392049,0.064195363731,-0.0390881244095,0.104102299166,-0.0679935877044,0.0123182813279,0.0221691149545,0.0139130510613,0.0183307655821,-0.0377540972999,0.048617836935,0.0419831281158,-0.0135223540012,0.026839805672,-0.00738916614411,-0.0343249974768,-0.0444295224894,0.0391584628531,-0.0589412462136,0.0311113716523,-0.0142755567043,-0.0192100452719,-0.0141611040884,-0.00858019028712,0.0232802735671,-0.0464261568188,-0.0042437887352,0.00682745953498,-0.0134558153412,-0.0357351148873,0.00672682313761,0.0332289171708,0.0551197146128,0.164591111662,0.104955924771,-0.0792294112991,0.0413183632026,0.0304434948908,-0.0428057419678,0.0505238208304,-0.00519051943801,0.0262291164225,0.017961256515,-0.00786012642577,-0.0936010499818,-0.0747606114324,0.052377050449,0.0100401482897,0.0390966911617,-0.0443057933677,0.0762903426064,0.09802644606,-0.0632209044141,0.0888273030642,-0.0296677510179,-0.0686012240644,0.000930756680135,-0.0692630906853,-0.0843332631737,0.0797779014546,-0.00674130270003,0.0402986107856,-0.00244057076982,-0.0399354085706,-0.13683334193,0.0611353114812,-0.019991114238,0.027350333555,-0.0543199992639,-0.000819913211367,0.0969134547263,-0.0491984903949,0.0446669651853,-0.0198651078541,0.0706099225579,0.00357889583374,0.00244156439145,0.0658078140119,-0.0767329694095,0.0146676842556,0.060758800044,-0.0272390181125,-0.043315517683,-0.0594337351075,0.0815775730377,-0.00865235362468,0.0408851753162,-0.103330517921,-0.0416520754287,-0.0495247552377,-0.0484837496993,-0.0827155937593,-0.194835188578,-0.135078264703,-0.153617723759,-0.0455771807031,0.0924103220924,0.040773076987,0.031797288523,0.0217142117881,0.0451414455913,0.0225303951928,-0.0127441183603,0.0281353573958,-0.0838973711133,0.0434334119988,-0.00621602645509,0.00601040230777,-0.111313871159,-0.0853729108881,-0.0676511607001,0.00666233521627,-0.060918350139,-0.0372596453441,0.0488246233571,-0.21753260384,-0.0569937238211,0.0207140893747,-0.133124202908,-0.277186871054,-0.275778631623,-0.145244519884,0.056260159524,-0.0457351036683,0.00257389915411,0.121441382689,0.00184215950302,-0.0992529605817,0.0106245353233,-0.0845947412195,-0.0384493517492,0.0414084272403,-0.0115059890163,6.02744651279e-05,-0.0194534896469,-0.0436191894845,-0.0186823176024,-0.0701858380982,-0.000444773651256,-0.059018772756,-0.0177262367667,-0.0234576317451,-0.143495843187,-0.169432601935,-0.0165311215195,-0.228937431121,-0.0927330996694,-0.0538941775692,0.000454100147177,-0.0896455370137,-0.106846180052,-0.0686240708079,-0.177687527074,-0.167019887933,-0.0947085673434,-0.152778672542,-0.0580264354487,-0.0566129185205,0.0167916285455,-0.0506841227347,-0.00493731290952,-0.0281427674641,0.0451003674024,-0.066569638227,0.0755893952976,0.0936155965176,-0.0258140877248,0.086529843965,0.0430810089732,0.135629858168,-0.0941069191889,0.124524374635,0.157271923726,0.105480105608,0.0414883040359,0.244277826571,0.108721786446,0.0308367556311,-0.0330871025309,0.0293321757933,-0.0512184430637,-0.104514495479,0.0432499493103,-0.082246671369,0.0192550793994,-0.0919143590364,0.0697873606276,-0.0241397994251,0.064058473594,-0.0141591431363,0.00945566364654,-0.0254270287357,-0.0479821508689,0.00705390478551,0.0387598844831,-0.207343204216,-0.0724873763766,0.0206294959702,0.0833712017255,0.0562655935994,0.0908373999012,0.143938964626,0.123946280828,-0.0325734679758,0.192163145074,-0.0330158786625,-0.0532028053279,0.110977161163,-0.111843424554,0.0231129777784,0.0600106471654,-0.140228262611,-0.163314722464,-0.069412851363,-0.107388287618,-0.0423074250593,0.0116617829903,-0.114554864103,-0.0312036771391,-0.000690479503733,0.0832009677037,0.0544360444873,-0.0426442351919,-0.274319662205,-0.130131036195,0.0017003921446,-0.130935172403,-0.0330667738755,0.0907879509429,0.136784217177,0.0319217486728,-0.14677727755,0.0609860468551,-0.0712723668097,0.061692211202,0.12578676554,0.127192777531,0.140263139245,0.0770696095578,-0.0751111886276,-0.089434380695,-0.144146680181,-0.2047167305,-0.088025869818,-0.0487740101875,0.054440658391,-0.0180774679921,0.0857048370153,0.0223913131203,0.00186949653517,-0.0342326885781,-0.137329265896,-0.0207202284183,0.187574817205,-0.00484972840213,0.268066107996,0.308743772824,0.292675034529,0.0795636257136,-0.371628664682,-0.262848198517,-0.137040470867,0.168262435735,0.0889272822667,-0.0506719339463,-0.0665224147829,-0.0440183511893,-0.00978629438109,-0.129728257125,-0.100989351922,-0.104420295273,-0.00340939560667,0.0657117452721,0.067490247152,0.0253847425072,0.0444900893301,0.0495035783118,0.11858307774,-0.046089897241,0.0405524301137,0.102013832157,0.156047801173,0.276450928786,0.000637785647708,-0.0777830901234,-0.28177313863,-0.816136885682,-0.626686885805,-0.427519916542,0.0997437571879,0.192471594898,-0.014344135153,0.21040266213,0.0520430450627,0.0717309562479,0.117643382288,-0.0156289507418,-0.147390731406,-0.0246874539846,0.117789103604,0.0246802887009,0.0109511094017,-0.00659062848408,0.0474024558816,-0.122777895855,-0.0172307546431,0.0407087884152,-0.0141696906478,0.00101954094478,-0.125344089499,-0.0094485872297,-0.575830217017,-1.16029328023,-1.37949406196,-0.961876728297,-0.208809026315,0.25307462622,0.090215433235,-0.14884667718,0.110649499377,-0.0606456143083,0.00753314931814,0.242119308938,0.0599136069351,0.178443226678,-0.061131664305,-0.0520059063898,0.0124456630507,-0.0642730007854,-0.00026067712449,-0.0342561551319,0.0488206121559,-0.0776227508689,0.0108901580274,-0.0989905056262,-0.156009675797,-0.341566664248,-0.666125884929,-1.01915296869,-1.31992892169,-0.888712237135,-0.509526475472,0.251997555729,0.446439843612,0.235260991046,0.148173614083,0.0403549200502,-0.112049291569,-0.0405631375853,-0.0991856694941,0.0357993256434,-0.150228094031,-0.0758799995397,-0.0861247893438,-0.150268409139,0.0322299327699,-0.0542517117794,0.0372670305891,0.0432728602973,-0.00895550285704,0.068363793293,-0.046182689751,-0.153791947864,-0.379551365151,-0.540496478286,-0.807072065235,-0.798154139714,-0.527028757929,-0.0779643033928,0.232735284098,0.442255947656,0.195347317194,0.0836103419583,-0.0374606512624,0.0622923390043,0.0281361023951,0.0822671389696,-0.0919563617251,-0.243206097338,-0.0394969665088,-0.210737825674,-0.169419793681,-0.00677547075397,0.0159152537933,-0.0137019928868,-0.00270232893484,0.0292361134282,0.0160440278684,-0.00295931409799,-0.136908815724,-0.103206547462,-0.39387892977,-0.370322038709,-0.331813385105,-0.230311259055,0.0337518918657,0.10121709606,0.19578772693,0.407115707142,0.256408096594,0.274707436993,0.273281097922,-0.0300296510186,0.0227478988987,0.178843442948,0.136036235761,0.074660637272,0.0663958496175,-0.127737412489,-0.0653789758069,0.00758432792964,-0.0389373899586,-0.00249534115364,0.0977694486227,0.0286559346566,0.0737835205253,-0.0508667747054,-0.0110454971484,-0.03903487425,-0.0271455380613,-0.120615517596,-0.130619781637,-0.0501490711872,0.109432250749,0.0797202551691,0.177944167891,0.378697762181,0.440284767945,0.261335382402,0.110336947573,0.0230831528918,-0.0615287795077,0.13071019,0.00700410298175,0.109729455111,0.149393994719,0.0132239617896,-0.0179856070675,0.00180895040043,-0.000335655651688,-0.0541071131382,-0.037656069899,0.0286975122253,-0.0405648262192,0.0817361450502,0.00963142377629,-0.049033967135,-0.0535601564844,-0.116551919029,-0.09572946596,-0.136172540891,0.0581633008432,0.00895655922073,0.115093568399,0.310905249917,0.295607343717,0.122171849976,0.11093567795,0.0759886715548,0.268192585119,-0.148973216784,0.0343755027811,0.0527008709296,0.0213846836289,-0.109288599969,-0.0573124974982,0.0795476901783,-0.184583795877,0.044065228825,-0.0753032185671,-0.0107691912177,-0.113764063948,0.160009602289,0.163586689341,-0.0708515355,-0.175995919079,-0.24728694121,-0.174078910981,-0.235722748981,-0.161955615738,-0.271660848731,-0.00884887152019,0.121677045408,0.0198693080209,0.208338633916,0.0720774337755,-0.013057878906,-0.0938154109523,-0.0233108921443,-0.0412394154668,-0.212348363086,0.142846770462,-0.111318380199,0.0396973951484,-0.208180297263,-0.106786491189,0.000282919955361,-0.0430340702012,0.0377338123647,0.0408427650694,0.0777126076312,-0.00386197493017,-0.178688498754,-0.307920759729,-0.473977304651,-0.356306894669,-0.449367155427,-0.324724958129,-0.250570284421,-0.055624783095,0.0398863557243,0.0305148928942,-0.017379612986,0.0734923616058,-0.139489359475,-0.213863452616,-0.148635347814,-0.0798998417692,-0.050367104428,0.0475112067496,-0.0232075615561,-0.213858765979,-0.205351006658,-0.0870798443479,0.0298984583742,-0.0183000177214,-0.0589578082799,0.0156345971866,-0.0201668677259,0.051249705824,-0.0208944656101,-0.0459293122996,-0.0905253046108,-0.199044953672,-0.335444318076,-0.234088324859,-0.475200112588,-0.302454022896,-0.266473192127,0.0558999576632,-0.0565626664834,-0.103434648496,-0.0520228503638,-0.0128568239119,-0.0607247154773,0.0441724962443,-0.061608763327,-0.0344051212662,-0.182387546583,-0.297651131677,-0.13918682875,-0.0402129083882,0.0087016043505,-0.0561621524845,-0.0306470731621,0.0709068463204,-0.102240928826,0.137998805757,0.231808582254,-0.0609575199369,-0.024855070748,-0.175451477341,-0.139829015191,0.00655478118461,-0.131567702882,-0.281082978181,-0.410682475939,-0.0330641915616,-0.0734023083811,-0.272224504886,-0.13353966453,-0.0646355243015,-0.00375680284973,0.117095786689,0.00288373030278,-0.0859616757571,-0.16572638295,-0.189321294949,-0.176586620903,-0.0696024604072,-0.0179395209377,0.0367571981933,0.0578578303875,-0.099563155496,0.0397038316264,0.19898683235,0.283496718492,0.215520008697,0.250225653189,0.221332916255,0.25754944694,-0.00171041446734,0.232771950823,0.112155095492,0.0218780240312,-0.0883783938319,0.0148944548397,0.0858156982011,0.0169113523058,-0.0988132547123,-0.00920786867646,-0.00446485543303,0.11399549319,0.0356811097672,-0.0419899768674,-0.285659871739,-0.0272897115836,0.0462381241355,-0.0209298102658,-0.0668937671544,0.0115154492516,0.0137220722461,0.0324109643487,0.0115441213099,0.180698843838,0.345863712769,0.12347558313,0.129242795227,0.152071308646,0.0250565247246,0.0327214630233,-0.175222497983,-0.104364127995,-0.125785314477,-0.0423545250965,0.123648210511,0.18422068698,-0.0242433813221,0.00454812688332,0.277686705479,0.00366732316395,0.0122437069841,-0.0734043229944,-0.192755630843,-0.0605178420334,0.0202714915055,0.0470260797472,-0.030355157462,0.00994063601549,-0.0785207520514,0.0484844728336,0.0126434845672,0.140259668905,0.219311019326,0.10068492349,0.0661875289304,0.0664958979674,0.0801593889078,-0.122941546482,-0.0305033461659,-0.0698228162466,0.0486088289429,0.00925537622451,-0.0355752095878,-0.0193269587018,0.0304663957565,0.0675895200326,-0.0294659482551,-0.0322677705678,-0.229594191584,-0.143149235396,-0.0642204025811,-0.0653745519608,0.0741006283172,-0.0775804277093,-0.00269230244406,0.0521347658376,-0.0456643521153,-0.0251475147944,0.0140458566957,0.0956270358361,0.0736931394897,0.12622712562,0.0601980957518,0.0334489947454,0.0596744573906,-0.0372400830279,-0.014932112555,-0.199630207187,-0.0451410371653,-0.219489964601,-0.38067294879,-0.0661690035606,0.220106632072,-0.295442856414,-0.160367467656,0.00746254953092,-0.0948251976066,-0.0511716983184,-0.0788137938479,-0.0346818737868,0.0580777823164,-0.0116099003294,-0.0258381073613,-0.00829496688064,-0.0184670013347,-0.00337368129012,0.108123266913,-0.1042918189,0.0952371503708,-0.0529214545713,-0.13050656898,0.107493123091,0.0879264078403,0.0952493035239,0.0841924221423,0.0315851620238,-0.0264366349279,0.00830683665847,-0.0252578414409,0.0876908629624,-0.138011826843,-0.0790665930348,0.0399821274556,-0.0535035563568,-0.127802996577,-0.0625442133688,0.0101936578815,0.0574143289175,-0.0189965458863,0.0447928967465,0.0802604245864,0.0586931788154,-0.0901622233949,-0.0109137242528,0.0686204260791,-0.0220210931359,-0.0395568430748,-0.0367887827295,-0.0596177391853,0.0669108245106,0.0847049777401,0.0416799109719,0.0420469767721,-0.00481582149632,0.0899278400101,0.0300653895197,0.126315630575,0.0529705291339,0.128301208377,-0.0575757591916,-0.0332839164373,-0.118728074299,-0.12681306226,-0.0246215903293,0.0225071424589,0.0172890528922,-0.074328395438,-0.0119586330122,-0.0475834481134,-0.0349415109222,0.0383624551629,0.00314646302467,0.0698586881218,0.0766928465552,-0.0200498204525,0.0194897831309,0.0530605837764,0.0160944587482,-0.0851960394648,-0.0769413947832,0.0358093590288,-0.0464870861994,-0.0220341188542,0.0977890033926,0.013031165282,0.0122499741718,0.00797306986489,-0.021553945498,-0.0662660885501,-0.0429648477613,0.0109283502583,-0.0538363740163,-0.021567983466,0.0102509049507,-0.00651162127477,0.0326248649191,-0.0509096340758],[0.00793338056027,0.0606613060602,0.0193499831979,-0.027065697504,-0.0284979312698,0.0597150500063,-0.0404737411179,-0.0098623648706,-0.0417714825359,-0.00900927997508,0.0389352717287,0.0131580642626,0.0188345805851,-0.0719722762941,-0.0785958258901,0.00334591861567,-0.0612352070688,-0.0411185382919,0.0508254645199,-0.00227847829069,0.00979013972168,-0.0478419731901,-0.0186186420493,-0.0474498473132,-2.11997666546e-05,-0.0279831538133,-0.0456517981183,-0.0172879426394,0.0375321912704,-0.0168106586442,-0.0628651358822,-0.0532461501358,-0.00555754812782,0.0360184362252,0.00257946492818,-0.0225301164242,0.0360628788068,-0.00580022904073,-0.00793895286271,0.0355322343818,-0.0105625655329,0.0317086960842,0.00671937528656,-0.0146424362379,0.0202057117338,-0.0905422256318,-0.013776720331,-0.150352002892,0.0163725685617,0.00713435289199,0.000762440068333,0.132439450356,-0.0247665210269,0.0805150002592,0.0182049362375,0.0190094969763,-0.0538311240725,-0.0534718978113,-0.0216530936277,0.0971227931037,-0.0302022492646,-0.0225188602483,-0.0325511921514,-0.0037617001897,-0.0510399242601,0.0605525247023,-0.0108940610832,-0.0647005565461,-0.0331642887763,0.051671112082,-0.0557725910712,-0.116591204465,0.0395565420563,-0.0441912261812,-0.0334318521363,-0.00578648984544,-0.0753856744857,0.0478177952023,0.0146009923315,-0.0333264253857,-0.0291169891229,-0.0679892290394,0.00981797173407,0.000147690589211,-0.0448462840412,0.0220559410528,-0.105700473756,0.00563494386286,0.0449986284164,-0.0116038379423,0.0340155975279,-0.0358947609007,-0.0470193018199,-0.0427867893861,-0.0246429072421,0.0438354302069,0.014611417671,-0.0310405621554,0.0133966959984,-0.0149687065922,-0.102741117592,0.0331064716645,0.029689046844,-0.0196827130138,0.124747039807,-0.0917019404702,-0.0539250973164,0.0221688181591,0.0635067692318,0.0556650649555,-0.00678682681951,0.0254035996752,-0.0257104428701,-0.0779139358893,0.0647982808796,0.020625556507,-0.0852103625388,-0.0859785807044,0.0508944732398,-0.060829388435,-0.113429669463,-0.122672197668,-0.202943296532,-0.0781769171847,-0.00679024021355,0.108486700187,0.0739236489078,0.00321843606982,-0.0935220760548,-0.0404439407097,-0.0271443599253,-0.0630489714469,0.0405707894625,0.0754747852216,0.0151425830508,0.0306608179973,0.0408038997943,0.0815338519494,0.00950852045774,-0.0405855946544,0.0709134405582,0.0214777041956,0.0109740593468,-0.00257259964206,0.0124330810049,-0.0313419809811,-0.00457012095334,-0.0549995169592,-0.0910262179948,0.0830326100751,-0.00952819470186,0.109718953162,0.0719713855457,-0.00922043945201,0.0244869526687,0.0484487827676,-0.126582039874,-0.0602010545165,-0.0346649739967,-0.182332456728,-0.261297232635,-0.119542628432,-0.0468668435706,-0.000781918795613,-0.043624812478,-0.0536564043949,-0.0713207666194,0.0595283865423,-0.0697653342636,0.0373127202633,-0.0846657604735,-0.0281117058513,-0.00857993549728,-0.0431229765404,-0.0525367867319,-0.0161914780801,-0.0767763312096,-0.075519447765,-0.0444779817735,0.184547997853,0.0662051662279,0.000101237384912,-0.156678219454,-0.0713526642086,-0.0722337693286,-0.0276942533426,-0.0876950741362,-0.1017951906,-0.185829390022,-0.186570218576,-0.0921455271749,-0.00554174425121,0.057365518552,0.0453873868112,0.0735141998407,0.016469799444,-0.0164294346806,-0.0522195249973,-0.0640693454928,0.0888089208797,-0.121756626936,-0.0618727897048,-0.150366596031,-0.0303747574577,-0.271502174165,-0.140244461968,0.141016124817,0.11097507605,0.204644653555,-0.0143104557246,-0.162646658954,-0.154226875949,-0.206066890813,0.00844586559484,-0.0395493835964,-0.125041017958,-0.0309841640672,-0.0876973846435,-0.0552625372511,0.108744818788,0.0458076469782,-0.163322486735,0.0538675547011,-0.0961052588983,0.0472609314165,-0.0974105551222,0.0505005077119,0.0174669668553,-0.0866292392762,-0.0831232537947,0.0329002684017,0.121635601241,-0.0458067833096,-0.0488036579385,0.0328125633543,0.00801692834231,0.196191117553,0.0269495895642,0.0683821236048,0.18138970926,-0.00374415738897,-0.0723031500387,0.0888054122817,-0.0573631474451,0.021702827274,-0.0054509293637,-0.0272544297748,0.0351206405177,0.0767982444771,-0.0487842692452,-0.0344805449236,-0.0138097299008,0.0162019447135,0.028480222339,-0.0466227611675,0.0633171527173,0.00283173926262,-0.0370499814045,-0.0413114745982,0.00937786370954,-0.0797273164706,-0.0637564751417,0.00513309087743,-0.0472941618817,0.0387169663955,0.149568398169,0.168900184891,0.133072170775,0.209910073164,0.120358159646,0.0803064486464,0.166622031086,0.225158041445,0.0797225056305,-0.0252573780892,0.089189505495,0.0576504288635,0.00197946709976,0.106791659526,0.0370336614809,-0.022940587445,-0.0821407834568,0.0977605371052,0.0219898228731,-0.0280246847679,-0.131334207249,-0.148626734911,-0.214747470858,-0.220949614004,-0.0989186680572,-0.0106319403538,0.102923632535,0.0023498133569,0.276892492197,0.280273032573,0.0746145874251,0.224570009351,0.170481673628,0.23719075501,0.172311028677,0.143847233599,0.180438475973,0.179878790782,-0.00664539516692,0.0575842140129,0.044265964237,0.0220841098052,0.0213833824497,0.0658648416354,-0.00153583534144,0.0444713185284,0.0303559030456,0.0465024522225,-0.204337575782,-0.163910575577,-0.203583756056,-0.284386904319,-0.0622984654693,0.19708761403,0.070134798552,0.133546455954,0.0764072165624,0.0399217958883,-0.0599305813614,0.000339272765682,0.294551477377,0.292490313847,0.152164024089,-0.0575266808862,0.0820764690865,0.0845637235958,0.0333588427242,-0.128837106418,-0.143614808694,-0.0462007753734,0.144755690446,0.0480107250739,-0.0717070498672,8.03351372581e-05,0.0241387251879,-0.106639467923,-0.1862433721,-0.31493262853,-0.183687387305,-0.123690754131,-0.00426764133207,0.0892554106159,0.113741235234,0.0964802924532,-0.000830034786012,-0.158609654273,-0.000149392627628,0.00998990902237,0.0052385916212,0.374479864987,0.073608350341,0.065737914449,0.0281535158524,-0.0351208821836,-0.0708752144803,-0.0820765437518,-0.0354514441765,-0.0230681951799,-0.0416962865039,-0.00068277972999,-0.00998709864505,0.117800844525,0.133228782399,0.0135601096324,-0.0856872496728,-0.235190544965,-0.150736546224,-0.0613291641142,0.119623756605,0.202276481463,0.0786223827318,-0.220345298796,-0.219110345339,-0.0798878597156,0.0102101604387,0.0430980334515,-0.0314203334878,-0.000252301331191,0.0044701008588,0.0865037839263,0.066147367524,-0.126853810632,-0.228913420422,-0.0961224982824,-0.0847019650026,-0.116303801958,0.0127320827948,-0.0393257663364,-0.0794255717502,0.018116309756,0.0254424323216,-0.0447977834657,-0.0671388824898,-0.177468441593,-0.111850871857,0.20000093801,0.258986227759,0.126580836291,0.0235280517939,-0.0993863495835,-0.0437273817086,-0.000703426114019,0.155945263712,0.0614682056885,-0.0296829818383,-0.0191687994586,0.280576949593,0.0469048531048,0.0390802426883,-0.214631466807,-0.182990274497,-0.0620835092536,-0.0800980654908,0.0424653247723,0.0394843651637,-0.0080754804776,0.0449634522091,0.00542207490639,-0.0415564216067,-0.165583606783,-0.207459593647,-0.153847287446,-0.0453055503151,0.039219017426,0.177339120994,0.415134445169,-0.0494812149502,-0.180734627945,-0.0645090909088,0.104643627461,0.0305959400726,-0.143467655434,0.118774480338,0.128580054442,0.036184320564,-0.0072094574167,-0.0680780134876,-0.0940057062395,-0.180988093815,-0.323198333098,-0.137042161338,-0.00744069461085,-0.070379592147,0.0346903807345,-0.0377839376465,-0.0148456009897,-0.0524308868612,-0.118203127043,-0.0157718973734,-0.227195625281,-0.199400105388,0.134527590175,0.24492999633,0.200852839856,0.0341729320001,0.214082351216,0.104984262693,-0.00457736642328,-0.0350315865494,-0.128271007044,0.0252156731236,0.0928488323716,0.111681074862,0.122678103186,-0.267677473802,-0.197967048205,-0.185439908377,-0.100912996416,-0.186475742858,-0.117002233568,-0.0891710527302,0.0542754380361,0.107319099647,0.0937510339482,-0.0542314749736,-0.003984551533,0.109603062548,-0.0585618338908,-0.161663519744,-0.0753238682747,0.293728465411,0.331380622605,0.134601675405,0.199137893324,0.0531286613158,0.251440128872,0.0438362181104,0.187379537961,-0.0286488530897,0.0475026393002,0.203771697107,-0.18377160998,-0.321643321808,-0.158936242976,-0.0867647774694,-0.11945226873,-0.157042891028,-0.0962586842738,0.00179268721105,0.0509832210687,0.0163556513756,0.0679141016064,-0.0716460391107,-0.0112380741335,0.134341294956,-0.0430583221413,0.0290613182521,-0.109752389284,0.098192262125,0.0713918544125,0.130432374545,0.147137346459,0.237379111532,0.250480045625,0.218057606344,0.128521303711,0.0667081635246,-0.0120972494752,0.0154113127286,0.0535131105259,-0.284108363678,-0.278738648917,-0.203171020645,-0.231567122648,-0.167113515166,-0.109238200335,0.0187395003437,0.0168844250081,-0.0267247265402,0.029093211807,0.00207657766367,-0.0891573188756,-0.0147775447888,0.00550406192194,-0.0394142392234,-0.150419664863,-0.0824626585239,-0.101962859995,-0.165686439677,0.0517464651137,0.110815836279,0.141329628192,0.042557046983,-0.0884189120836,-0.0763175562018,-0.147993078182,0.0207145243281,-0.181654466898,-0.250647992393,-0.35976777097,-0.300814847278,-0.0570498786051,0.00488845350401,-0.0427927018938,0.00762206432417,0.000273152305579,0.00944527531433,-0.0634891000288,0.0101401127205,-0.0789365923312,-0.136256535662,0.040151951593,0.0368156575891,-0.293651152816,-0.179121092077,-0.273618577287,-0.301619928776,-0.00849035724273,0.201296045318,0.0933085097198,0.157834950243,0.00933453778949,-0.170322432423,-0.208159252513,-0.19618764154,-0.26310349667,-0.291942595348,-0.13596935604,-0.13533074551,-0.0507755215659,-0.0657364957954,-0.00360486533944,0.0060024187062,0.0620497803316,0.00648859783058,-0.0584948290946,-0.113402863271,-0.17236752947,-0.164758905073,-0.05716874483,-0.06201756932,-0.21539614803,-0.226623623053,-0.249939937827,-0.251779570284,-0.262670914101,-0.178152775368,-0.138789192519,0.051693685846,-0.0768495242671,-0.220754922629,-0.254169766026,-0.229180850564,-0.194893229179,-0.141644183289,-0.139128369915,-0.160030630545,-0.0238542517294,-0.0515809073242,0.0524594406749,-0.0674889794184,0.0306420843082,0.0202576899937,-0.0659903653632,-0.0123790241166,-0.190031481601,-0.218020392107,-0.0578990788429,0.0426614638364,-0.0376906834474,-0.123462478628,-0.0824547825052,0.00552419421741,-0.0973791666784,-0.116900161952,-0.0614888764996,-0.00803593204699,0.0274599369382,-0.136691181071,-0.356992425847,-0.207899224512,-0.180790661414,-0.0623337488081,-0.0812393933569,0.0390382445617,-0.00707319052526,-0.026787332384,-0.015846253812,-0.0163455747951,0.00154035699656,0.0124378284115,0.0236159319779,-0.0376486704764,-0.0882689087719,-0.0824961566679,-0.00864363000025,0.119134381072,0.106551751686,0.164291947739,0.078357074431,0.111903032997,0.095910802179,0.0531136214888,0.150002172639,0.104767579976,-0.235550292005,-0.368504109139,-0.377876494657,-0.372693284274,-0.228487222821,-0.0650223760902,-0.0661731011657,0.0409685815791,-0.10198954325,-0.0163081671382,-0.00919914859658,0.0573524206655,-0.0101719916928,-0.0633346866548,-0.0441280435324,-0.0046387366346,-0.0332442924039,0.0485738363105,