[[[-0.0338600187846,0.0265364899565,-0.0204595805278,-0.0648121537825,0.0319860424341,0.0725971075148,-0.00951212092408,0.0328395983268,0.0899051838773,0.124988808054,-7.56930015831E-4,-0.00667988760523,0.0497296998549,0.0460913280282,0.0326287102124,0.0139064991346,0.0391676730384,0.0294382065695,-0.0346354398359,0.0324927292834,-0.0582576638828,-0.00771677322026,0.0390533044464,0.128762031286,-0.0539339242664,-0.0250279633648,-0.00354119481328,0.0235829221304,0.0190479985181,-0.0061040802864,0.0597398136845,0.00538853297604,0.0933673645525,0.0309472029096,0.0650751430672,0.0329539729072,-0.00708291034548,0.0475367324879,0.0557710875788,-0.0412326602061,0.0379471769873,0.0399488365522,0.00360846941776,-0.0128373441282,0.0236893306982,0.0454818552434,0.0438367493716,0.0611338838752,-0.0142164192576,-0.0255481603376,0.0117223316906,0.0518303236084,-0.116467026163,-0.00807002755305,0.103780202148,0.0639445713972,-0.105713773997,0.0457264355447,0.0410379069452,-2.69232339844E-4,0.0393447597128,-0.0914572975086,0.00224809411641,0.0482676671517,-0.0338504372724,0.0376232905093,0.015955776644160636,-0.038634926172723426,-0.01029622705038935,0.03605518709159469,0.06268910042410414,-0.014116319024991759,0.0017924873480303356,0.03767942371167149,-0.029139232422141566,-0.04315747439955985,0.00610601190563,-0.0634928686052,0.00308492664332,-0.0376116697486,-0.0102715335102,0.0269401439744,-0.0332645984991,0.00222033894639,-0.0623056031335,-0.0451197496466,0.0758645339938,-0.00139737288101,0.0100204117514,-0.04803526724854337,-0.012468448227214345,-0.019462320023418987,0.048828157588188564,0.054059832016367465,0.02567487581442145,0.09497927924551537,0.04854922770867101,0.04329934133806611,-0.10902746792268579,-0.08646452025123048,-0.1373873963326411,0.011629743119813242,0.10217165809750953,0.001911940704854197,0.005696708396505511,0.026997465985315952,-0.007420309853741197,0.0035292647232227615,-0.0264984293533,-0.0200499420714,-0.0648330293469,0.027948325172,-0.0540167689621,-0.0296740675267,0.0234297649082,0.0485694629809,0.0064720729869,0.05518539995622234,-0.029966604549290305,-0.015986271917029133,-0.09088317178549302,-0.020015324175504945,0.016172381496438973,0.05862098566124417,0.03730334687755789,-0.1534786920956576,-0.11935294884691036,-0.0845069313756696,-0.17722247460089866,-0.025174398806433587,-0.03886928162709928,-0.17477556570281466,-0.02710608717527327,-0.07227414550943827,-0.08416297639204426,0.01014059861571715,-0.005634394846516026,0.020334500205,-0.0536164253849,0.0316061115531,-0.0281207286091,0.0367465830433,0.00589631859084,-0.0227612187058,-0.07429006532140381,0.05245297111559086,-0.13636202842461742,-0.06352144300764238,-0.0699246818906136,-0.029640453445793278,-0.03938237585884661,0.03572614065988502,0.00980068170516753,-0.06178100807884448,-2.611313532245708E-4,-0.07569672139488184,0.042310713061070544,-0.006086873401683198,-0.09029300290272536,-0.04963663981801167,-0.017846600026720328,-0.12984246430435092,-0.016646634730821973,-0.05246802097201588,-0.017393302039634673,-0.048870341461150574,0.0157376627206,0.0629122438818,-0.00649128910271,-0.057513410368,-0.0344396430351,-0.024041964584,0.032145520077266385,0.044500773991362236,-0.062133611126333275,-0.017065108488252635,-0.10748658210573918,-0.023920317639719406,0.07309176944728073,0.0932983028757558,0.05610786949488754,0.09001538924272522,0.0756279237619003,0.006271697451416834,-0.07284511741783914,0.03324053352934674,-0.07259770344441471,-0.02014798701544317,0.0370079104895454,4.490324717143286E-5,-0.06092286135444888,-0.035119322519035594,0.013984119401183792,-0.07331924446569318,0.0697056348696,6.12828730704E-4,-0.00963620984772,0.0385717412453,-0.0810633062864,0.00153572374062,-0.02144569551932583,-0.018463452554293987,-0.17379195998378022,-0.13980621280119182,-0.017000229241346206,-0.076770301086906,-0.05828240318777951,-0.02161900387178692,0.051441261407280586,0.0581650211229669,-0.13519306081056562,-0.07446917781836541,-0.025561871489809138,-0.0011588636614788307,-0.10449929753800791,-0.11597537531023724,-0.003404931187522247,0.04396043873507214,-0.06611273879159107,0.0020201703702948156,-0.03278625122540721,-0.005309260772932393,0.0195566847706,0.00305325888673,0.0415942221222,0.052909638175,-0.00181742730285,0.0180503518813,-0.09611659423505149,-0.12446815751372874,-0.10242094376520217,-0.0919830080488052,0.03732303240887033,-0.0771243771351352,0.007049719268725169,-0.01717849533802644,0.037238717246943595,-0.08002865333509131,-0.0809799132503172,0.010170818299998535,0.04457808209826922,0.0011582295993720184,0.007957294759548622,-0.11313225578354988,0.0893759813038513,0.010719209378776589,-0.010782774807738881,0.01656847285090655,-0.019647472370516277,0.0330045504394676,-0.0660776621248,-0.020416221195,-0.101688163693,0.0850614893412,-0.0245382529952,0.0573495958215,-0.10955836294692599,-0.13952731639611948,-0.16186508254054122,-0.026077881964754305,0.048807374777139034,-0.030296962307656192,-0.14766576345478163,-0.19728937397785906,-0.12866855749840175,-0.10594729380534111,0.008213403380120686,0.15906637008805313,0.20397197828028565,0.2525787794152325,0.11836425243289513,0.27699648530969684,0.11746695149535268,-0.019981526110178824,-0.021566734270965723,-0.008900761177857704,0.04918806567472133,0.0579136036396676,0.0246819404515,0.0376516000805,0.0879114977502,-0.021512938707,-0.029129528896,-0.0028024721809,0.11189578666955412,-0.0168164554095617,-0.11014788032888874,-0.16468003953693894,0.08316568504090592,0.19669403982738726,-0.04576799567130206,-0.07223530367132412,-0.060908752571490726,-0.10447200243745879,-0.21494498819281305,0.019061041883162117,0.11184055566313635,0.12265968699132129,0.34625284992226574,0.29195763787436335,0.14329748025545472,0.027233758155084806,-0.09774775998677195,6.822614978405828E-4,0.06903466297447441,0.023203492823005482,-0.0886694129968,0.0282097348766,0.00211018988276,0.0301452218765,-0.0469484701171,-0.00746016132233,-0.07646697715690572,-0.10283280093230505,-0.1518154363056087,-0.1165645709581102,0.2593205564419858,0.21895510012791344,-0.0731771872807114,-0.0218801318424541,-0.1353535353082547,-0.11658785321904176,-0.23140351816172214,-0.2565263376326297,-0.1565439702609329,-0.05189632886153679,0.020396557385357884,0.08918105381885046,0.08880585966802856,0.17006296825604345,0.017360912501065768,0.13841139365796307,0.0022159679576226592,0.1422199740687288,0.0555293940274,0.068683996977,0.00397457089645,-0.00899937108101,-0.00685432041111,0.00926920554471,0.021560867051069476,-0.0974072763162956,-0.20513625100417202,-0.07659913418228413,0.06965591170858067,0.12566822731236563,0.030263136849351457,-0.07395484546360244,-0.03464486114877163,-0.12069271960852028,-0.13880131301610585,-0.0816157305152343,-0.37984068974711804,-0.34798126318061745,-0.29443133827312234,-0.22744119481283764,0.10333529757209466,0.11763041741992457,0.08080588635950386,0.07518080322213479,0.022276124081540827,-0.008487997213667728,0.0374027222272,0.0117682264453,0.00429746523037,-1.61468061605E-4,0.0257561267709,-0.0137860782702,-0.0912713778648,-0.1447674250744493,-0.20770258862927204,-0.1967979429557042,0.12676533128168738,0.033570743292515234,0.07950434899873408,-0.06399591379197074,-0.04275698556535259,-0.21139388161407963,-0.03721172238029372,-0.12213490457729677,-0.3436572153837742,-0.4635993779872797,-0.39778612913827816,-0.21364808687738662,0.007685575457587105,0.0428555833671127,-0.027054894577778564,0.07163150395710398,0.04102739087294491,0.12062824666417536,0.0354540860108,0.0114593374861,-0.0493196554416,-0.0581708898738,-0.0721791594246,0.0368332497775,0.0567852534497,-0.1368023319652701,-0.2139020544988515,-0.048961059145582596,0.019327581681704,0.04164492730779296,-0.10039195282628094,-0.06720788690915665,-0.03544740870385685,-0.05977038845347609,-0.09757822022565601,-0.04775182221023018,-0.1921953176886093,-0.46306704982572294,-0.3367548320737075,-0.3058811420303807,-0.1837469198790617,0.010654107267021496,-0.04154502568860619,0.02364139000858157,0.0016828456993643875,-0.061233514453028604,-0.0531886180781,0.0499326649287,-0.073110798533,0.0172300250578,0.00323476362842,0.0198852227385,-0.023306862816660175,-0.14409532041107825,-0.05166337613644807,-0.11200537580199087,-0.13018384372253325,0.13280303139670946,0.07234026479014719,0.05781958800738866,0.0855892580197969,-0.10442696559400592,-0.001249432317921356,0.09336747469041565,0.00344345121976416,-0.08759196320093388,-0.2498869507319105,-0.3102826290719708,-0.29181776393633524,-0.09533683588716961,-0.0036962560531634643,-0.01603250139016284,-0.016734978701611218,-0.03035453584629337,-0.0569452496887,0.00395807253743,9.36264643628E-4,0.108269220766,0.0337444956321,0.0656568509162,-0.16443139445342905,-0.1824091121573669,-0.15514320652985455,-0.16558068136096452,0.012704718287696405,0.1243261867276871,0.22185858128351452,0.1602411824371766,0.1987773109219596,0.1007851128834386,-0.005925934446943299,0.18856607784939514,0.12498026345346976,0.015301497009801008,-0.14127803837650124,-0.22989652124021198,-0.3386491859855086,-0.27171710526057047,-0.016105616347302832,-0.09510621166926314,-0.06592008503876308,-0.04969621614309337,-0.110959818679,0.0478155243584,-0.0241907494162,-0.0315367543637,0.00875296636821,-0.0204191285955,-0.1559769233796291,-0.1466131345587354,-0.2519679092673887,-0.25476314673447,-0.08097251801532093,-0.004634432324802455,0.036086573463525735,0.10156121354403713,0.088871211189917,0.16604398840249024,0.03740752486881099,0.19175359734706882,0.1302772679661055,0.073001950389042,-0.052704784246535574,-0.28030306695590834,-0.27207238334208733,-0.07863130482474841,-0.07347563313630222,-0.055459491396014166,-0.04024232119364862,0.022878477669025565,-0.111855598042,-0.0150972018387,-0.0316618971145,-0.0378696002933,0.117935858206,0.027554258012,-0.07743480529519708,-0.1744962987884532,-0.33977630521060925,-0.24195142680527226,-0.15349651174656972,-0.1404910645493524,0.03204674154539676,0.12296908331149416,0.21551955124754232,0.18432582089881144,-0.018561033124477423,0.11628628818469396,0.1689869204490649,0.029871197289136814,-0.08853392069628223,-0.20861502232114576,-0.28878080196467204,-0.2561623691804199,-0.055733262742706124,-0.03382032640681066,-0.09291900001890172,-0.0370315426401,-0.0378929933875,0.0120218178421,0.0129793372197,0.0707709395305,-0.0224036413407,-0.0530270010077,0.007054164097953109,-0.047646625728989936,-0.10159545770471219,-0.15551288625565926,-0.06852914913942414,-0.20149075508006095,-0.11768560716040133,-0.02611670526767421,0.12442756823665571,0.05413841651876349,0.07988689275728952,-0.1678429583899338,0.07040267618461933,0.026888048672338054,0.09657826061336763,0.021542939825152235,-0.24548268028021114,-0.17461255804421572,-0.16924127310930348,0.028173471067134477,-0.008814287854758022,-0.0376807429062,-0.0327023584964,-0.0508039705271,-0.00748117885846,-0.0629104334299,0.0834838977752,-0.0842155145077,-0.06013036490446611,0.05408286788281322,-2.2631426393271634E-4,-0.07090350386877434,-0.23118865554511023,-0.2706015835380076,-0.2568649628496467,-0.22110644462751924,-0.09746552364744916,0.02750057963394441,-0.04127497479291382,-0.08061288131074372,0.012007882967813655,0.034227177268316575,0.029052378896425805,-0.08077787428801547,-0.19469161837525534,-0.15161346261363054,-0.07715924599472795,0.04397648482755382,-0.07895942813808834,0.0234170567041,0.0130274390373,0.0314661205266,-0.01044647945,-0.0822713480987,-0.0827995166796,-0.0455256744439,-0.013000670410895209,0.0842113809717258,0.023392188395666234,0.13398077629761918,-0.036598954000455534,-0.061826327009940854,-0.03693278410606011,-0.1376943304054171,-0.04782470004692911,0.0037211580046568175,0.019211053770214235,0.016234901731931883,-0.05282843326954452,0.01221794076346489,-0.13095843947407326,-0.20108647947795233,-0.1628940209191334,0.017600956424451624,4.803754319945766E-5,-0.0672987732185145,-0.11447863971922881,0.0479763056824,0.00254819502963,0.00849513005591,0.0541275390783,0.0528510695873,0.0257490214262,-0.00184111071506,0.033895705748868514,0.2078812224957661,0.11270498092258116,0.10910819063265537,0.052787299367390655,0.05275580652382107,0.031242009234579555,0.07306814275926007,0.1287650641523025,0.039114506622225514,0.04744715932214364,0.010703809468867858,-0.15690940479771923,0.0069599265396167245,-0.18115098516204556,-0.07028868369566046,-0.12628927812372975,-0.12774946189662012,0.0039633900918885955,-0.016613110990277968,0.035861929728203595,0.08857125725321034,-0.002930679998351206,-0.0453689939816,0.0460920891039,0.0405193550395,0.0680075252594,0.0562517052385,0.00610751470956159,0.09041339285481259,0.16817721203244076,0.13535879100348577,0.11334324664392965,-0.0069128642216593345,0.01051604225374904,-0.06718207713344292,-0.015150911676742202,0.004009862628368283,-0.060974159084395886,-0.09115028287735534,-0.10021889516402013,-0.22008384946995463,-0.08651447062662189,-0.1404984733972734,-0.045468356837405535,-0.1570978359626414,-0.03884811874459589,0.04607096133721869,0.009863816808102723,0.04145145709673974,-0.0026954505839920533,0.0260410712821,0.00655667469627,-0.0111533696962,-0.010827080833,-0.0255969909578,-0.0540263730069,0.07385719647112897,0.05403345094510543,0.15186043219947115,0.06321275058476492,0.10387089061768734,0.038676505242011126,0.08012591461531168,0.029549076364095553,0.08527608254157788,0.03330816083379808,-0.016760622106886836,-0.048019142330062506,-0.20185216195882044,-0.10768550024327331,-0.0644686124523199,-0.03604437162675091,-0.08326358353906348,0.0021595673220436763,-0.08938487625078273,0.018927884226430398,0.07688768151519151,-0.0016454810354016966,0.0212168831134,-0.0813005493795,0.0425545674638,0.0242833245093,-0.0131576284997,-0.0601491223789,-0.0123855004211,0.019511429541,-0.045320765947,-0.009071131583712606,0.004041999372048539,-0.008862205387138661,0.06238659330924701,0.06164088904048511,0.11377167442331242,0.0399084847935451,0.03438638459769631,-0.15135356734705502,-0.012117369638890775,-0.004250961865463931,0.0035495482215478543,0.006539622118974746,-0.014595252327414042,0.026967718002280153,0.0066210302195839526,-0.032542177243649065,-8.027530675295447E-4,0.022789086387243977,0.0991472401752,0.0466595679302,8.32990359915E-4,0.033851887032,0.029251189083,0.0762987617446,0.142180391581,-0.038990117831,0.0155973848686,0.0667542373693,0.0495643748431,0.06463940788519314,-0.050302424349214836,0.013036495798843285,0.018616014133312344,0.0020096467032844362,0.006396612519101669,0.055244302292992986,-0.016234922383156176,-0.009167591993344958,-0.07865099295056,-0.081704884139,-0.0806885424084,-0.021674009703011202,-0.06805456738531121,0.0211099482557888,-0.00631276915131,0.0194656297402,-0.019678785082,0.099477547752,0.0381231956091,0.0490137916093,0.00557615753577,0.0183071743162,-0.0101394047219,-0.0190248693655,-0.0065972622319,-0.0233988183173,0.0468493518148,-0.0170375783113,-0.0897068614218,0.00505619027801,-0.0555308625799,0.0106465292873,-0.121493423251,0.0234242887993,0.0576337494438,0.0482956833372,0.0655491699468,-0.0621957698644,0.0330979961643,0.0260038165408,0.00604181480847,-0.0390570524907,0.020966285483,0.054170432501,0.0262831535923],[0.0698628042699,-0.0148732040416,-0.00793664579999,0.0332036325596,-0.0156200539512,-0.0524855680341,0.00965693906867,0.00927016099609,-0.0621068660727,0.0700174609168,-0.0360797829902,0.097744128476,-0.0606304615412,9.38269417775E-4,-0.01278951381,0.0448722964386,-0.0408236980699,-0.0504413375744,0.0291874710665,0.0417118116941,0.0618595368705,0.0437409055528,-0.0293532687175,0.0559592623381,-0.0194519763007,0.035511820294,-0.0146256693877,0.0493569319272,0.00860516082677,0.0452820831841,-0.044557792026,-0.0335265103805,-0.0391576204373,-0.0393723004292,-0.00477466140749,-0.0549753858174,-0.0509123156025,-0.0829691749215,0.088809260813,0.00858112993986,-0.0369940905666,0.0167645158155,0.0353608637805,0.0734680150386,-0.0643449867397,0.0315005596697,-0.00512910343462,-0.0317256430036,-0.0424506915575,-0.0779069822776,0.0173898590159,0.0444040283531,0.058636348841,-0.00419417516398,-0.0113055058154,-0.047229639656,0.0364744593231,0.0246371570894,-0.00508295159123,0.0456108388255,-0.101173818649,0.0318272808055,0.06025812609,-0.0152386038321,-0.094887352265,0.00957634725117,-0.06508962201591184,-0.06164126210770642,-0.12375420604896546,-0.05474833149267088,-0.13296782670951712,-0.05878734345753421,-0.05745734741095134,0.028700070403186836,-0.019667948903937724,-0.002861214944264463,0.0213225657906,-0.0107342835478,-0.0250000648696,0.00372707153155,0.0538121237483,-0.0712382704086,-0.00461407298237,0.0347879536146,0.0058764047217,-0.0325727675834,-0.00718341579424,0.0415464231517,-0.0275434474339,-0.03138173464308532,0.05316689528488415,-0.05460397711974368,0.0013779519297955935,-0.08338396593169907,-0.10059663968412308,-0.15441039771749668,-0.2340116168375405,-0.21688599802729175,-0.2235936649163325,-0.20272756983086646,-0.12811930668702654,-0.053238565731469026,-0.10322088434685067,-0.04059406720701283,-0.11329299667983449,0.005628798641893786,0.027157297443779323,0.003941171035549012,-0.00381306596333,-0.0339250373948,0.013106813449,0.00434100670297,-0.0666601523021,-0.0531883695456,-0.0179797979648,0.00719545543645,0.0189791429607,0.020821639005928823,-0.10774741569808778,-0.020489011008234193,-0.11459278150556279,-0.15251988035725383,-0.05316044626348086,-0.12347846699978644,-0.12570646800405663,-0.3012364724601822,-0.29240079417610537,-0.05810704433878095,-0.06402185252230634,-0.056989661791431896,0.06825414128397046,-0.01892582032459841,-0.1329729366771817,-0.0641441852585394,-0.1524836593731475,-0.03949743038839945,0.07703476733358823,0.0264206458886,-0.0241915240865,0.0394976860578,-0.0509935573951,0.0446722316848,-0.0187498265198,-0.0475426083,0.027723462301044517,-0.024857116778514775,-0.04972749715404962,0.01960437429243632,-0.03208485966070344,-0.19420325829321375,-0.11568946841456623,-0.024919710807293965,-0.15214473747344665,-0.24230074295926593,-0.14942602121192064,-0.2370789549707014,-0.028258957555580076,-0.04230932035008007,-0.1431233025034796,-0.2306462867176996,-0.15715262714404657,-0.22450088415498765,-0.022445380348810343,0.04953881391070796,0.0800850559442893,0.030444771996726943,0.0718600115988,0.0274851282855,-0.0942774659781,-0.0392337219561,-7.4683030683E-5,0.0661752188131,-0.026027333598624833,-0.05269029471103945,-0.04560730757565024,-0.05930130847772376,-0.07799867153756711,-0.013996595338922559,0.06901459105430205,0.11711506739760343,-0.015075046644853507,-0.027002403466695368,-0.14590200828840708,-0.09063595082172646,-0.02380619120733002,-0.028345754861787274,-0.12599362697753808,-0.05511155454394801,-0.011798770774491088,-0.07101968244868168,-0.035645071220929615,0.1324661075391832,0.08624671067074169,0.06317786874687739,0.103566712501,-0.0591475197364,-0.03069269402,-0.0205456229944,-0.0306618470983,-0.0714427978262,-0.02914238433091682,-0.049834632399174544,-0.05617724273339639,-0.0362135639367758,0.03984867624247095,0.02627193890872787,0.21295248107663797,-0.015455273509530451,0.19217419982370573,0.05249137241710469,-0.04366480383176724,0.005303281772563229,0.06571172083993658,0.04686067855656473,-0.008864172829708444,0.0760475058330044,0.06009237124856989,0.02187006195965719,-0.049476352075138064,0.02678643926485236,-0.1742205054969995,-0.05897785704920027,-0.0135111692123,-0.0719995987778,-0.039022019887,2.36764749079E-4,-0.0503859199272,-0.0479032858189,-0.10537060328631338,-0.040503287422393106,7.576688326988313E-4,0.04769288575896961,-0.008697685143334402,0.05007895537748671,0.04289017465120333,0.04538103656068931,-0.012507159677357209,-0.0019807071353981484,0.019837119843012153,0.03434693594255588,0.08220142671806854,0.08699622892940442,-0.07126547374032109,-0.03296594577133729,0.19577109212221713,0.03418834263517301,0.018181066788310222,-0.11554364848157023,-3.136021580487071E-4,-0.060855779651400266,-0.00535237158971,0.016549178551,-0.0330767413474,9.06503957796E-4,-0.0811782167631,-0.0997881441744,-0.038115324534562255,-0.02217998285380471,0.19434872259390862,0.10127455200873177,0.0038657230662789213,0.05095149574533727,-0.12746769086159981,0.06656675782523748,-0.09261723734193064,0.09267762707584536,0.024023267134000253,0.016359891067783978,0.1276160831593074,0.0809114039398783,0.04201421400866714,-0.05077433881860182,0.01034951296111144,0.08993721511456741,0.1374345146134603,0.033015454030875045,-0.00120955018555634,0.08081391259149974,0.128871921143,0.0234225316571,0.0348701195272,-0.050611251152,-0.0555958990006,-0.0671389327714,0.08288471988048467,0.12241258819357022,0.04797505182543412,0.07053080349935087,-0.0067653585178012446,-0.055408216717375405,0.0735880793879987,0.09874828021707112,0.019803041418558247,0.14574251989195502,-0.15551240233031302,-0.0371571605208904,0.03533655032397341,-0.19446197661915623,-0.12874321723032636,-0.12480525935454707,0.0847448295923353,0.1970441395860154,0.2335872169531065,0.004886292868395946,-0.031444667065339604,0.11545465793754013,0.0576155754509,0.0492645592743,-0.0309598136255,-0.121509943522,0.047510696662,-0.0239425932947,0.08301341395466305,0.19109011493698494,0.15187604969212687,-0.09659892029736461,0.12469862521093193,-0.052320416177256426,-0.2243558003323628,0.020924054766513777,-0.18207367039159383,-0.35889192347174215,-0.3339571641092025,-0.1932653060798636,-0.11547111396193041,-0.14780204300935343,-0.060713860026116874,0.06607107171088618,0.05735635827212565,-0.06361045028612074,0.15958811496718803,0.07848858848782782,0.13287906496340138,0.08798466383247078,0.0301897277768,-0.0434749579817,0.00767769563927,0.01063169011,-0.00495177459437,-0.0858113486093,0.07522512421417714,0.2783199120373157,0.32122569672896367,0.047784853636646266,0.032064714627098624,-0.18197267706605358,-0.13451163392852522,-0.24335004090982232,-0.3480314509443508,-0.3383860833337023,-0.04386042946698348,0.14862409291632633,0.09543536106713262,0.12834826357993792,0.05967958658075262,0.13789237164096774,0.11677537723726664,-0.009151093444511935,0.15505691617519615,0.0688435153918895,-0.008647724047661176,0.08459934634162579,0.0194492671946,-0.0352348723725,0.0351337725469,-0.0439662917499,-0.0573411764267,0.0935162799124,-0.0208457872301,0.24375833369881839,0.1502396211089758,0.06160556110820979,0.0790840725861018,-0.02942416084188726,-0.05943656000314255,-0.18688116103917188,-0.14370914571857593,-0.10091912404144202,0.04898561638689138,0.016741102957654845,0.10266355593170122,0.26797789427288965,0.14100492136515416,0.22738434153676065,0.2794759656944746,0.0668478384139037,-0.09708191997320743,-0.021746131504089928,-6.739500211332495E-4,-0.04645861784126791,0.00567976240827,0.0756237956506,-0.0674083885278,0.0210054458739,-0.0327956467568,-0.00406207526343,-0.0152424535956,0.08402593495003284,0.1306708367084479,0.29953904505514417,0.3833408162646226,0.42443346971520485,0.45077979660107503,0.28648965290468675,0.09203370310991522,0.056714002742155795,0.18033523152144945,0.05524387581966543,0.07230319355028778,0.3217439396886083,0.06950522302620143,0.1587132793862785,0.18433339119948297,0.05857028273375156,-0.07038840664231255,-0.0014112832374332958,-0.029847497831513303,-0.03990164405167966,-0.0352627805419,0.0327386742269,-0.0230070137853,0.0327737993122,0.0590727651707,0.0440593739261,-0.12364603890835167,-0.09717278252108033,0.08480846726552273,0.29992697638802057,0.37114564273042905,0.6231650253260138,0.5453715027452364,0.5100061603301399,0.4598976650941191,0.43422983229283457,0.35482783969979637,0.19982871423132254,0.34592890849644026,0.20281692358696551,0.18443251660340462,0.08784729215996234,-0.005606454837077608,-0.012003284757081184,0.06757935587232614,-0.08472396006475737,-0.08777906764874222,-0.12705612006731373,0.0104580564251,0.0180018182877,0.0108469820145,0.00143897527705,0.0699864668319,0.00296597864985,-0.03282611600014342,-0.12060838252884644,-0.15851033410839435,-0.07471833412981828,-0.044721095843102986,0.09268147213735813,0.18180457151078264,0.33922385463439086,0.4973552660126485,0.5107006085931389,0.251464693785071,0.23224055981210778,0.1784414780973462,0.11550758171843371,0.09133945627381072,-0.04702742076770296,-0.09527316191431096,0.00535300167713674,-0.018384359312083567,-0.12940601797602366,-0.0213537830581851,0.04334660627038625,0.0144969643795,-0.0546892984884,-0.0748400570435,0.0206422401343,0.0118455331727,-0.0830178302285,-0.11959508809033186,-0.06122081886567474,-0.24024410034264373,-0.28240115185150966,-0.37384674468677487,-0.5794171755322274,-0.544628682362005,-0.32100332104266166,-0.13632186818607167,-0.015907030982626386,0.04597124876146467,-0.03162636491697258,0.019710632741129767,0.031052190327885146,-0.14944003792609867,-0.13136485103531773,-0.10471756769161729,-0.045300562739144686,-0.14396874575152188,-0.08213860802713584,0.0904958357928324,-0.07395561804714357,0.024974427337,-0.0140316485619,-0.0167711190962,0.00693690324597,0.0614690270238,-0.0146095928798,-0.11170865088875927,-0.15442132284201823,-0.2565206660017089,-0.30700441583237614,-0.31994833772237985,-0.4057591202469846,-0.46300651886618244,-0.38383034497146,-0.31651710132073435,-0.38548212809290483,-0.12512262165009155,3.8781359559883266E-4,-0.061064909746895706,-0.01627278166123642,-0.15838747616991392,-0.12776578453879434,-0.09267400507275117,-0.08121681008391092,-0.0519982189771477,-0.056795499316304406,-0.13977142671148257,-0.135356930446,-0.0839270896003,0.0176781622949,0.0014437762707,0.0416062769144,0.0197828715991,-0.00602623149379,-0.05425011819288275,-0.15027695825698903,-0.14586803626956818,-0.07029265757152306,-0.19789595443012423,-0.19917363701159999,-0.3620612597661809,-0.44496564907461034,-0.5927765327538603,-0.371291641702993,-0.08409847404804571,0.06868612350574234,0.0918756356275406,-0.08733947943802622,0.054029540748583425,-0.1002704900051419,-0.02655784019783099,-0.18968904312564333,-0.0834415896172881,0.013298066208364802,-0.002925439598784103,-0.0256241495041,0.055276583106,0.0657212972751,0.0749484488996,-0.0379764839537,-0.0342967880602,-0.0967824174218,-0.07997045345612164,0.039064922273242854,-0.028396526186476062,0.027842574645134868,-0.06642109253808791,-0.08657122398191877,-0.12119075571705332,-0.15674318802555515,-0.39885462056544885,-0.21404179925494812,0.04970282667630024,0.15626613168412412,0.19233044012117237,-0.07886895874833127,0.05543704312292645,0.006605926628485098,-0.029261246568010175,-0.07724141620355605,0.11866568947829743,-0.01545740584363337,-0.10749162995524911,-0.0222628756528,-0.0621383437604,-0.0416192521148,0.0407840120912,-0.00642632934136,0.0298901014315,-0.0857732152443,-0.04860073866037226,0.021565311670046827,0.02500211174300596,-0.04607510020530388,-0.14096148502382366,-0.15596474385011946,-0.1519626336109114,-0.18180615039691198,-0.27631668464281767,-0.19276203799170386,0.012811472558422188,0.27939584725202915,0.20737822574884066,0.043991071009175174,0.006821915812737816,-0.14786739500110407,-0.09157555027960163,0.06042542112826972,-0.0473414708043609,-0.058586186387747236,0.08213310375600469,-0.031410284912,-0.0241087758267,-0.00923861048639,-0.0842498212858,0.0350695942727,0.0046627862993,-0.0174417155052,0.037278495887647096,0.07626758669246357,-0.011564546061570757,-0.07672863954005125,-0.10943776013148097,-0.14204376652304918,-0.16389207212156082,-0.2615685609614763,-0.17497316198557544,-0.0781002122482292,0.05392768856786782,0.1511293297376764,0.040842716214442944,0.06114951596880927,0.03171813729653275,-0.042793465009825234,-0.07864377693155612,0.05324049376497282,0.08647367110120843,-0.03643470461028369,0.06176638459139305,-0.008790381904296759,0.05413840289216416,0.028091623667,-0.0142549642312,-0.00407719714943,-0.00142042847818,0.0230318661353,0.07070781006490316,-0.011449611526077092,0.15819375725820964,0.09775738968529435,-0.05484673299009598,-0.14802130525859022,-0.06595113865802231,0.07272328557626918,-0.16094688388826828,-8.144178332877284E-4,0.01778028340030775,-0.02310456057146007,0.173142070678103,0.07153981944888821,-0.02368943240937157,-0.02740802797600209,0.1335555839832998,0.040485871479814146,0.08562368990912066,0.008467663543459713,0.008054560448579825,-0.05278057013489224,-0.02193346488015845,-0.0159222600617,0.015269411679,-0.0068463772278,0.00752328670193,0.00453949543183,0.0401488290385,-0.05437003695993436,-0.03156238733191956,0.0898708217044998,-0.10129448137159582,-0.18730827481250156,-0.10131126786194568,-0.13254208728946823,-0.2033627371319783,-0.06132330011107541,0.10088733108821041,0.0446436666707453,0.1330749825707944,0.19065975818318184,0.056151629017878575,0.2259125130403376,0.18518095323581113,0.17526232158924193,0.11917078350266667,-0.02438950503010431,0.09360490921665914,0.03254004531507398,-0.07496140523744521,0.0485762018351,-0.0216735932183,0.0190032567131,0.0602567561231,0.0665628228557,0.00392991666898,0.0292920134652,-0.0193909083464,-0.0767664909142,-0.005676634005481652,-0.03971637133501535,0.11963343233493198,-0.21793761922624802,-0.10325217683404106,0.09773659341040743,0.16471453749883047,0.10644676023181492,0.23933585310397046,0.1951803130467387,0.07998797672964586,0.18470215862481787,0.09251876515689018,-0.09256467226776097,0.0025657746366759488,0.05313717645958864,-0.04693049774635638,0.032159162646532194,-0.014634920307679223,-0.0199891119454,0.00814166411384,-0.014325309611,-0.0317593855522,-0.0176673511361,-0.00696403109947,-0.0775824828699,-0.0443726537281,0.0339012722514,-0.0770656422254,-0.0321902463729,-0.025584079062716956,-0.02501686402274898,-0.10236645330443991,-0.03490609205802901,-0.026411778405692716,0.07269131084419836,0.11142927749128215,0.0792824399351029,-0.07521103489157988,1.0088644097413596E-4,-0.00303273006479,-0.0433378881817,-0.006718185990585845,-0.029537697632635845,-0.011381259573435847,-0.0473441972795,-0.0318703012032,0.0135934827838,0.00362430218563,-0.0442844132575,0.0324754149962,0.00721106632328,0.0822830422658,0.0106596273025,-0.0649351188455,-0.0345491688307,0.0130000802619,0.0663063702778,-0.00600717516281,-0.0886631709417,-0.0113704483044,-0.00318897295103,0.0331151809029,0.0130168900568,-0.0381688512297,-0.00276906540044,0.0139285121479,0.0145422067809,-0.0276560141173,-0.0617917568799,0.0258751862984,-0.026024836964,0.0365266429148,-0.0873371190921,-0.0141741413309,0.033791159576],[-0.00924705528845,0.123643866915,-0.0152844534332,0.0101163120729,-0.1295513334,-0.00568030258486,0.0499379382359,0.0371082773046,0.104220786266,0.0278534975631,-0.0941062023818,-9.63528232766E-4,0.0240623413439,0.0394053565774,-0.0261787758382,-0.0515069398511,0.070259406607,-0.0324699220107,0.0101936832288,0.0556563981614,-0.0682409222879,0.00333781122457,0.00886960835079,0.0563832308532,-0.0418041835784,0.0828667481516,-0.01101911005,-0.00487021567136,0.00493984796455,-0.0361104388316,-0.00371548481508,0.0195959756585,-0.0323348073068,0.105266742449,0.0233681051484,-0.0451951484536,0.0239770008999,0.0704959079549,-0.00226314672748,0.0159678269333,0.01092551903,0.00209226973896,0.065091535901,-0.0288028277117,-0.076989460863,-0.0625224782844,0.0730201009761,0.0257489933222,-0.0066061591647,0.00702723309601,0.0118087092927,0.0277052764644,-0.0574527473027,0.0251950437844,0.0503806540675,-0.0448578524494,0.00403174310436,0.0298910146638,-0.0375267501744,0.056512361884,-0.0358185260978,-0.0102209496587,0.0276335505377,-0.0532872499515,0.0379359486788,-0.107319727834,-0.08843944814762227,-0.015479490547145949,4.714483026150603E-4,-0.023393971853379235,-0.05833653935958792,-0.006356486030285854,-0.01026399435757001,0.0817565825865889,-0.09488538610744275,0.010684618716623705,-0.037196663507,0.0475668850767,-0.0125335545775,-0.0776135326854,0.065902201613,0.0223290376265,-0.0526912456156,-0.00792713916871,-0.0224839614698,0.0629263010032,0.0152081421675,-0.04902705839,0.0332026878116,0.05721334161396609,0.026322607320112216,-0.09140153444392397,-0.07090997487206493,-0.15579341989966383,-0.040381544777736485,-0.12083874020496041,-0.12341759513212798,-0.21776451435963246,-0.17843040805394844,-0.28629771169064167,-0.16493213100750762,-0.13473460141557408,-0.03988749215705764,-0.03956247749672439,-0.055999308524339604,-0.0721381732399178,0.06412171229427366,-0.06509348342116676,0.0386742765755,0.0482286863314,-0.00419535058725,-0.0175591883096,0.070331340948,-0.0131276983288,-0.0122835043723,0.0199948160865,-0.054517214836,0.05046659115224315,0.07392996838779078,-0.02498499030394475,-0.07147112287287272,-0.1336743158079259,-0.12196092277212875,-0.2102677555013722,-0.29765215053758864,-0.3914669075800957,-0.4637100750928423,-0.5263803542138459,-0.31087617141537943,-0.34881364201886755,-0.2658829066044095,-0.21533925009366003,-0.06607857541236942,-0.03786872378397958,-0.03853803771993659,-0.05209833115874023,-0.08914864959670263,0.00961311221806,-0.0141992574118,0.0417019243033,-0.0720694390229,-0.0064987736169,0.0162382208775,0.0898912815075,-0.049243805502376864,-0.09600015913864156,-0.0820231381180808,-0.15142517561863225,0.05878782231799787,0.02824918305247628,-0.11640362236720721,-0.14699347832501036,-0.1261979760232614,-0.19543025848359125,-0.25189988178500583,-0.09585667627176139,-0.3452451510772326,-0.34570912865611675,-0.4342691166442777,-0.5053121258050807,-0.27771040371321865,-0.13280983562306578,-0.14834251236968063,-0.013017180596670353,-0.052904921689614574,0.046978230641188654,0.0404266690711,0.0372388521296,0.0447628642802,0.0666031477119,0.025758941728,-0.0403533512269,-0.09726548442904795,0.006481883478504722,0.04846275936224999,0.12119215259312623,0.13995316624835882,0.04083238991227444,-0.25634115872758484,0.029155457291512702,-0.019874842042746386,-0.22521268515250717,-0.01651240060584771,-0.046908230227172144,-0.0882895254286085,0.12017072900341441,0.048822779006041525,-0.08000265536764961,-0.14402606342493615,0.08662754791800693,-0.03133218943719779,-0.09310479765376702,-0.11102100709504506,-0.01442341222727713,0.0653689505055,-0.0364715734205,-0.02223465584,0.00101059562522,0.0275565910519,0.0708256022023,0.02454079336079305,-0.09269438441619686,0.04732169107050154,-0.01845813446496148,0.003176966403532811,0.26840508765496096,0.010299617159125007,-0.05813019310167331,-0.017523414099880986,0.09533044193519372,-0.0768662334465429,-0.07446129923989021,-0.01471137398282822,0.2394114232096655,-0.10916776112060522,-0.016274045757745253,-0.05729818443729079,-0.11812832739600189,0.056909414801254055,0.12409593896169913,0.0460819334142635,-0.04882128187001256,-0.00956167220325,0.0451313816293,-0.0257998787251,0.0555171509095,0.0640093235076,0.0518978438294,0.10120008234558477,0.06633484367946121,0.11687449739772644,-0.022252474539211205,0.233301897311843,0.12105266042829321,0.09967646635793136,0.023281961243478325,-0.24591925951347102,-0.13374678936183246,0.04323633194430777,6.561348644003969E-4,-0.03357494759319124,-0.1663719362640959,0.1150841371420568,-0.22385943607295905,-0.2097623956605068,-0.21034020524322972,0.055853698426908925,0.0668511905021647,0.02825744502209559,-0.060746219514012566,-0.0649412693091,-0.10962930929,0.0168741946777,-0.0504086242711,0.122595441933,0.110041377023,0.10900419491535715,0.22010929713220792,0.16706251830269028,-0.0983290298575465,0.1372880168207553,-0.006182380385929843,0.058854334655444866,0.17003561464843123,0.0896140387847885,-0.07154164656053996,0.15423427917121463,0.15752610994810945,-0.0026066706368361235,8.089276497479686E-5,0.020717447341460256,-0.1069324892042132,0.008967554936448057,-0.08722706235267426,0.04839624697045018,-0.13458826022612155,-0.14735694248061393,-0.2014494907950126,-0.1131580155,0.0246391462059,-0.0789156489186,0.027078370663,0.0833586757557,0.0944850015852,0.07753368035679942,0.17980395532248697,0.2214442645838173,0.06846647516145776,0.047029547235928594,0.08989608762447002,-0.09183017606964289,0.17268722444955478,0.13364469760919923,-0.0593840987354644,0.061424801058451266,0.26501577227799744,0.20368749331035504,-0.07048285924938917,0.17303145023816904,0.0042595767702561915,-0.17329730022216616,-0.1671894269964383,-0.018930444896238425,-0.26153900195679963,-0.15735891171142224,-0.15391541460078473,-0.123456251539,0.0324845028341,0.0680342578114,-0.0481182633105,0.100109543227,0.106711016982,0.006820053788738608,-0.06827384849938342,-0.013015717632867137,0.2046204565372331,0.026105002844207362,0.07325722087004721,0.3233337108674416,0.20043899895721107,0.21702954951508724,-0.17915645754505474,-0.01466393739987137,0.3568489569780871,0.3212626212932827,0.5606092205877445,0.20709831133931786,0.09469851089667106,-0.01504432294792768,-0.051673290647328,-0.08096899450283435,-0.20142261061411135,-0.3156920794551438,-0.13653722554724046,-0.0618363224253,-0.0750519191588,0.0438135543836,0.0401060578216,0.0506496455106,0.0155878805623,-0.10212008587841942,-0.261230412157005,-0.30334487871282884,0.10168259301990397,0.1870601772864525,0.14420116480493486,0.05452633103609143,0.3275059200986055,0.057181126387682656,-0.20636030221595023,-0.15411917218972312,0.20916864048750994,0.38037408799431116,0.27690588874782723,0.43441325863265023,0.09513525716509472,0.009899088427485289,0.1495567978365864,0.027642605277334836,-0.33426651520186296,-0.3288459215704114,-0.16672933469439238,-0.0897712862321,-0.00695333996219,3.03567400947E-5,-0.00235237913468,0.0118662886939,0.0413838689163,0.1065872925,-0.1026735636715584,-0.0937948374090547,0.31921786957725046,-0.08011356915361877,0.24257757357830023,0.2891663626684914,0.1055088001502613,-0.1202786762979226,-0.37524858394522703,-0.050515470004599224,0.4107690813386604,0.22864391277793997,0.31030594869615885,0.2330806189058116,-0.1009235124151717,0.08651816185335795,0.013926987980564734,-0.06589757385117805,-0.13685167233729736,-0.09544312845575503,-0.1016740841021519,0.00528703382598,-0.0655300233415,0.0424395516406,-0.00585753364329,0.0881113648911,0.0312551165332,0.0714227160525,-0.04226319824554513,-0.07282671667394033,0.2835280944661612,0.2599084989358658,0.23091449412223708,0.23094956193102767,0.25591626583688065,-0.03500795465332953,-0.1668063645677738,-0.01191856958771388,0.27818830802000116,0.6938121246226902,0.4859070356099511,0.5188414271141694,0.27018524288345136,0.23481258631733787,0.14808201823813638,0.07370848667080808,0.07333403937798866,-0.10740998478942645,0.06578510125872535,-0.0474721120137,-0.0142365866292,-0.0952604285273,0.0187864672832,-0.0190919615047,-0.037906854946,-0.054156868882458534,-0.034421742600565894,0.02332371106513422,0.13762786949757447,0.12311681351670448,0.10749514672411507,0.18141277029463695,-0.07296021274604826,-0.17986364829539306,-0.2170378186423252,-0.1551029036315089,0.35904567733542336,0.2858319240536864,0.5980974396250281,0.35884313235627757,0.2644513777791836,0.22383108798017737,0.2334297908248496,0.19602009922296365,-0.06707040269479594,-0.015626864899401106,0.06192420210283797,0.00413206121489,-0.120759774748,-0.0150360698107,0.0368122054283,-0.0787807751355,-0.0225123954446,0.10854984055960226,-0.005733693587381882,0.0820589434834205,0.08363813128806333,0.1166142758598204,0.012213787808021305,0.04051784556427227,-0.08606943028022965,-0.06762562175286903,-0.22300305124983028,0.13998176731230833,0.2634537921345432,0.4965739017073736,0.395510862767558,0.24731649905518205,0.06722233968288199,0.07295477960184776,0.029476089987610195,0.030833661537161612,-0.041089818163545774,-0.09319397366623718,-0.09847459305786199,0.0710521716186,-0.00893841950614,-0.00970998176068,0.0581772316698,-0.0669466839886,-0.083227452018,-0.06250207384239113,-0.02836007899772065,-0.1851681883635025,-0.09090340365364845,0.09027110867794505,0.03686794888316464,0.07557619070555775,-0.05697164386073216,-0.2016523453457112,0.024938721809323522,0.08824785215419288,0.41063825891019806,0.3341663578016038,-0.020297254641657863,0.1708926636411702,-0.25612986389808506,-0.21294372990929272,-0.07083030271862321,-0.14612001820486448,-0.11886161700858769,-0.12558137128203004,0.0594023075683519,-0.0199640961485,0.0153140578984,-0.0378223613029,-0.0154925451069,-0.0020735081496,-0.159369304147,-0.039248706632967575,-0.17938475538433302,-0.23995824326447057,-0.08426126363529372,-0.09879333039624129,-0.397538961377831,-0.24148857209942118,-0.20232689558146771,-0.3943071781431588,-0.24578399433629902,0.07981118444691934,0.001736596242873395,-0.017188682980939764,-0.14112334369195012,-0.29152973455427206,-0.40406506427334943,-0.3110945379983941,-0.33758636295343286,-0.4058052932117524,-0.32312115847733014,-0.2219230360656605,-0.0631898400327,0.0334661267397,0.1090974648,0.0353048881082,-0.0290535097263,0.0253530520505,-0.0197490771447,-0.055779791104133704,-0.1882984356964074,-0.3200238377153528,-0.1801844796651111,-0.30149601419478433,-0.3246678322955699,-0.4481090807574682,-0.40795019243455255,-0.4710981168844568,-0.3422528213605439,-0.013060675975294216,-0.29579730346071226,-0.2660314417544841,-0.38279013203202156,-0.3423432529606103,-0.270378874627325,-0.34157883002739475,-0.4649723955547829,-0.3869985356786879,-0.2159423243276949,-0.16830086905668604,0.014014737429,-0.0224929395044,0.0130201694963,-0.0307059804391,-0.0631500381135,-0.0315778711996,-0.150895262154,-0.10811022189193964,-0.21567236690068833,-0.2977985743316886,-0.3961738112230031,-0.3185028254675184,-0.307246057762855,-0.25194614317385355,-0.2801944363399187,-0.23505536152931997,-0.17888615247785658,-0.19539173922185493,-0.4701108860819245,-0.25729929486131065,-0.36618273959286585,-0.47794678990982836,-0.4137135479199805,-0.5061972334481434,-0.4328125230345266,-0.30103903494363504,-0.1708569056303075,-0.04560828764214247,-0.0602187999823,-0.106870645715,-0.0570702524582,0.0560432068051,0.040430557663,-0.00216048049051,-0.085735101201,-0.10316074120795102,-0.33040382045088723,-0.44600215778819124,-0.3980488795897929,-0.27395580687849647,0.14411104304968836,-0.20114207362052106,-0.19143542962156773,-0.13781945309543014,-0.17644529727857358,-0.5858567718245262,-0.5007187566114887,-0.4149837003497484,-0.4006113646147884,-0.3751783160249168,-0.2870192016640727,-0.3658666189820531,-0.286651790948136,-0.19701942907192926,-0.10939031520870303,0.013798649068788691,-0.0025435995844,-0.0890773911602,-0.00583272170375,-0.0602191896571,0.0295683107616,-0.00111697678046,0.0281118495244,-0.113572548690056,-0.39737768548592595,-0.19751183539583664,-0.15549673990298035,-0.07048207957573786,-0.12291261666312539,0.05944741665272143,-0.04840386182781132,-0.0856444514941115,-0.09539958123420864,-0.01842345614690462,-0.11559757479115719,-0.25387096938186704,-0.16309175915990623,-0.38776863875161105,-0.2855871206766664,-0.2717418426355623,-0.27010072460013484,-0.12208632497225647,-0.08844354326725945,-0.010710618730115019,0.009555298031113045,-0.04483854232884838,-0.0117569633357,-0.0558265646289,-0.00680767066281,0.0708270313038,-0.0204903070409,-0.27600315918185414,-0.2912773108979892,-0.02213392850867532,0.012893283679551365,0.07303157238773615,0.026343169604998336,0.010901049361887976,-0.15713432609041766,0.06950465195279779,0.0683864362310422,-0.05249132710960739,-0.07613168190057033,-0.0723651959356544,8.605486185162982E-4,-0.19135801528169397,-0.19093177037532824,-0.09950812809551035,-0.11119607579206638,-0.12854861750898577,0.06935522429045039,-0.009149442354054871,-0.062249855512418475,-0.0868602459311837,-0.0105800496333,0.031959699307,0.0619589964388,0.0589883827044,0.0486552032693,-0.00717803638609,-0.14799151086181245,0.02633657482134213,0.17659912593427876,-0.02650858970250316,-0.2133352472625226,-0.19912459773549476,-0.24847699467214096,-0.2304912243745213,-0.27594763980129783,-0.2257695548074689,-0.1504185378437496,0.05949616774267833,0.04700271456233903,0.030762350356093236,0.002088485491782485,-0.054987308105161226,-0.051215001013908946,0.039892782643475296,0.005537779719661437,-0.002826538720727031,-0.00267160580741324,0.017554980299229354,0.0173299321304,0.0296265835702,-0.105181822238,2.35496884579E-4,-0.0718166469981,0.0669861374986,0.104146254636,0.102685970318,0.00361362571505,0.003110887292073987,-0.09833053307031375,-0.25144888315960523,-0.07099444457960634,-0.14012349958156348,-0.13608449889988675,0.06239207849578695,-0.09735252743812758,-0.07098584144504558,-0.13405044151201706,0.0457478283333953,-0.013165998535100606,0.16427909443016148,0.16988220856450095,0.04406504328057842,0.10921017258644038,0.09253358224402988,0.056881722745794026,0.013723519156958155,0.00861186306218,0.0397679248255,0.0613774107346,0.00884835061336,0.00362855708202,0.0652213240285,0.0340888399575,0.107869264983,-0.0540065853341,0.0905113163423,0.155069436252,0.10483571026940512,-0.0340593931455295,-0.038980237677463433,0.032619841959906845,0.17805524009569149,0.057949267495439626,0.08044018023798012,0.12527145204665946,0.15889218992104984,0.07997474519855598,0.055789656235,0.0275835140996,-0.04030095098264838,0.03546453195185162,-0.01697028901014837,-0.0984281293624,0.122017466725,0.0321542292289,0.0114394190337,0.0937775407644,0.0230225369517,0.0684117952465,-0.0367484522586,0.042698952553,0.00419843964624,-0.0309331562034,-0.0644400547604,0.0636471386488,0.0370831389715,0.0651379894146,-0.0244150606789,-0.0243127528598,0.0465939923459,0.0312107047052,0.0735764838502,-0.00854671227201,0.0699208190795,0.0771219346384,0.0537589435677,0.037191340745,0.0220363975674,0.00615268255372,-0.0972240559333,0.0871813785894,0.0325028336061,-0.019979785954],[-0.0225905399542,0.0500601548389,0.0350004542739,0.0929303005874,0.0480019033925,0.0210239952407,0.00776379809935,-0.0207477433926,0.00953488031037,-0.012421198004,0.0563837437482,-0.0026311956105,0.0534092196005,0.0169103813889,-0.056989761404,0.0405368041403,0.0247026841635,0.0144116511038,-0.0882395538626,-0.0510447999215,-8.41690590095E-4,0.00934025403877,0.0828023590494,-0.101043876256,0.0428162789862,0.0366570841731,0.0194285894996,0.0564068168618,-0.0735767619624,-0.0371855047409,-0.0330138071598,-6.60544905963E-4,0.00723121208987,0.0496642854459,0.0217096482244,0.00742457602842,0.0277656480182,0.0845637280644,0.0430146531161,-0.0683210236527,-0.0187215541491,-0.00393335307099,-0.0754325026391,-0.0369248869928,-0.0828349750162,0.0325734811535,-0.00870783470928,-0.00971217263355,-0.0645135000536,0.0197006113477,0.0524205582785,0.0113920213475,-0.0644323806446,-0.00877866130299,0.0362361137447,0.026838607655,0.0201475336206,-0.00634550831687,9.69915435242E-5,-0.0299885783088,-0.0363949171722,0.0355432356254,0.0375328659976,-0.0106485550507,0.0156788452598,0.0175578906779,0.017023678073878317,0.03699849256794887,0.10778843837518447,0.2269647750717139,0.08492409643670093,-0.061301630682198106,-0.08364148888900785,-0.0057079292505582266,-0.07551094055334852,-0.11341539484619047,-0.0347264763796,-0.00849826230517,-0.130644191931,0.026407611601,-8.97050606222E-4,0.0377298463936,-0.0113157532209,-0.0398572830923,-0.0345396057584,-0.0784039807234,0.0187431079638,0.041889707962,-0.00678944157534,-0.03357842943856979,0.03101501821459709,-0.012586490002891502,-0.03491505948302876,0.13847241476636793,0.10102211826141708,0.23787044406919236,0.2526254599772206,0.2187705454238471,-0.010079330647848519,0.024467952539051284,0.06588754178019986,0.09832624547086857,-0.03742256332513384,-0.1983444134413265,-0.17144282050244938,-0.15787638666680356,-0.2212005926420052,-0.12174541705049173,-0.0815929459846,0.0943566713977,0.00337034365022,-0.111143870963,0.116386084857,-0.0103094517977,0.15545090575,-0.101212792669,0.105655445432,-0.1363914170314088,0.013166750838296047,0.012718879913600777,0.011060657214370417,0.08311484543176358,0.18873418312614093,0.2490450338913836,0.2972897491512271,0.05861032786896403,0.11500517632835752,0.10020989143169053,0.0924450095661004,0.22880473738879697,0.16761022137365178,0.06967728100418495,-0.2582191021767913,-0.24536023406692403,-0.22875477526800492,-0.09473977505947045,0.035819917769704786,-0.0751915558984,0.0516766049744,-0.0407334359206,-0.0164524814232,-0.0494191222217,0.0133160545278,-0.030804916976,-0.041387343832625774,-0.15046647570142882,-0.1066618371244972,-0.08544339828254571,0.05941680374048152,0.18841643350035228,0.19492062252227507,0.383641252372467,0.2264116829314092,0.06886989268559206,0.1466873393440094,0.018644119311841647,0.09976723680962929,-0.1694650970624849,-0.01724507118928037,-0.15111970849113834,0.06187016444562915,0.02794255278120512,-0.007434654939014427,-0.09759027201936342,-0.11853837125862747,-0.11508963339677353,0.007346527733,0.0260748175238,0.0164260360697,-0.104533734208,-0.0242240231765,-0.0817017866631,-0.08448813089753297,-0.2622592175019264,-0.2730403480544615,-0.22344540339140972,0.035390032675111927,-0.16755557084688258,-0.08641260239942232,0.19966692054262508,0.22418791359158324,0.07897765678633553,0.07837738185105486,-0.2606615569532039,-0.197918296619289,-0.09964705332893073,-0.017322975726299233,-0.005250393049624618,-0.19147358996674735,-0.061464751019692634,-0.04101760259699362,-0.04262475204607725,-0.1496344890457859,0.09133766380513574,0.0152139405386,0.0424109400295,0.0233095419037,0.0218620870395,-0.071042285007,-0.0902972502385,-0.2145158529340833,-0.26192296584412006,-0.21796741569261943,-0.14083023239345163,0.10870502005942874,-0.007191392805534112,0.09606157749612299,0.20907319759825596,0.23010100262963532,-0.11760349603563278,-0.18312123860381985,-0.1945576789537598,-0.03991099853874528,-0.11596294030689418,-0.21006778405170295,-0.17557351679436903,-0.14731384032499317,-0.007707351040912425,0.002796528253841969,-0.14705190656749226,-0.14374831293962956,-0.03957184177469598,0.00592045759107,0.0144791901892,0.0722269304568,-0.0121313352755,-0.0750157700823,-0.117767935453,-0.19125454934947628,-0.36677322970896437,-0.161239016349003,-0.09546867638138797,-0.039043133235032126,-0.05932759084773945,0.33986175792058965,0.3634051867827788,-0.2266951571958925,-0.2328125998746562,-0.2395404166452473,-0.05866924229386069,0.07603350811437196,0.1809130784584838,-0.04607323165448769,-0.060648264084145635,0.07540513216469474,0.016703844699741854,0.018185667074874387,0.17268955864655974,0.06459032205054217,0.03258111242690402,0.0240600196322,0.0298380422525,0.0110006981584,0.0165885592711,-0.0383353703843,-0.0950475174268,-0.05268259922941239,-0.17965210448030025,-0.10189342312853451,0.05704673697114283,0.09507836210197718,0.2965491275623506,0.6328589688440336,0.1985058970509519,-0.38601376644408036,-0.6970464851513184,-0.3702950408280461,0.01981155721420217,0.02441808983380944,0.08835613508918225,0.10578387026024812,0.08722192822078258,0.12554011158291972,0.02726587550813387,0.047207868080256066,-0.00502581606284268,0.17613338560942698,0.10467307769330403,-0.0744608903335,0.0474718344481,0.0167980266329,-0.0267286970906,-0.0280976038636,-0.0322461240185,0.039239213320665316,0.04570925144214653,0.108319880149514,0.17622672104867346,0.11172660232592756,0.423498948939632,0.5919380421689713,-0.13200548274790752,-0.495145099611679,-0.5368990901212032,-0.36367369617297407,-0.2421547396853725,-0.0778118051386962,-0.03742293464194875,0.006129954403744427,-0.025237603066083147,0.015747445736545667,0.11823592539473414,-0.03360093860666957,0.08386446644947786,0.13709520201064918,0.08460401033712192,-0.0288384970942,-0.0168848545057,-0.00768536616422,-0.0671645992113,-0.0618355577262,0.00597838677407,-0.11088306869326361,0.059670556556628784,-0.013126313449957808,0.22098384855593223,0.24768195563592987,0.7158500577144423,0.5596616301309818,0.06121757398760156,-0.27181516289097346,-0.3905354327529284,-0.3083166443593571,-0.3827007468589162,-0.21710889308062398,-0.05153424107216829,-0.16247257273978113,0.020196553031222534,0.10215376507291678,0.12094453440589958,0.1282677795799605,0.06152974853514168,0.15024543260632317,0.203174029394988,0.0551564736089,-0.0401375342758,0.0429163477795,0.00940542540559,-0.0319131494879,-0.0230355374618,0.10507161795985615,0.10066766895744081,0.10704678640253298,0.1599770974512686,0.3465398150922542,0.7445531940026845,0.40942321474521054,-0.1419586962848391,-0.25219448356847424,-0.11048150519822648,-0.3914508937110714,-0.3011093626850926,-0.3426286589029551,-0.0671005197579048,-0.13862607912561226,0.10413746978114034,0.07864715373117598,0.08204545240208783,0.10800572038264097,-0.026338583625769303,0.041895886945047256,0.0984927429627119,0.10053133189,0.0808785150882,-0.106556291644,-0.147828050537,-0.0653666350848,0.0618359341255,-0.0197191449831,0.15428874894290753,0.1567427700783602,0.2405446067939457,0.3085423828214002,0.4137094032768604,0.1235658702680251,-0.08578257183609525,-0.014713957227931184,0.19492734831734734,-0.14175119947609297,-0.09394795357251622,-0.12522489386189775,-0.22193429437494047,-0.15569787270807015,0.06934109761281504,0.13518868601464384,0.07534221999647123,0.16492365108357318,0.07783614943967897,0.126969695912503,0.16639365637192016,0.103028936342,0.038850964395,-0.0568316551933,-0.115046122403,-0.0095955690388,0.0447260225849,0.0548861713263,-0.05849894994463643,0.062359530201332315,0.31230169431078214,0.27477764707116364,0.1585770310321233,0.13753173870088467,0.14493442665037382,0.021148416945125804,0.11863070679119883,-0.13058906931657618,-0.09224310538645837,0.2574036895435251,0.05597322248224605,0.05608221268938833,-0.10110867274423038,0.08484047533416239,0.08425804724195948,0.09274266155510726,0.09336598047537813,0.16742880317721337,0.24431200959307875,0.070020900047,0.0539232478665,0.101244290048,0.0111560674667,0.056317701795,0.0115085000832,0.06518974783086709,0.016145498781009265,0.04079620475522207,0.08443937448887731,0.1640589330559807,0.22953640580171797,0.3176521225240817,0.029631957069644357,0.12992843464022194,-0.05426102513038244,-0.12829120058891272,-0.4295736913752924,-0.006403357752564088,-0.08772690493581733,-0.1843063506916818,-0.08976319464322156,-0.16051782401171896,-0.15164571809344307,-0.1405388195159509,0.05291497005925045,0.19961569702394777,0.21219110984506903,0.0462562614551,0.00591549113389,-0.0384873648202,-0.0231439617612,-0.0481837887218,0.0627167383838,0.08056542834446341,-0.08237829464642481,0.12852822860082125,0.13980058134746043,0.16345214976063968,0.34805636680647595,0.11349320156977848,0.042457941186768766,0.008067093242410244,-0.08046828606423649,-0.1632775494899487,-0.3650920807309308,0.018527962324747124,0.1425500044913757,-0.06952250089550178,-0.1188643209327966,-0.09998400272763594,-0.09164544906827757,-0.06329741940862584,0.025688512958683095,-0.02077543038651549,0.35472594904506904,0.186169581936,0.0110120608416,-0.00618424785613,0.0566458414387,-0.0477069002485,0.0603520473633,0.1414970298620804,-0.18388085297069257,0.1460873558963311,0.020108607109097985,0.0979554869291851,0.23688264707526463,0.3141884315747384,0.13073683431712857,0.13939113599316152,0.07814330592608403,-0.1540024964857085,-0.2152152117560201,0.02553809684998433,-0.024102037726285847,-0.06996794202656809,-0.01047016497847494,0.1094697489147873,-0.3125061452685525,-0.09587961079838647,0.007271795097368032,0.06297195441376649,0.23641293727317797,-0.00215853292321,-0.00893156016017,0.0036426650026,-0.0157963681229,-0.031587364516,0.0426253868317,-0.07234397621609394,-0.05738680566733129,-0.03844967877257388,0.01965220215508063,0.032742706652605764,0.3746670084834842,0.42409362687859364,0.24253259766274132,0.21901547552444786,0.03534675912420105,-0.06471093272386823,-0.26810633441678305,-0.13702147964459352,-0.23313645927698248,-0.10594503089519797,0.08745240973579965,0.08142117528587531,-0.05554018546845776,0.002907570514881458,0.11907900906214375,0.29403309344840334,0.166691631898,0.0774164802209,-0.0316858063175,0.0419787020336,-0.0459341926353,-0.0106861364164,-0.0105512545745,-0.1625014963210081,-0.18949462313802207,-0.2235499363510493,-0.007463961920968915,0.08441877356308332,0.09810507285342474,0.13886231492455292,0.16267325521755524,0.21819100095618355,0.2577490965911309,-0.1447955927930833,-0.19263490025345623,-0.23949005688828684,-0.07719955435437902,0.09338601305464424,-0.021314003336986735,-0.049020001847185586,0.042028332864402496,0.1061305558039602,0.18273341729672568,0.01712221509717299,-0.00571501635862,-0.0811442513486,-0.0624239347117,-0.0309311893911,-0.0246387111267,0.0937809180475,0.177054190077,-0.13208806491891367,-0.05042867291644601,0.009283303781496523,-0.002269083324302324,-0.06439255791673082,-0.12154587323660006,-0.043422954619382496,0.07864918845509578,0.21784136584212505,0.10612205984133642,-0.1084031688713028,-0.10564807657073975,-0.02307708611153584,0.02639117328393626,0.06813106241788318,0.020864132899476202,0.03676558484876754,0.1861102294949949,0.22633685884793522,0.16167108428619903,-0.037701502020988084,0.0416853189174,-0.0247233369849,-0.0129608430533,-0.0134999790979,-0.010841507647,0.0725829485692,0.157905777225,0.026503191640617627,0.0408218247616621,0.005111323659117469,0.016891395179547773,-0.08518888096350087,-0.09951230929081886,-0.17876657663755913,-0.14268415569552212,0.18872111838060993,0.3284631380572316,0.11463334028936838,0.15158453916235126,-0.1632940412564349,-0.16560140473994572,0.06727478868058219,0.11507430531333185,0.04469260917909823,0.043351513413876705,0.20031565656900793,0.3732931713692989,-0.02466846234800639,0.0551686812687,-0.0106134228777,0.0243877860822,-0.0397299797258,0.0788494756404,-0.0155551282097,0.0983193378167,0.16204063827719567,0.03238852795361209,-0.07417100875782959,-0.1332553864639877,-0.06223775101761069,-0.14747522499854013,0.04520469183480869,0.060386581166804516,-0.009301152671918576,-0.057718635754105276,0.010865909896038561,-0.021427098745667558,-0.19058601690408639,-0.08263511598887804,0.10791621352007252,-0.009044252735010746,0.07759357697641281,0.24159210030893968,0.11560131394609624,0.17065402411613528,0.004261723709490607,0.08074710824522423,-0.05139235325728447,0.0524166102782,-0.045327062157,-0.0811382201665,0.0216869298917,-0.0277877037912,0.07232167074603249,-5.146599596232488E-4,-0.2260149841944898,-0.3059559099813057,-0.21058908327257503,-0.05836539420207694,-0.054118392009665936,-0.20890420451176772,-0.1075711042779555,-0.2089592828263881,0.011718456847878478,0.16600372834239754,0.14865945381261064,0.21720823714700055,0.07662081778071149,-0.03953660914021507,0.048764242570302374,0.2542798485902008,0.13660417926776944,0.18464566888602765,-0.03825601929261807,0.002140729424626365,-0.02000251606454473,-0.0212303668402,-0.0604710033197,0.0116839737304,-0.0360783856253,-0.0651775634698,-0.058998054339,-0.05270087389802095,-0.33856681007571987,-0.46926688958210233,-0.2350692428080896,-0.07381398446438091,-0.03692531662138154,0.07155743455670112,-0.03428602265053947,-0.1812255180021648,-3.303615613551594E-6,0.13224645513270603,0.37566713446262867,0.29980668473738514,0.28169154517094175,0.2093380213811575,0.01683681660932717,0.025545851898475688,0.17106970119262113,0.02155206880876038,-0.030784800055986425,0.015638219084297456,-0.025180944838620507,0.0354433757463,0.142722304295,-0.0415515816693,0.00252594135852,-0.0488489758327,-0.0285200318184,-0.172583223569,-0.0453732363539,-0.0905361951683,-0.14830068615838157,-0.11016317099380217,-0.2127787609931182,-0.2820546358155839,-0.23754357368567386,-0.12294779708528598,0.06292696503194287,0.2692920223171784,0.2124911496264767,0.28705733694536884,0.10851497650901519,-0.01027271119871811,0.04120720042729161,-0.02313885763846629,0.032146612859073435,0.013541304679593502,7.572898335218382E-4,-0.055325042372180756,-0.06343209293892237,0.0695823387124,-0.0166826557025,-0.0268030693339,-0.079025935512,0.0121157157784,-0.0398027646808,0.0308113185305,-0.0631312312538,0.00310228097425,-0.0112114173021,-0.0390254402932,0.05392240036014286,0.008036724577027097,-0.03798471536337546,0.05297017995949363,0.20064913179228389,-0.08291349859683565,-0.036945041216220845,-0.023163243146941404,-0.10640561219089485,-0.1305371747757008,0.137991063387,0.0753391301249,0.012881743084315528,0.06355132631441551,-0.012533579235484472,0.0391573198621,-0.0747744498729,0.0281883216555,0.0999682079792,-0.0642045286759,-0.0106298883947,-0.0462063336468,0.0908199151603,-0.0888785021238,0.0732392753019,0.00699297711904,0.0220014948465,-0.0724692361417,-0.0841303029555,0.0305608846858,0.0866959588699,-0.0939919760231,-0.0409288050856,0.0708110043704,-0.0184362366296,0.00351163403307,0.056509497648,-0.00444529586924,-0.00311136668144,-0.0211634441039,-0.0150065335157,0.0368160303367,-0.0346475771349,0.0106812330295,-0.0499555048231,0.0709129348316],[-0.0303890166063,-0.0294097227992,0.0408089421566,-0.0344153037828,0.00452333801383,-0.00199040382167,-0.0780219261504,0.0481583474773,-0.0138916172491,0.0542815202703,0.0255949847849,0.0492373594495,0.0187933974958,0.0372093221106,-0.0147515109307,-0.0169679519918,0.0132834897267,-0.0382878078313,-0.0755466210817,-0.0220310220462,-0.0938025148722,-0.0696008342861,0.0352173763634,0.0017015772135,-0.0266775171063,-0.0402420541208,-0.0830236924469,-0.0283395669387,-0.0637329207387,-0.079077655794,-0.00299855483543,9.79824022995E-4,-0.0505639808773,0.0373944428751,-0.0544646433683,-0.0699279258801,0.00572711845235,-0.0561550088683,0.0383350870527,0.0387441056749,-0.0136912246209,0.0829121831833,-0.0012010562372,-0.0248258033549,-0.0224586724483,-0.0272669421607,-0.0244051197336,-0.00369287997283,0.0661315850272,0.0422754946575,0.00923409976845,0.0220809442167,-0.0261053737088,-0.0292886291816,-0.00422327267056,-0.0546536185822,0.041659081122,-0.0194454528325,-0.0550031520216,-0.0382113611546,-0.00527291749566,-0.0586885550361,0.0285603617911,-0.106937654152,-0.0891711374519,-0.0856450767336,-0.0186856457873612,-0.03639152574343995,-0.06856647425723511,-0.043074606754656374,-0.010455649165683173,0.03206600501473366,0.0027968177740207737,0.08201818594560988,0.06993310601830058,0.15413392012082283,-0.0188564923818,-0.0613853083868,-0.0166107231815,0.049277105691,-0.0245075183162,0.0241322770257,0.0308072740345,0.0654837682115,0.00738387346257,-0.0191590944524,0.0440268578603,-0.00481441558758,-0.0504069888907,-0.028633543676096135,0.047104855816603675,0.02969279686951145,0.01788951077231162,-0.09922180324467253,-0.0676273738317657,-0.016546781365748605,-0.04982604895776205,-0.06253454204798134,-0.13449498798179743,-0.08700445345119552,0.042103966378660915,0.1091317321051993,0.1977986323890002,0.0239314924752585,0.01631650936584685,0.014433013512219591,0.052709678133580413,0.0037005856705137085,-0.0378645661059,-0.0347423535554,0.022600384432,-0.0666075735351,-0.0274241912207,-0.0132426961814,-0.0194576955308,0.0628699739629,0.0487411059116,0.09755112206714811,0.13216590164339803,0.010067692377865976,0.09259163727762736,0.08262784041409688,0.1864047268600241,0.06174604299906652,0.20546394540350982,0.35135105168369163,0.09329820205718166,0.09725587003704596,0.23315640679689786,0.21529492808437994,0.1603801359485739,0.15188242621988263,0.11115427111206044,-0.07128561047742556,-0.07962121208736511,-0.017749957607280577,-0.03624060716146282,-0.0599860417802,0.117577928392,0.0131901819151,0.053002675499,-0.0108590690739,0.0495112728982,0.0551644893064,0.021782054805504242,0.06872791319041797,0.22630251227681167,0.043973764202361314,0.025123133748192264,0.13674865778776238,0.08573149643250241,0.299208144078908,0.1928025393292787,0.2996994512507972,0.20700680279263092,0.2367775427477577,0.15168790438616622,0.20041967696484397,0.19657100338016648,0.23838940608226594,0.026097710419951695,0.011973876006661593,0.06861259144768063,-0.12593614194706823,-0.030173144733368885,0.04916139583534858,0.0220002844608,-0.0321411729453,-0.109039151218,0.123693024141,0.00393764191238,8.59701605795E-4,0.016525486682909554,0.0615128905703675,0.08916654469615742,-0.02617984791752098,0.0426952475759009,0.03359148733871058,0.113223415200119,0.12042846198132041,-0.03743882881213043,0.09980327221915022,0.04035658883251329,0.02128101019627352,-0.064168752443063,0.15311070063219026,-0.11132003490688709,0.031193939616713736,0.04753562713764751,-0.12283396387950388,-0.15984761137931822,0.057065539871790937,-0.09993177031346245,0.09766846338949949,-0.0645224001777,-0.0642013114035,-0.00272397266796,0.00967600268738,-0.0408543396284,0.130595835894,0.10219438137302174,0.04736122398406668,-0.07287279607839107,-0.07632292654167787,-0.03239351023839807,-0.10396224442288766,-0.06532504211909194,-0.1119258679908619,0.009551177806037927,-0.11230865281693411,0.13253934584505547,0.16364770840272658,0.11409618382192856,0.07137049287174312,0.006593211134311671,0.006169074867160351,0.13664894826338647,0.017167216788643913,-0.09275222456841076,-0.04163896301088028,-0.13437662291628732,0.07890503091781971,-0.0079517906593,-0.038495872016,-0.0851500759224,-0.0860397385594,-0.0523288172865,0.00425032665652,0.09562528906213713,-0.03285342898227428,0.06532566771880137,0.05722469683969946,-0.061965142573377104,-0.014562012279992917,0.14012226549685938,0.06680330146353755,-0.08021177000752688,-0.054701137270546187,0.0115682364333539,-0.05238772063376266,-0.015730155438875692,0.058266051549471724,0.1979344277638676,0.11048091361817812,0.21803019019011693,0.10815131272649285,0.045118864714643575,-0.05841318142180105,-0.004208756632171568,2.8950694018470914E-4,0.00991658184903,-0.0333046646832,-0.00476594122407,0.00787098673494,0.00240990884473,0.00152195500291,0.06695396303060967,-0.05741782643748171,0.11675299720524561,0.001847543929467559,0.002272013996075962,-9.440138932874977E-4,-0.026343990901230616,0.17092072897534438,-0.10056081643680026,0.08201927923575934,0.013405843904799758,0.09561516318568246,0.1960981778397459,0.24036889779549253,0.03149939193139506,0.1844037325158314,0.2596618693295885,0.1684735617467808,0.07137576696717358,0.013371184209968294,-0.060837864878618676,0.006381503966839708,-0.10917341922,-0.112908426872,-0.0135232189667,0.0359642322279,0.0602220482093,0.0719069025568,0.06703740435886,0.00886330398357973,-0.07619480952996263,-0.03821207832955308,0.07304039104198157,0.019239101224309517,-0.11812211660486441,0.05677097354940561,-0.04557821045764387,-0.1500953189916015,0.1898768892517582,0.15242919368099903,0.1393041224683757,0.2092842318920461,0.09563102328304646,0.20329910286171135,0.029491618736335715,0.12724862867356274,0.09627846892254215,-0.012347636385911197,-0.18047523954509437,-0.15763663344766754,0.0169169521656,0.109799878335,-0.0888047804339,-0.0612219000944,-0.0759356994254,0.0477147035965,-0.0331009276731845,-0.10525335372090915,-0.06946497471358515,0.026499143625288477,-0.12335730333025653,-0.10602241272934404,-0.03908536218966683,-0.09189204563302422,-0.0025645639562547158,-0.021046928051937183,0.2074239181425378,0.17581794148048646,0.254236835864818,0.31018072554589954,0.2738030983685634,0.22636036287040756,0.23576877204161803,0.07983653626914945,-0.06740395795391928,-0.10868050577041867,-0.1419743903920831,-0.009556995010052444,-0.0550970990716,-0.039774768762,-0.0142179824551,0.051031788893,-0.125182185448,-0.0827856216477,-0.12748944343319776,-0.09766113090856492,-0.060906960714742144,0.04741066015857958,-0.1759692332322296,-0.10018267458193583,0.03427325850990003,0.20050798541991832,0.09710061970908011,0.263250011440224,0.29254498908168924,0.27613872835271075,0.20882028491703794,0.3338407576483414,0.34304760935613104,0.27504011565886777,0.050978722087209674,-0.11455050485534535,-0.2313294250400859,-0.08903785601534178,-0.09090540835184292,-0.0437191955564335,-0.0791434838538,0.0190476629825,-0.0947215425365,0.0830036765655,-0.0185448909336,-0.012752572313,-0.159023698087,-0.31279271837321976,-0.2277691827826643,-0.0024487543861087414,-0.02195638004025935,0.22345078862214418,-0.08923733712416007,0.18634300488631214,0.32877524743547126,0.2724680257164993,0.45745387596266723,0.5337423599452153,0.3127979650678339,0.3350418701374974,0.23317868821015944,0.051861953887176515,-0.10414432165143676,-0.3898301685237938,-0.314533761875563,-0.28592582424612506,-0.07848948468446675,-0.10723125328294217,-0.00284897848507,0.135140209916,-0.110333697706,0.026498096518,0.00528433911732,-0.00612553676853,-0.0640233662131,-0.30154475506943396,-0.3988701247793426,-0.37600658934801034,-0.09016041183862915,-0.2096350983656944,-0.197165320182778,0.07033342243937017,-0.10141514283675121,0.3571377949243297,0.5158303396421877,0.41613687765285173,0.11542899763427765,0.24917717850681526,-0.11256582377577107,-0.5792118555493284,-0.3910332366374954,-0.35440546832904607,-0.2881722592326988,-0.1544048944064602,-0.07603791136551116,-0.03654966232004335,-0.00978361227498,0.00490672741475,0.00321174097931,0.0405941433177,-0.00270047286403,0.0120129319827,-0.0430974997606278,-0.18715619722165472,-0.42567787197466983,-0.5504401889001358,-0.32979645978619404,-0.32755003452800424,-0.2449029423210815,0.06493085482199641,0.026657790486914225,0.5938034898454742,0.536399869465697,0.12437689169236563,0.09939223973577929,-0.27229961048907875,-0.3484130305298954,-0.4655782627251669,-0.4447160285099531,-0.26902902510935317,-0.17687852363256365,-0.1459729334074329,-0.07042791661553023,0.004496011146905266,-0.0887733730363,-0.0176832689673,-0.108184936453,-0.0147804517205,-0.0574596592986,-0.0637839463726,-0.05383389191687113,-0.16985757770435495,-0.23578278846629178,-0.31553057719302685,-0.4187577419256631,-0.35827562901774535,-0.22082953839582944,-0.08147439705587402,0.004993666291851543,0.22829914035659019,0.234770405748952,-0.07625742037245577,-0.23798885942425116,-0.41715175725202996,-0.31325648249976273,-0.4627709606302425,-0.39332112109791434,-0.2011812618063675,-0.13868387761936513,-0.1198358839131623,-0.0678395629585704,-0.023984932318064735,-0.0170923093008,-0.0153036772835,0.027742156333,-0.0495177597177,-0.0115606416117,-0.0505201461187,-0.027646594427615703,-0.12459660762299571,-0.11727404585379174,-0.09334265912506408,-0.30119618982945323,-0.2780699342900238,-0.4112887387428981,-0.356543928225172,-0.07051295050786688,-0.11616744880159124,-0.1143854861201729,-0.36618106527794214,-0.33512521740997303,-0.29419850000091424,-0.362683808367275,-0.2830291233633058,-0.26146359184259094,-0.12889748221385736,-0.1256760499840772,-0.10025393626782779,0.04136996806429578,-0.04134829538145837,0.0251745211014,-0.0748727980556,0.02551884326,-0.00926954504648,0.0069699070186,0.0196064766641,-0.10328122777954923,-0.010897800250113332,-0.082627720573466,-0.15448678511714092,-0.06419691280664318,-0.11554126262504273,-0.19866987025447452,-0.2772687599448011,-0.46659747809478674,-0.24103823394187368,-0.26802951394355456,-0.3806187983980684,-0.4404155193189762,-0.29561874460181864,-0.3614184508287643,-0.1769407283531238,-0.21203168604002154,-0.26668903265860616,-0.22532366112596097,0.02145744870685695,0.0725049017222557,0.115686242677,-0.0463635740032,-0.0413436870852,-0.0236539121681,-0.0319772518319,-0.0574794422609,-0.0609837751131,-0.06314155476503325,-0.11759654250532399,-0.006682920138781246,-0.0059437792160875365,0.03658123427507991,0.02939370890682232,-0.10482701943142116,-0.5186806534683052,-0.5671623531225651,-0.23241441869483107,-0.29771370581664547,-0.09557724280783565,0.025478951672779464,-0.04204680430977537,-0.038330731106390355,-0.09100887622486867,-0.13358880012441424,-0.11521226344908053,-0.11786524616725391,0.14711329422349198,0.14958864049159012,-0.0188298254421,-0.0469256055965,-0.0198480996466,0.00183802612784,0.0296810101051,0.0236293619945,-0.0243104568179,0.041830012073682116,-0.026074072210801626,0.07324868163506133,0.07376842740323293,-0.08061414246570404,-0.12070964080047498,-0.01913222640075825,-0.15711386821128878,-0.047588374054900046,-0.1418796580030917,-0.02322904046155763,0.05030013701803518,0.0021730828526484807,0.07756411083778295,0.17600824545465926,0.06845841573816712,0.2544336651048523,0.045372592955550954,0.12025849278520541,0.04999318216112252,0.07875312500764615,-0.0418173469217,-0.0414553160392,0.0624640550679,-0.0341952341139,0.0416974896566,0.0191055557048,0.02725902631,-0.011269221158337336,0.14139958091038118,0.18633981073021935,0.019606720708600804,-0.019619386747294,-0.008697168046455097,0.03953751388378716,-0.09327726258073508,-0.08994238384962609,0.040617178837814204,0.09468814452266885,0.06648107995961622,0.011006190005034978,0.1973672167913649,0.2114591363823032,0.06311674950935471,0.15163450887950072,0.008266318988102817,-0.03436102158077302,-0.004426941797926742,0.008143685071731018,0.0493918145331,-0.0100590453688,-0.0297950245097,0.0727230899254,1.28879526757E-4,0.0147473987425,0.0365498210064,0.009940028331766226,0.020447863465656645,0.08623425953039145,-0.02366700728863382,-0.023017449082205394,-0.04470777247773613,0.022936525571537743,0.010063979266422642,-0.2302218938940619,0.0455398293856026,0.12960404434790462,0.07293805097880014,-0.08202927314663468,0.12340762349495946,0.1846353661134065,0.16719749466541206,0.11288165415164622,0.0837787078739519,-0.026799196135260713,-0.010870534108319996,0.09767796922916595,-0.029838757140564224,0.08732148824260447,-0.0503148122192,0.0183986927027,0.0374164225974,0.0548725807314,0.0207481074244,0.06883792185252938,0.08633083612184704,-0.01222495061840016,-0.04840486150258202,-0.13098062294085283,-0.04755234292078846,-0.08805409185301814,-0.057537638173274,0.10193677819102664,0.06791544536880144,-0.0212472428490009,0.15335935379716406,0.17621480500672432,0.19668497375696908,0.20603509937088815,0.20068343073517106,0.1682130516069309,-0.03531562598490153,-0.02603993860710511,-0.012469887778745524,0.007269975067767989,0.023503443416923592,-0.003402544424925282,-0.0288945240048,-0.00134562818611,0.0759571487925,0.0162178458291,-0.0140002025962,0.0533812044364,0.009763880782973983,-0.02965330654163768,0.03908891566607553,0.0485394341646532,0.07456740367211927,-0.08277193597423287,0.0031906786966136385,-0.05086889803461715,0.022630710631829382,0.070206447440961,0.03455987205848958,0.11895127567972348,-0.023878369788748514,0.13292368629663814,0.08543472032425152,-0.06269625239667717,-0.07116715086795333,-0.03231994456295707,-0.008072848399435947,-0.0557231369339337,-0.05331285782229755,-0.020165131608819505,0.0397513217286,-0.0136195661684,0.0105584735051,0.0179918121331,2.04057933854E-4,-0.0846083167129,-0.0809906448626,0.0504890166051,0.112600555118,0.04897789423775885,0.13702222765764363,-0.010241422549096213,-0.20824114372916633,-0.0353893321894337,0.13488093084576425,0.29924058891433053,0.16813552525252207,0.10611692298587502,0.18767453679474,0.12714205578704368,-0.003255526973660465,3.834482821271918E-4,0.06524960993976862,0.04015594596524435,-0.034871769963718866,-0.0371562344327809,0.08351241005132075,-0.05194779082557765,0.0108944290062,-0.0546489975455,-0.0502859274708,0.0246381379205,0.0310037298475,0.0386953937509,0.0392064383056,-0.0284428531743,0.0312003332415,-0.00571240512413,0.113030689373,0.036629328179918715,0.0020920586119343066,-0.18978899759493,-0.08556023403431194,0.05730853964770924,0.10627628515328767,-0.12296907121905017,0.09453997673065212,0.02855891289494035,0.06405141950569354,-0.0270800830344,0.012870512746,-0.05361727144029552,-0.05761920639189552,-0.01622304047559553,0.0512921974655,0.0232277208488,0.00460006923042,-0.0384623243729,-0.0294917887809,0.0350164531905,-0.0239634546237,0.0118917122782,-0.0412176359137,0.0465064568394,0.0925494508393,-0.0744386682528,0.123967382872,-0.0497346099654,0.00581947647538,0.00814226917438,-0.105742121382,0.0548803019072,0.0537286301479,1.48347404953E-4,0.0355804344367,0.0317991093654,-0.0282777573489,0.0703134789708,-0.0101421709239,-0.0955043116096,0.0577562911923,0.00730552465377,0.0409099986298,-0.0857370571919,-8.21074408169E-4],[0.0556648524491,0.0886704806824,-0.00828561915712,-0.00196087825205,0.00764281569775,0.0288137127084,0.0662001351301,0.0138467158109,0.103282990025,0.10511198911,-0.0941449243698,0.0335390537827,0.0193758805876,0.011700212303,0.0423490996004,0.0508690374261,0.0123013378913,0.0278104993335,-0.0238998680267,-0.0299834580477,-0.0803545965734,-0.0300614069965,0.00785795856622,-0.0263203157449,0.0168186725014,0.0622685056683,0.00195093039618,-0.0116606108801,0.00938647297097,0.0295575191103,-0.0311262843029,-0.00943637578789,0.087951287188,-0.0279910759235,-0.0361443841106,0.0762829467627,-0.0592698946273,0.104697650323,-0.0127337210278,-0.0256459280234,0.0843173426082,-0.0205502487593,0.0148305509462,-0.044525389728,-0.0605367413509,-0.00117169315731,-0.0168432488025,0.0257978551376,-0.0697920327911,0.0663330377774,0.0443999703633,-0.034868292907,-0.134083477773,-0.0807414144557,0.0259445042277,0.13249516721,-0.0377554258044,0.00395514187378,-0.0415570341559,0.0149165874787,0.0190104776524,-0.0343077824333,0.019874652657,-0.0142422039626,-0.0351560300102,-0.0526775894607,-0.009212963658941175,0.01251492022296476,-0.026063267799345775,-0.026973512243941712,-0.03268316099918233,0.013966867726635343,-0.04543857967348222,0.1395480565963846,-0.04315946336928576,-0.010361038872650889,0.0400448037787,0.0258874608322,-0.0141924233806,0.0322327090269,-0.0646714712134,0.01993298679,-0.0577189857387,-0.0461522773534,-0.0297535384955,0.0273645030089,0.0431575990861,0.0278282215901,0.0408535080131,-0.04512215308398502,0.04849038845642873,0.02241749163020133,0.06948864262443223,-0.028831917550878695,-0.07222297291529785,-0.08407089618138283,0.04949893388545975,0.010857845943908645,0.0763884663487468,-0.0031230442951194373,0.030649418387829423,0.0018968805992611104,0.11012239310738503,-0.008184271109295189,0.018524834064827436,0.02522810207911128,-0.07789426033514571,-0.10894141240983105,-0.0261283378819,0.00166150696781,-0.074480093917,-0.0755516307097,0.0882231148536,-0.0265104977034,0.0571208722598,-0.0302327774668,0.0172987078168,0.10920906001061538,-0.11016215222602599,-0.009968266305923854,-0.02286292380530095,-0.01714341789745191,0.06786558298260781,0.017614240321717305,-0.03875984291314563,-0.027718152395237228,0.07428252022886132,0.06266265031949271,0.04955885596655515,-0.02911997000233002,0.02034241710070802,-0.04073528265334331,0.05461908621846663,-0.042601997581445984,-0.05549147390674398,-0.059105534016137516,0.0408283808539604,0.069446484261,0.0176285735418,0.0299276914426,-0.0327765951866,0.00279035612302,0.00938125466355,0.0591126871801,-0.059182910179088166,0.009192729055534303,-0.14220649541076058,-0.1064664773571836,-0.009098036596560033,0.12842959726056707,0.09406561477880726,0.0646317949386656,0.023118849391233445,0.046757453888732585,0.05011054648824254,0.055205881652905915,-0.11300396136638727,-0.12076279059966957,-0.04315588248190288,-0.14054902984676945,-0.12523471124083843,-0.0615685010933474,0.1915544814556961,0.07750004539830624,-0.04199091920696471,0.05169071887839744,-0.010155865114,0.0661266246278,0.0666892576349,0.0513334720635,0.0605479449521,-0.00204963307001,3.26730545410633E-4,-0.021273159612701844,0.050642602095547856,-0.006830839211451231,0.034121725692020134,0.17433849019527886,0.11169182138895632,0.00695213408414888,0.2109399411121725,0.1484255142563133,0.0023315046194852655,0.05596362859798816,0.078871070929533,0.0742756494708313,0.03102423317793968,-0.1361450499841156,-0.22124557284959162,-0.013984871145429878,0.142019867977603,0.09283090736722323,0.13451564566189184,0.05655564933967797,-0.033296710945,0.0564617242191,-0.0414924128198,0.0108298840718,-0.00792129901373,0.0758482450597,-0.09261857008071187,-0.014279261787497324,-0.011731206551709892,0.03723919996184504,0.19025539342554565,0.06818586724209078,0.08875580942418601,-0.0652823571668194,0.09647479734985352,0.023243469289701144,0.08539494367836056,0.08185311078319189,0.1996063063105846,-0.07077133604437666,-0.14523431585144736,-0.06323061406329099,-0.08380185284134747,-0.06350996698651727,0.08040869859934048,0.02773573410628574,0.10634614017378283,0.0655589666817563,0.0177939545152,0.00680986680515,-0.0135403845825,0.0484363703142,0.0151106769224,-0.00756251892716,0.03484887048815304,-0.07715679205873155,0.025159307114321353,0.06271302961219606,0.03371607503281527,0.015915332866408997,0.05604164466485513,-0.10126526181699559,-0.010829585719085396,-0.09791982792653699,0.09929764566007161,0.016839601444253803,0.02469155069086966,0.01723184623844321,0.0661864034448894,-0.0694284239199621,-0.09298211020108035,-0.1865613825117654,0.058997929679449404,0.035541909378573766,0.0888831162059326,0.08890542735115631,0.00575204214856,0.0347349942506,0.0382169488484,-0.00174391151662,-0.0152154794029,0.00902280149405,-0.04135262287027337,-0.042737544452080584,-0.12150263507141093,-0.04522894347611533,-0.04369355051303835,-0.1170461424213032,0.0427643257064362,0.10808445316173741,0.02945326299545243,0.08756549106155255,-0.0010645182711557842,0.2400801014569103,0.3152570476488968,0.11112289757124018,0.07263084979225709,-0.15186531560084002,-0.23383872103409714,-0.11330011259720477,0.055604045228800386,0.014461283001589375,0.046090364085655346,0.1177663265871563,0.0405233625186,0.0615726788994,0.0645873570815,-0.043924071975,-0.0095680493284,-0.00785892126907,-0.02776196440709182,-0.0926176176860436,-0.19418164258757137,-0.17010031890395483,0.021989740553435912,0.061341907181914866,0.0688885940063784,-0.015765850356173585,0.012145214676337378,0.18345811782608362,0.1851739285998472,0.2241121832834892,0.13813905034282564,0.022370313715630807,0.031212415337104834,-0.009050704651219208,-0.11459771287446965,-0.14098038939371263,-0.08966777591284902,-0.020808788095231748,-0.062269098390573895,0.14958917999361415,0.0317452461064,-0.0894604203086,-0.0357982985539,0.0610862776885,0.00502435879906,0.0197100244536,0.006606356963558973,0.016076975441235816,-0.11661757739826903,-0.1153498499584501,-0.1045920488649597,-0.19651986706184937,-0.19318118704711842,0.13158380303724523,0.17774394289469078,0.08499366522671956,0.19896092592689,0.1727465541837206,0.06343198650454224,0.06608706893150788,0.2068997768807394,0.13363203205007157,-0.09134176429949932,-0.3564879424383304,-0.26671445808142275,-0.21963249987856603,-0.025488494982246517,0.07489706964656966,0.0193372676689,0.0556991528552,0.0306237628929,0.00488965396243,-0.107383135261,-0.0797231754551,0.03316525839514124,-0.06352035190002354,-0.184307039041279,-0.04733165627019234,-0.17828514399832748,-0.16805402143522916,-0.09690326895654919,0.11942029443220172,0.16208722125268565,0.21181501169464909,0.16811537423094391,0.44360061248063365,0.3123063347772504,0.18351630005182504,0.292432287799838,0.2523062368067102,0.041892526017762395,-0.34914273627882725,-0.17617689624087884,-0.23666242582692698,-0.20757106721982121,-0.06248034068940735,0.0659427941075,0.0546776927992,0.0500483103229,-0.068897151551,-0.0154956463472,0.0344132872133,-0.175910576098,-0.07749809869179759,-0.24267725142417584,-0.03850794722902306,-0.23858103361962024,-0.22259835252318552,-0.23202652312234426,0.14181823645604924,0.4267543601067013,0.36253361023231,0.3222422063796915,0.29261633118641783,0.17583363095170118,0.2953059532212559,0.25046867711315873,0.16457335345059587,-0.0984954165589213,-0.3554893306098205,-0.2292020387188909,-0.17578476343908409,-0.1778089405636808,-0.04299471557421936,-0.0460741925169,-0.0442792060722,-0.0175437068712,-0.0720453714457,-0.00151427333917,-0.00668641837324,-0.0279327249653,-0.21167772727778966,-0.23537599486714206,-0.14135417808677136,-0.23287759733545804,-0.261239707955703,-0.17873585547674267,0.17972216492352605,0.21442976784518153,0.10990216478110942,0.1697781085925113,0.17216149343836776,0.18959822605737064,0.07936374533434273,0.03043788599974561,-0.012747803585029558,-0.3070561594824538,-0.1418102961488559,-0.1302460945409217,-0.16162791112640987,0.03875555219515556,-0.05671251465101091,0.0435762722755,0.0376954960531,-0.0822729318725,-0.00373468497251,-0.0335385133062,-0.00880472475325,-0.04006805061655631,-0.12452395875244814,-0.047936339355307896,-0.1896869469517682,-0.22383963511955385,-0.1411838842390099,-0.004600871043739673,0.3703893125272258,0.17221957946175126,0.05214970065554194,0.03885368077079818,0.046018374894775595,0.1651183159688926,0.26004896912994,0.1426066521504686,-0.14012651563252182,-0.4445765217201162,-0.17578203399875053,-0.22350022895684113,0.08141241480115367,-0.004407335717751419,-0.07451174489598075,0.0165195473589,-0.0375400250553,8.66817703562E-5,0.0150601412218,0.00685699171959,-0.115023671186,0.042815352469409845,-0.1566598142287347,-0.17521297057105736,-0.27188798160530203,-0.2456019327516888,-0.1881965883861133,0.2588358470970245,0.3583081523663543,0.15649742458701243,-0.05646365844639085,0.03047210904110877,0.21069520115962723,0.30686712697863056,0.07307347305006687,-0.08457170753560017,-0.1405421912668716,-0.23674304447825228,-0.13632158019834242,0.04744440101512944,0.13689520951736572,-0.04899916274208172,-0.13549234175018077,0.0314248023469,0.0197576925257,-0.0300996794135,0.0650515721197,0.0700255425968,0.129542053267,0.023019578015246678,-0.12538976182276065,-0.07523273948055775,-0.34059599924834855,-0.18235943100952784,-0.21404816437886398,0.02643790275418837,0.15213592115960942,0.05974100698380939,0.12148544322742862,-0.056543217834561114,0.028359755885176027,-0.008150418901306434,0.024631262917204508,-0.16937395259496435,-0.13828174377281968,-0.10728031327051354,-0.07644699989835456,-0.07539303211113561,0.15576732737773674,-0.04630430199420808,-0.10496087954895182,0.0541546477112,-0.0725812351598,0.00569752716003,-0.0173805789883,0.0350448762892,-0.0284943460086,0.06497738497556817,0.03651574385435383,0.025134830952481795,-0.18945955924004512,-0.20418592553288806,-0.2817055730328178,0.028093045014443464,0.18757099765116295,0.08118944174769367,-0.02483581223615209,0.04150334459483946,0.0929209512150274,-0.10767774320082005,-0.18758226054047963,-0.22428144327851124,-0.09371714567978934,-0.04360682801396047,-0.05844724535837975,-0.13227392077563951,0.011913301490318088,0.11231229727866084,0.00213100758587,0.00695986364848,-0.00705721679223,0.0351377770835,-0.013816573955,-0.0336312532418,-0.023727303387,0.0850359544528599,-0.010400714300047732,-0.09203631981525548,-0.16962758963030572,-0.2126491201095072,-0.39693299502548424,-0.21440263036850427,0.04738122965485414,0.0268682124485653,0.044678350512249984,0.05186804425560204,0.08861063635969701,0.02274092063705948,-0.1693875268189332,-0.15231102493247362,-0.17777772156209184,0.17671265402983977,-0.04571233144399126,-0.014357291125770139,-0.041427775719686935,0.07098621683216834,0.0488862254056,-0.143831131555,-0.0446748227028,0.0101211802082,0.0217264418884,0.0116220580146,0.0454203820782,0.03204840699056551,0.016388843384518684,0.050144001260893245,-0.039815413656568474,0.0683756938009586,-0.1513153959997866,-0.21929893652616841,-0.09406525274089039,0.01269857731354566,0.06952608657643827,-0.02798730540430275,0.01345596564129875,0.03681566725425537,-0.10696714467817191,-0.21496156763721866,-0.0311951462769598,0.01599271207999771,-0.06167165098459702,0.0464626766756223,0.038010103470413205,-0.0434375444855974,0.0249476167185,1.45902058091E-4,0.0096050444398,-0.02059314131,-0.0446936605812,0.0386693148947,0.0725791760579,0.026135069867884258,-0.028635050393534617,0.03394416467352,-0.04359696577292873,0.1094357812830273,0.026979118017903675,-0.09346044829816033,-0.07414970928886025,-0.10920482734815751,-0.014371423471331102,0.11366761783393366,-0.060255450371830534,0.006355619359328927,-0.11712447660165037,-0.008618304294507405,-0.027005942149708587,0.15533181493519949,0.1334645768169166,-0.048639627488950454,0.12472147861683758,0.10931599749745999,0.0935622244072,0.0541184264557,-0.00264599685637,-0.0424096160867,0.0332186344556,-0.0234561870905,0.108838961655,0.06226892463839638,-0.07133005524411376,-0.0680196200221545,0.07900703327593417,0.09789959363656735,0.06374794843670677,0.03606459717256856,-0.08476497077792645,-0.14733125048185905,0.1629295859682346,0.13771864554764335,0.07104075469532013,0.09868822978736366,0.029026421192958327,0.13374591531263463,0.022655140767127317,-0.00379358239387057,0.01463622856577852,-0.00794690002717316,-0.020451479435795093,0.03454335436034615,0.004378114078124507,0.12332746039629681,-0.0415559293838,-0.0125256830225,0.0704115080078,0.070640441601,-0.0397977972412,0.04252986913874196,0.0187000818458662,0.029993733453232974,-0.09696811541997152,-0.1357659236117269,-0.025082889918215,0.0646615571830796,0.06559494646746293,0.101924540718639,0.03306024598347276,-0.0447222692710357,-0.01722189800726354,0.1360986884511218,0.02732854567167119,0.10327898699345119,0.1552272006800535,0.08021453152123895,-0.030086333999141388,0.04417136976147897,0.0035659752831796506,-0.04625328363988362,0.04762887310994066,-0.12097821623803187,8.36206426532E-5,-0.0371848557341,0.0186226711178,0.0781519541121,0.0398678521363,-0.0451179733574,-0.014128600947056404,0.023338767530757067,-0.06565684652647037,-0.0659245613514542,-0.11028870512137902,-0.14798577715200414,-0.036521758767626276,-0.04816943879204325,0.021889732056302565,0.14012807958290296,0.18845404590391326,0.2266422913312469,0.12944697540216654,0.1425069863740393,0.1032253681213348,0.08932087049581425,0.0246778519961998,-0.03495474064917201,-0.044004171925489347,-0.010949731283274821,-0.006289319758096805,0.10055110862534264,0.0910530703891,0.028306075913,0.0918399070507,0.0490266327473,-0.0064127013937,0.00278748533302,0.0402774098089,-0.0670286016275,0.0572786384944,0.071274057225655,-0.021951828188217812,-0.08691595552945898,-0.11031607696998624,0.0879370885186559,-0.02608936998853656,0.05766772253999321,0.08200495822195676,0.07682927687984656,0.2393357652703418,0.05653101800776318,0.007286529940223836,0.0268406638119145,-0.1165373427704262,-0.004670270244806133,0.020364028177526774,0.04682654601524385,0.04327238781201396,-0.015562026335215936,0.0892150468624,0.0272248714377,0.0675472135816,0.045553717268,-0.0015876751071,-0.0345446194099,0.0380032574817,-0.0431082256016,0.0485376928264,0.0330450450557,-0.181536314735,-0.0033483465375223577,0.07287520819393928,0.08631423986218632,0.02904961769523082,-0.028253349068826136,0.05652868743241032,-0.03356677167532179,-0.04173103265734144,0.017688756759815523,-0.08244609265694158,-0.00322378263945,-0.0448623049599,-0.010401623916603188,0.021144502152596813,0.08120371148139682,-0.0335744222256,0.0569880195181,-0.121837411535,-0.0673595466662,-0.112046457663,0.0101270595479,0.0793767378304,-0.0585272829152,0.00124588364101,-0.0725149530448,0.0386948577725,-0.0409724848961,0.0342623560287,0.0249980912013,0.00698753399706,-0.0243887185049,-0.00344334564408,0.0121363285766,0.152302575456,-0.0233965205009,-0.0593330421528,-0.0421672182978,-0.0367635567681,0.0106582449017,1.56248208012E-4,-0.101659949015,-0.00756636611354,0.027911813225,0.0575342567861,0.00421731009724,0.0291709721175],[-0.0472926637981,0.0215055222261,-0.0186995265784,0.0401130651423,0.0707017147038,-0.0682387299251,0.0177736392049,0.064195363731,-0.0390881244095,0.104102299166,-0.0679935877044,0.0123182813279,0.0221691149545,0.0139130510613,0.0183307655821,-0.0377540972999,0.048617836935,0.0419831281158,-0.0135223540012,0.026839805672,-0.00738916614411,-0.0343249974768,-0.0444295224894,0.0391584628531,-0.0589412462136,0.0311113716523,-0.0142755567043,-0.0192100452719,-0.0141611040884,-0.00858019028712,0.0232802735671,-0.0464261568188,-0.0042437887352,0.00682745953498,-0.0134558153412,-0.0357351148873,0.00672682313761,0.0332289171708,0.0551197146128,0.164591111662,0.104955924771,-0.0792294112991,0.0413183632026,0.0304434948908,-0.0428057419678,0.0505238208304,-0.00519051943801,0.0262291164225,0.017961256515,-0.00786012642577,-0.0936010499818,-0.0747606114324,0.052377050449,0.0100401482897,0.0390966911617,-0.0443057933677,0.0762903426064,0.09802644606,-0.0632209044141,0.0888273030642,-0.0296677510179,-0.0686012240644,9.30756680135E-4,-0.0692630906853,-0.0843332631737,0.0797779014546,-0.006743369359007757,0.040290382421151516,-0.0024487608628059256,-0.03993743695811522,-0.13683334196591285,0.06113531140937432,-0.019991111260838332,0.027350089925415287,-0.05432079969517456,-8.197393550660111E-4,0.0969134547263,-0.0491984903949,0.0446669651853,-0.0198651078541,0.0706099225579,0.00357889583374,0.00244156439145,0.0658078140119,-0.0767329694095,0.0146676842556,0.060758800044,-0.0272390181125,-0.043315517683,-0.05943423086849058,0.08158818832355318,-0.008487591204277473,0.04141523546741484,-0.10195529967854731,-0.04121405679198782,-0.0498749596248928,-0.048569696822119354,-0.08282568522903352,-0.1951911289270909,-0.13553438380793498,-0.1540374553480118,-0.045990964367251634,0.09234495034762563,0.041280009500242264,0.03253495797821033,0.022241451363949734,0.045572617500901615,0.02272790488908949,-0.0127441183603,0.0281353573958,-0.0838973711133,0.0434334119988,-0.00621602645509,0.00601040230777,-0.111313871159,-0.0853729108881,-0.0676511607001,0.006662716164521742,-0.060376097780438676,-0.036508212421424734,0.05039817594617555,-0.21430987845816346,-0.05257260839030248,0.027740342804666904,-0.12487188302410064,-0.2680552648076934,-0.2667621836244442,-0.13675596955738448,0.06344366597644888,-0.03959156742743358,0.007469995798121458,0.12475781473147499,0.0035120830452737466,-0.09942206437318996,0.010441982113646338,-0.08414171035216865,-0.03844938634912014,0.0414084272403,-0.0115059890163,6.02744651279E-5,-0.0194534896469,-0.0436191894845,-0.0186823176024,-0.0701858380982,-4.423104502239128E-4,-0.05900939778222497,-0.01690085668183813,-0.022425141348154782,-0.14122132398561987,-0.16329555674406152,-0.005248642175311647,-0.2139315307614996,-0.07232898240393618,-0.031315477416356374,0.023584066970062448,-0.06696104373694259,-0.08725023428460393,-0.0529788749010127,-0.16541264379879142,-0.15843022161013667,-0.08962432465464239,-0.1515475627264961,-0.0583046707749765,-0.05617507143222392,0.01676318492976594,-0.05068411444330576,-0.00493731290952,-0.0281427674641,0.0451003674024,-0.066569638227,0.0755893952976,0.0936155965176,-0.025808545522477806,0.08656049009361308,0.043582059072267074,0.13700241821903197,-0.08974579370001685,0.13339954611044783,0.17467007953082095,0.1286126677601011,0.06650965175569344,0.2693898855441305,0.13329641904394351,0.055545620035944744,-0.009280404290086992,0.05075211489876903,-0.033266633902334135,-0.09001771128250964,0.05417707313643994,-0.07642819049405046,0.020693266431518878,-0.09112215255775416,0.06971444199163297,-0.024139780601394177,0.064058473594,-0.0141591431363,0.00945566364654,-0.0254270287357,-0.0479821508689,0.00705390478551,0.0387613522844778,-0.20731141147439638,-0.07230896458540656,0.022054327730508038,0.09059237011752516,0.06849656436494585,0.10661254523535645,0.1607683555249048,0.14146447632031783,-0.014218826423830691,0.20920068764614363,-0.015859486356803204,-0.03412287496587481,0.13150097382785247,-0.09339273333762607,0.040522494067009564,0.07433345080800485,-0.12972639730403546,-0.15981922367400353,-0.06862763898579133,-0.10746597199143916,-0.04230740601150244,0.0116617829903,-0.114554864103,-0.0312036771391,-6.90479503733E-4,0.0832009677037,0.0544360444873,-0.04264914292605662,-0.27428778491825123,-0.12984546885475437,0.0034393071364836924,-0.12516882914046945,-0.021415662699652237,0.10296588956617166,0.14654218799063481,0.04002143131004664,-0.14064374293012105,0.06514845355523435,-0.06353812699139051,0.07334755312018394,0.13924843942161094,0.14091653024503062,0.1557343637617087,0.09283433474641939,-0.061123461340980755,-0.08496730547447814,-0.14356541839662754,-0.20477266278215953,-0.08802585077020243,-0.0487740101875,0.054440658391,-0.0180774679921,0.0857048370153,0.0223913131203,0.00186949653517,-0.03425277265770203,-0.13729793308735475,-0.020499018223667766,0.18860936648544951,-0.003080082275024311,0.27398337366619624,0.3161713088207325,0.2953653086810169,0.07827087139800554,-0.3738869311178116,-0.26243027289812765,-0.13378649371889761,0.1748912280178074,0.09772951826477977,-0.03833351357074629,-0.05201195479615612,-0.027322688902120792,0.005217567864914961,-0.12409027970487058,-0.10100216189683915,-0.10447403449795914,-0.00340937655887244,0.0657117452721,0.067490247152,0.0253847425072,0.0444900893301,0.0495035783118,0.11858307774,-0.04611306721284336,0.04058888854306197,0.10204014900707419,0.15593301728482759,0.2761148924157008,3.981564435621851E-4,-0.07830149870745516,-0.2846159975170279,-0.8195735887424136,-0.6287188765966935,-0.42688605610793673,0.10388471671247185,0.2004761195260342,-0.007419383522751893,0.22261641265472415,0.0682000679643016,0.08837334129562173,0.1305100409722364,-0.009270830640832093,-0.1481139191106484,-0.02481660998671208,0.11778912205421958,0.0246802887009,0.0109511094017,-0.00659062848408,0.0474024558816,-0.122777895855,-0.0172307546431,0.04069503454489638,-0.014134206709210562,0.0010066839828590257,-0.12556274736141734,-0.01022429797806806,-0.5765011148669759,-1.1605043085323907,-1.3814668004446513,-0.9645217911144832,-0.21012354708954806,0.2558746032437918,0.09739313233458703,-0.14056351602445255,0.12149239790674962,-0.04764568948284972,0.023429761338798687,0.2571906162103127,0.06999260397247853,0.18356365622187093,-0.06244891933246398,-0.0522129351753705,0.012445676794993143,-0.0642730007854,-2.6067712449E-4,-0.0342561551319,0.0488206121559,-0.0776227508689,0.0108901580274,-0.09899050749801523,-0.15596366772293138,-0.34155537098727357,-0.6661247953775423,-1.0194228769509337,-1.3195972322885188,-0.8868307247119195,-0.5081971065177804,0.2512653273626783,0.44852155318898485,0.24012472230132986,0.15534832460047182,0.0494865456861993,-0.09779639994894164,-0.027634806444024856,-0.08657481080595086,0.049232090167812735,-0.14446429589303772,-0.0721063647870526,-0.08757464018134248,-0.15049154515702912,0.03222993904446861,-0.0542517117794,0.0372670305891,0.0432728602973,-0.00895550285704,0.068363793293,-0.046182689751,-0.153791947864,-0.37952157875817844,-0.5404824335273125,-0.8070632295712649,-0.7979847418958186,-0.5260352353178478,-0.07434393672352352,0.23716684462444895,0.4459914857703664,0.2000736111076212,0.08988682285526883,-0.029041225979077316,0.07649693865198874,0.04385560708729889,0.09493403748560277,-0.08015061207008342,-0.23556023168500315,-0.03552106405350709,-0.20839128545432986,-0.17033955978309803,-0.007152703202708523,0.015915258125740225,-0.0137019928868,-0.00270232893484,0.0292361134282,0.0160440278684,-0.00295931409799,-0.136908815724,-0.103206547462,-0.39387676259708854,-0.3703188202336242,-0.3318036859233394,-0.23028954031069337,0.034332767088147545,0.1042571188009022,0.1998650392158133,0.4109884809841236,0.25995920495425534,0.2788272016653629,0.2826093653424631,-0.013524183138086851,0.04330209308221754,0.19549400607683914,0.14584126096195466,0.0801391102238929,0.06855806271199097,-0.12642832595044567,-0.06594373472141653,0.007276757927236271,-0.03893738674661845,-0.00249534115364,0.0977694486227,0.0286559346566,0.0737835205253,-0.0508667747054,-0.0110454971484,-0.03903638851754891,-0.027150042279457626,-0.12064987961080433,-0.13075943232213144,-0.05101204852240373,0.1092611783490558,0.08086091330276264,0.18142961309471892,0.3832343105763107,0.44267191538021045,0.263873728495469,0.11991184111351787,0.040824527244213496,-0.039022149569025395,0.14606291635383828,0.016287808922673504,0.11479815684115272,0.15124502390596342,0.013263899424582682,-0.018403276992632885,0.0015441564193973787,-3.3565378425686674E-4,-0.0541071131382,-0.037656069899,0.0286975122253,-0.0405648262192,0.0817361450502,0.00963142377629,-0.04903836094850164,-0.053567100561604346,-0.11662562774014137,-0.09660364696023466,-0.13707592256162396,0.057974009348060844,0.009647838089508741,0.11800000457897299,0.3153813912353188,0.29943783245972727,0.12560789273477413,0.1199975348766185,0.09323777361931787,0.28938546091095585,-0.1337289973549594,0.04582908049402706,0.05930737369642389,0.024135213880403326,-0.10941234228699574,-0.057703502041368884,0.07928139109490014,-0.18458379400956887,0.044065228825,-0.0753032185671,-0.0107691912177,-0.113764063948,0.160009602289,0.163586689341,-0.07085802723152686,-0.17611504108638515,-0.24768030901425636,-0.17519399525255042,-0.23675612193023074,-0.16230227219502383,-0.27026351177006014,-0.004902655843841987,0.12677264586150835,0.024374728499932073,0.2124411365014659,0.08060560122593295,7.086997658280747E-4,-0.07589413584488437,-0.0082768761111771,-0.027689623111700538,-0.20520877232084977,0.14750542748656073,-0.10975803190399946,0.03921779507439682,-0.2084465818864459,-0.10678648962035783,2.82919955361E-4,-0.0430340702012,0.0377338123647,0.0408427650694,0.0777126076312,-0.00386197493017,-0.17869668708418282,-0.30827781035545715,-0.47439632903625933,-0.357458858230149,-0.45046377991235764,-0.3249805592257309,